svm_type epsilon_svr
kernel_type rbf
gamma 0.25
nr_class 2
total_sv 1946
rho -1863.2612678334117
SV
-1 1:-0.877647 2:-0.913043 4:-0.996094 
-1 1:-0.976471 2:-0.913043 4:-1 
-1 1:-0.910588 2:-0.913043 4:-1 
-1 1:-0.967059 2:-0.913043 4:-1 
-1 1:-0.938824 2:-0.73913 4:-0.996094 
-1 1:-0.976471 2:-0.913043 4:-1 
-1 1:-0.971765 2:-0.565217 3:-1 4:-0.984375 
-1 1:-0.938824 2:-0.73913 4:-0.992188 
-1 1:-0.969412 2:-0.913043 4:-0.984375 
-1 1:-0.988235 2:-0.478261 4:-0.992188 
-1 1:-0.938824 2:-0.130435 3:1 4:-0.984375 
-1 1:-0.950588 2:-0.73913 3:1 4:-0.980469 
-1 1:-0.988235 2:-0.73913 3:1 4:-0.980469 
-1 1:-0.945882 2:-0.913043 4:-0.992188 
-1 1:-0.969412 2:-0.565217 4:-0.984375 
-1 1:-0.856471 2:-0.913043 3:-0.96875 4:-0.988281 
-1 1:-0.856471 2:-0.913043 3:-0.96875 4:-0.988281 
-1 1:-0.856471 2:-0.913043 3:-0.96875 4:-0.988281 
-1 1:-0.409412 2:-0.913043 3:1 4:-0.996094 
-1 1:-0.985882 2:-0.565217 3:1 4:-0.996094 
-1 1:-0.635294 2:-0.913043 3:1 4:-0.996094 
-1 1:-0.635294 2:-0.913043 3:1 4:-0.996094 
-1 1:-0.635294 2:-0.913043 3:1 4:-0.996094 
-1 1:-0.910588 2:-0.826087 4:-1 
-1 1:-0.877647 2:-1 3:-1 4:-0.996094 
-1 1:-0.96 2:-0.565217 4:-0.996094 
-1 1:-0.938824 2:-0.73913 4:-0.996094 
-1 1:-0.945882 2:-0.913043 4:-0.996094 
-1 1:-0.952941 2:-0.73913 4:-0.996094 
-1 1:-0.988235 2:-0.913043 4:-0.992188 
-1 1:-0.988235 2:-0.913043 4:-0.996094 
-1 1:-0.950588 2:-0.565217 4:-0.992188 
-1 1:-0.409412 2:-0.565217 4:-0.996094 
-1 1:-0.988235 2:-0.913043 4:-0.996094 
-1 1:-0.952941 2:-0.73913 4:-0.996094 
-1 1:-0.988235 2:-0.913043 4:-0.992188 
-1 1:-0.635294 2:-0.913043 3:1 4:-0.996094 
-1 1:-0.635294 2:-0.913043 3:1 4:-0.996094 
-1 1:-0.934118 2:-0.73913 3:1 4:-0.980469 
-1 1:-0.872941 2:-0.913043 3:1 4:-0.996094 
-1 1:-0.409412 2:-0.913043 3:1 4:-0.996094 
-1 1:-0.971765 2:-0.913043 4:-1 
-1 1:-0.802353 2:-0.913043 3:1 4:-0.996094 
-1 1:-0.635294 2:-0.913043 3:1 4:-0.996094 
-1 1:-0.635294 2:-0.913043 3:1 4:-0.996094 
-1 1:-0.988235 2:-0.73913 3:1 4:-0.980469 
-1 1:-0.635294 2:-0.913043 3:1 4:-0.996094 
-1 1:-0.870588 2:-0.913043 4:-1 
-1 1:-0.931765 2:-0.913043 3:1 4:-0.996094 
-1 1:-0.976471 2:-0.913043 4:-1 
-1 1:-0.927059 2:-0.217391 4:-1 
-1 1:-0.802353 2:-0.913043 3:1 4:-0.996094 
-1 1:-0.877647 2:-0.913043 3:1 4:-0.996094 
-1 1:-0.985882 2:-0.565217 3:1 4:-0.996094 
-1 1:-0.635294 2:-0.913043 3:-1 4:-0.996094 
-1 1:-0.409412 2:-0.913043 4:-0.988281 
-1 1:-0.545882 2:-0.826087 4:-0.996094 
-1 1:-0.635294 2:-0.913043 3:1 4:-0.996094 
-1 1:-0.635294 2:-0.913043 3:1 4:-0.996094 
-1 1:-0.872941 2:-0.913043 3:1 4:-0.996094 
-1 1:-0.635294 2:-0.913043 3:1 4:-0.996094 
-1 1:-0.635294 2:-0.913043 3:1 4:-0.996094 
-1 1:-0.969412 2:-0.565217 3:1 4:-0.996094 
-1 1:-0.635294 2:-0.913043 3:1 4:-0.996094 
-1 1:-0.741176 2:-0.826087 4:-0.996094 
-1 1:-0.938824 2:-0.73913 4:-0.992188 
-1 1:-0.96 2:-0.565217 4:-0.992188 
-1 1:-0.938824 2:-0.73913 4:-0.996094 
-1 1:-0.938824 2:-0.73913 4:-0.992188 
-1 1:-0.854118 2:-0.73913 4:-0.984375 
-1 1:-0.938824 2:-0.913043 4:-0.988281 
-1 1:-1 2:-0.73913 4:-0.992188 
-1 1:-0.409412 2:-0.565217 4:-0.992188 
-1 1:-0.971765 2:-0.913043 4:-0.988281 
-1 1:-0.992941 2:-0.73913 4:-0.988281 
-1 1:-0.988235 2:-0.478261 4:-0.996094 
-1 1:-0.927059 2:-0.652174 3:-0.5 4:-0.992188 
-1 1:-0.952941 2:-0.73913 4:-0.996094 
-1 1:-0.938824 2:-0.73913 4:-0.992188 
-1 1:-0.964706 2:-0.217391 4:-0.988281 
-1 1:-0.854118 2:-0.217391 4:-0.992188 
-1 1:-0.938824 2:-0.913043 4:-0.988281 
-1 1:-0.964706 2:-0.73913 4:-0.992188 
-1 1:-0.971765 2:-0.913043 4:-0.988281 
-1 1:-0.952941 2:-0.73913 4:-0.996094 
-1 1:-0.938824 2:-0.73913 4:-0.996094 
-1 1:-0.964706 2:-0.652174 3:-1 4:-0.996094 
-1 1:-0.990588 2:-0.565217 4:-0.980469 
-1 1:-0.938824 2:-0.73913 4:-0.992188 
-1 1:-0.901176 2:-0.73913 4:-0.988281 
-1 1:-0.964706 2:-0.652174 3:-1 4:-0.996094 
-1 1:-0.983529 2:-0.73913 4:-0.992188 
-1 1:-0.990588 2:-0.913043 4:-0.996094 
-1 1:-0.927059 2:-0.478261 4:-0.984375 
-1 1:-0.952941 2:-0.73913 4:-0.992188 
-1 1:-0.938824 2:-0.73913 3:1 4:-0.980469 
-1 1:-0.995294 2:-0.652174 3:1 4:-0.96875 
-1 1:-0.927059 2:-0.73913 4:-0.992188 
-1 1:-0.988235 2:-0.478261 4:-0.992188 
-1 1:-0.938824 2:-0.73913 4:-0.988281 
-1 1:-0.964706 2:-0.913043 4:-0.980469 
-1 1:-0.952941 2:-0.73913 4:-0.992188 
-1 1:-0.955294 2:-0.652174 3:-1 4:-0.996094 
-1 1:-0.988235 2:-0.913043 4:-0.992188 
-1 1:-0.945882 2:-0.913043 4:-0.996094 
-1 1:-0.945882 2:-0.913043 4:-0.992188 
-1 1:-0.915294 2:-0.73913 4:-0.996094 
-1 1:-0.945882 2:-0.913043 4:-0.992188 
-1 1:-0.409412 2:-0.73913 4:-0.992188 
-1 1:-0.988235 2:-0.913043 4:-0.992188 
-1 1:-0.988235 2:-0.913043 4:-0.992188 
-1 1:-0.952941 2:-0.652174 3:1 4:-0.976562 
-1 1:-0.955294 2:-0.73913 4:-0.988281 
-1 1:-0.905882 2:-0.73913 4:-0.988281 
-1 1:-0.988235 2:-0.913043 4:-0.992188 
-1 1:-0.938824 2:-0.73913 3:1 4:-0.980469 
-1 1:-0.992941 2:-0.73913 3:1 4:-0.980469 
-1 1:-0.955294 2:-0.565217 3:1 4:-0.980469 
-1 1:-0.992941 2:-0.73913 3:1 4:-0.980469 
-1 1:-0.983529 2:-0.478261 4:-0.984375 
-1 1:-0.894118 2:-0.304348 4:-0.964844 
-1 1:-0.983529 2:-0.478261 4:-0.984375 
-1 1:-0.957647 2:-0.565217 4:-1 
-1 1:-0.988235 2:-0.391304 4:-0.988281 
-1 1:-0.854118 2:-0.217391 4:-0.992188 
-1 1:-0.983529 2:-0.478261 4:-0.984375 
-1 1:-0.825882 2:-0.304348 4:-0.964844 
-1 1:-0.825882 2:-0.304348 4:-0.964844 
-1 1:-0.995294 2:-0.652174 3:1 4:-0.976562 
-1 1:-0.858824 2:-0.130435 4:-0.964844 
-1 1:-0.945882 2:-0.73913 3:1 4:-0.980469 
-1 1:-0.863529 2:-0.478261 3:1 4:-0.980469 
-1 1:-0.945882 2:-0.913043 4:-0.992188 
-1 1:-0.938824 2:-0.73913 4:-0.996094 
-1 1:-0.936471 2:-0.73913 4:-0.984375 
-1 1:-0.992941 2:-0.73913 3:1 4:-0.980469 
-1 1:-0.945882 2:-0.913043 4:-0.992188 
-1 1:-0.988235 2:-0.73913 3:1 4:-0.980469 
-1 1:-0.936471 2:-0.565217 4:-0.992188 
-1 1:-0.945882 2:-0.913043 4:-0.992188 
-1 1:-0.938824 2:-0.73913 3:1 4:-0.980469 
-1 1:-0.938824 2:-0.73913 3:1 4:-0.980469 
-1 1:-0.945882 2:-0.913043 4:-0.996094 
-1 1:-0.945882 2:-0.73913 3:1 4:-0.980469 
-1 1:-0.945882 2:-0.73913 3:1 4:-0.980469 
-1 1:-0.945882 2:-0.913043 4:-0.992188 
-1 1:-0.945882 2:-0.913043 4:-0.996094 
-1 1:-0.938824 2:-0.73913 3:1 4:-0.980469 
-1 1:-0.941176 2:-0.913043 4:-0.996094 
-1 1:-0.938824 2:-0.73913 4:-0.996094 
-1 1:-0.941176 2:-0.913043 4:-0.996094 
-1 1:-0.901176 2:-0.73913 3:1 4:-0.980469 
-1 1:-0.992941 2:-0.73913 3:1 4:-0.980469 
-1 1:-0.988235 2:-0.913043 4:-0.996094 
-1 1:-0.884706 2:-0.565217 3:1 4:-0.980469 
-1 1:-0.945882 2:-0.73913 3:1 4:-0.984375 
-1 1:-0.992941 2:-0.73913 3:1 4:-0.980469 
-1 1:-0.955294 2:-0.652174 3:-1 4:-0.996094 
-1 1:-0.988235 2:-0.913043 4:-0.996094 
-1 1:-0.938824 2:-0.73913 4:-0.992188 
-1 1:-0.938824 2:-0.73913 3:1 4:-0.980469 
-1 1:-0.945882 2:-0.913043 4:-0.992188 
-1 1:-0.945882 2:-0.913043 4:-0.996094 
-1 1:-0.938824 2:-0.73913 3:1 4:-0.980469 
-1 1:-0.8 2:-0.913043 3:1 4:-0.996094 
-1 1:-0.941176 2:-0.913043 4:-0.996094 
-1 1:-0.941176 2:-0.913043 4:-0.992188 
-1 1:-0.988235 2:-0.73913 3:1 4:-0.980469 
-1 1:-0.849412 2:-0.478261 3:1 4:-0.980469 
-1 1:-0.971765 2:-0.565217 3:-1 4:-0.996094 
-1 1:-0.350588 2:-0.217391 4:-0.984375 
-1 1:-0.350588 2:-0.565217 4:-0.992188 
-1 1:-0.992941 2:-0.217391 4:-0.996094 
-1 1:-0.988235 2:-0.391304 4:-0.992188 
-1 1:-0.992941 2:-0.652174 4:-0.992188 
-1 1:-0.350588 2:1 4:-0.992188 
-1 1:-0.941176 2:-0.913043 4:-0.992188 
-1 1:-0.934118 2:-0.73913 4:-0.992188 
-1 1:-0.945882 2:-0.913043 4:-0.996094 
-1 1:-0.931765 2:-0.913043 3:1 4:-0.992188 
-1 1:-0.931765 2:-0.73913 4:-0.992188 
-1 1:-0.992941 2:-0.73913 3:1 4:-0.980469 
-1 1:-0.976471 2:-0.913043 4:-0.996094 
-1 1:-0.945882 2:-0.73913 3:1 4:-0.980469 
-1 1:-0.943529 2:0.217391 3:1 4:-0.976562 
-1 1:-0.938824 2:-0.73913 4:-0.992188 
-1 1:-0.945882 2:-0.913043 4:-0.996094 
-1 1:-0.976471 2:-0.913043 4:-0.996094 
-1 1:-0.971765 2:-0.913043 3:1 4:-0.988281 
-1 1:-0.858824 2:-0.826087 4:-0.988281 
-1 1:-0.858824 2:-0.826087 4:-0.988281 
-1 1:-0.858824 2:-0.826087 4:-0.988281 
-1 1:-0.858824 2:-0.826087 4:-0.988281 
-1 1:-0.981176 2:-0.652174 3:1 4:-0.984375 
-1 1:-0.945882 2:-0.913043 4:-0.996094 
-1 1:-0.901176 2:-0.304348 3:1 4:-0.980469 
-1 1:-0.938824 2:-0.73913 4:-0.988281 
-1 1:-0.983529 2:-0.73913 4:-0.992188 
-1 1:-0.988235 2:-0.73913 3:1 4:-0.980469 
-1 1:-0.985882 2:-0.652174 3:-1 4:-0.992188 
-1 1:-0.943529 2:-0.73913 3:1 4:-0.980469 
-1 1:-0.858824 2:-0.826087 4:-0.988281 
-1 1:-0.858824 2:-0.826087 4:-0.988281 
-1 1:-0.858824 2:-0.826087 4:-0.988281 
-1 1:-0.938824 2:-0.73913 3:1 4:-0.980469 
-1 1:-0.938824 2:-0.73913 4:-0.996094 
-1 1:-0.945882 2:-0.913043 4:-0.996094 
-1 1:-0.938824 2:-0.73913 3:1 4:-0.980469 
-1 1:-0.941176 2:-0.565217 3:1 4:-0.980469 
-1 1:-0.945882 2:-0.73913 3:1 4:-0.980469 
-1 1:-0.990588 2:-0.73913 3:1 4:-0.980469 
-1 1:-0.941176 2:-0.913043 4:-0.992188 
-1 1:-0.990588 2:-0.913043 4:-0.992188 
-1 1:-0.964706 2:-0.652174 3:-1 4:-0.996094 
-1 1:-0.938824 2:-0.913043 3:1 4:-0.992188 
-1 1:-0.938824 2:-0.73913 3:1 4:-0.980469 
-1 1:-0.945882 2:-0.913043 4:-0.992188 
-1 1:-0.938824 2:-0.73913 4:-0.992188 
-1 1:-0.945882 2:-0.913043 4:-0.992188 
-1 1:-0.938824 2:-0.73913 4:-0.992188 
-1 1:-0.938824 2:-0.73913 4:-0.988281 
-1 1:-0.938824 2:-0.913043 4:-0.988281 
-1 1:-0.964706 2:-0.826087 4:-0.988281 
-1 1:-0.983529 2:-0.913043 3:1 4:-0.988281 
-1 1:-0.952941 2:-0.73913 4:-0.992188 
-1 1:-0.957647 2:-0.73913 4:-0.992188 
-1 1:-0.722353 2:-0.73913 4:-0.992188 
-1 1:-0.722353 2:-0.73913 4:-0.992188 
1 1:-0.936471 2:-0.652174 3:1 4:-0.980469 
1 1:-0.967059 2:-0.652174 3:1 4:-0.980469 
1 1:-0.905882 2:-0.391304 4:-0.996094 
1 1:-0.945882 2:-0.913043 4:-0.996094 
1 1:-0.945882 2:-0.73913 3:1 4:-0.980469 
1 1:-0.945882 2:-0.73913 3:1 4:-0.980469 
1 1:-0.938824 2:-0.73913 4:-0.992188 
1 1:-0.945882 2:-0.913043 4:-0.992188 
1 1:-0.988235 2:-0.913043 4:-0.996094 
1 1:-0.981176 2:-0.652174 3:1 4:-0.984375 
1 1:-0.964706 2:-0.652174 3:-1 4:-0.996094 
1 1:-0.964706 2:-0.652174 3:-1 4:-0.992188 
1 1:-0.924706 2:-0.304348 4:-0.984375 
1 1:-0.992941 2:-0.73913 3:1 4:-0.980469 
1 1:-0.992941 2:-0.73913 3:1 4:-0.980469 
1 1:-0.945882 2:-0.73913 3:1 4:-0.980469 
1 1:-0.945882 2:-0.73913 3:1 4:-0.980469 
1 1:-0.955294 2:-0.565217 3:1 4:-0.980469 
1 1:-0.941176 2:-0.565217 3:1 4:-0.980469 
1 1:-0.964706 2:-0.652174 3:-1 4:-0.992188 
1 1:-0.964706 2:-0.652174 3:-1 4:-0.992188 
1 1:-0.964706 2:-0.652174 3:-1 4:-0.992188 
1 1:-0.938824 2:-0.73913 3:1 4:-0.980469 
1 1:-0.901176 2:-0.652174 4:-0.992188 
1 1:-0.945882 2:-0.73913 3:1 4:-0.980469 
1 1:-0.8 2:-0.73913 3:1 4:-0.980469 
1 1:-0.938824 2:-0.73913 3:1 4:-0.980469 
1 1:-0.927059 2:-0.130435 4:-0.996094 
1 1:-0.856471 2:-0.913043 3:-0.96875 4:-0.992188 
1 1:-0.985882 2:-0.652174 4:-0.992188 
1 1:-0.856471 2:-0.913043 3:-0.96875 4:-0.992188 
1 1:-0.967059 2:-0.565217 4:-0.992188 
1 1:-0.988235 2:-0.565217 4:-0.992188 
1 1:-0.856471 2:-0.913043 3:-0.96875 4:-0.992188 
1 1:-0.976471 2:-0.652174 3:-1 4:-0.992188 
1 1:-0.903529 2:-0.565217 4:-0.988281 
1 1:-0.945882 2:-0.913043 4:-0.992188 
1 1:-0.995294 2:-0.73913 3:1 4:-0.980469 
1 1:-0.903529 2:-0.565217 4:-0.984375 
1 1:-0.938824 2:-0.73913 3:1 4:-0.980469 
1 1:-0.903529 2:-0.73913 4:-0.988281 
1 1:-0.856471 2:-0.913043 3:-0.96875 4:-0.984375 
1 1:-0.856471 2:-0.913043 3:-0.96875 4:-0.984375 
1 1:-0.856471 2:-0.913043 3:-0.96875 4:-0.984375 
1 1:-0.849412 2:-1 3:-1 4:-0.996094 
1 1:-0.894118 2:-0.478261 3:1 4:-0.953125 
1 1:-0.964706 2:-0.652174 3:-1 4:-0.992188 
1 1:-0.945882 2:-0.913043 4:-0.996094 
1 1:-0.992941 2:-0.73913 3:1 4:-0.980469 
1 1:-0.969412 2:-0.652174 3:-1 4:-0.996094 
1 1:-0.945882 2:-0.913043 4:-0.984375 
1 1:-0.854118 2:-0.913043 4:-0.992188 
1 1:-0.941176 2:-0.652174 3:-1 4:-0.992188 
1 1:-0.964706 2:-0.652174 3:-1 4:-0.992188 
1 1:-0.964706 2:-0.652174 3:-1 4:-0.992188 
1 1:-0.964706 2:-0.652174 3:-1 4:-0.992188 
1 1:-0.938824 2:-0.73913 4:-0.992188 
1 1:-0.938824 2:-0.73913 4:-0.992188 
1 1:-0.985882 2:-0.73913 3:1 4:-0.980469 
1 1:-0.409412 2:-0.73913 4:-0.996094 
1 1:-0.934118 2:-0.913043 3:-0.96875 4:-0.996094 
1 1:-0.934118 2:-0.913043 3:-0.96875 4:-0.996094 
1 1:-0.903529 2:-0.652174 4:-0.984375 
1 1:-0.938824 2:-0.73913 4:-0.988281 
1 1:-0.988235 2:-0.73913 3:1 4:-0.980469 
1 1:-0.992941 2:-0.652174 3:-1 4:-0.992188 
1 1:-0.964706 2:-0.652174 3:-1 4:-0.992188 
1 1:-0.964706 2:-0.652174 3:-1 4:-0.992188 
1 1:-0.964706 2:-0.652174 3:-1 4:-0.992188 
1 1:-0.910588 2:-0.913043 3:1 4:-0.996094 
1 1:-0.774118 2:-0.217391 4:-0.972656 
1 1:-0.988235 2:-0.478261 4:-0.996094 
1 1:-0.941176 2:-0.913043 4:-0.992188 
1 1:-0.964706 2:-0.652174 3:-1 4:-0.996094 
1 1:-0.964706 2:-0.652174 3:-1 4:-0.992188 
1 1:-0.964706 2:-0.652174 3:-1 4:-0.992188 
1 1:-0.849412 2:-1 3:-1 4:-0.996094 
1 1:-0.976471 2:-0.652174 4:-0.992188 
1 1:-0.992941 2:-0.73913 3:1 4:-0.980469 
1 1:-0.978824 2:-0.565217 4:-0.984375 
1 1:-0.938824 2:-0.73913 4:-0.980469 
1 1:-0.771765 2:-0.652174 3:-1 4:-0.992188 
1 1:-0.988235 2:-0.73913 3:1 4:-0.980469 
1 1:-0.950588 2:-0.652174 3:-1 4:-0.992188 
1 1:-0.950588 2:-0.652174 3:-1 4:-0.992188 
1 1:-0.849412 2:-1 3:-1 4:-0.992188 
1 1:-0.950588 2:-0.391304 3:1 4:-0.980469 
1 1:-0.964706 2:-0.652174 3:-1 4:-0.992188 
1 1:-0.964706 2:-0.652174 3:-1 4:-0.992188 
1 1:-0.964706 2:-0.652174 3:-1 4:-0.992188 
1 1:-0.995294 2:-0.913043 4:-0.988281 
1 1:-0.908235 2:-0.130435 3:1 4:-0.980469 
1 1:-0.976471 2:-0.652174 3:-1 4:-0.996094 
1 1:-0.736471 2:-0.913043 4:-0.992188 
1 1:-0.974118 2:-0.217391 4:-0.984375 
1 1:-0.978824 2:-0.565217 4:-0.984375 
1 1:-0.981176 2:-0.913043 4:-0.972656 
1 1:-0.908235 2:-0.73913 3:1 4:-0.980469 
1 1:-0.884706 2:-0.652174 3:-1 4:-0.992188 
1 1:-0.992941 2:-0.73913 3:1 4:-0.980469 
1 1:-0.950588 2:-0.652174 3:-1 4:-0.996094 
1 1:-0.950588 2:-0.652174 3:-1 4:-0.992188 
1 1:-0.950588 2:-0.652174 3:-1 4:-0.992188 
1 1:-0.992941 2:-0.391304 4:-0.992188 
1 1:-0.950588 2:-0.652174 3:-1 4:-0.992188 
1 1:-0.992941 2:-0.73913 3:1 4:-0.980469 
1 1:-0.992941 2:-0.73913 3:1 4:-0.980469 
1 1:-0.938824 2:-0.913043 4:-0.992188 
1 1:-0.988235 2:-0.478261 4:-0.992188 
1 1:-0.957647 2:-0.565217 4:-0.992188 
1 1:-0.969412 2:-0.565217 3:1 4:-0.996094 
1 1:-0.910588 2:-0.913043 4:-1 
1 1:-0.858824 2:-0.826087 4:-0.988281 
1 1:-0.409412 2:-0.913043 4:-0.984375 
1 1:-0.409412 2:-0.913043 4:-0.984375 
1 1:-0.891765 2:-0.913043 4:-0.992188 
1 1:-0.736471 2:-0.826087 4:-0.988281 
1 1:-0.635294 2:-0.913043 3:1 4:-0.996094 
1 1:-0.409412 2:-0.913043 4:-0.984375 
1 1:-0.409412 2:-0.913043 4:-0.984375 
1 1:-0.992941 2:-0.73913 3:1 4:-0.980469 
1 1:-0.976471 2:-0.652174 4:-0.992188 
1 1:-0.872941 2:-0.913043 3:1 4:-0.996094 
1 1:-0.910588 2:-0.913043 4:-1 
1 1:-0.945882 2:-0.73913 3:1 4:-0.980469 
1 1:-0.802353 2:-0.913043 3:1 4:-0.996094 
1 1:-0.635294 2:-0.913043 3:1 4:-0.996094 
1 1:-0.802353 2:-0.913043 3:1 4:-0.996094 
1 1:-0.635294 2:-0.913043 3:1 4:-0.996094 
1 1:-0.635294 2:-0.913043 3:1 4:-0.996094 
1 1:-0.969412 2:-0.565217 3:1 4:-0.980469 
1 1:-0.945882 2:-0.913043 4:-0.988281 
1 1:-0.635294 2:-0.913043 3:1 4:-0.996094 
1 1:-0.964706 2:-0.652174 3:-1 4:-0.996094 
1 1:-0.964706 2:-0.652174 3:-1 4:-0.996094 
1 1:-0.938824 2:-0.73913 4:-0.992188 
1 1:-0.983529 2:-0.565217 4:-0.984375 
1 1:-0.938824 2:-0.913043 4:-0.988281 
1 1:-0.985882 2:-0.391304 4:-0.992188 
1 1:-0.722353 2:0.0434783 4:-0.992188 
1 1:-0.722353 2:-0.73913 4:-0.984375 
1 1:-0.938824 2:-0.913043 4:-0.992188 
1 1:-0.927059 2:-0.73913 4:-0.992188 
1 1:-0.722353 2:-0.73913 4:-0.984375 
1 1:-0.722353 2:-0.73913 4:-0.992188 
1 1:-0.722353 2:-0.913043 4:-0.992188 
1 1:-0.950588 2:-0.652174 3:-1 4:-0.992188 
1 1:-0.950588 2:-0.652174 3:-1 4:-0.992188 
1 1:-0.988235 2:-0.73913 3:1 4:-0.980469 
1 1:-0.964706 2:-0.652174 3:-1 4:-0.992188 
1 1:-0.964706 2:-0.652174 3:-1 4:-0.992188 
1 1:-0.964706 2:-0.652174 3:-1 4:-0.992188 
1 1:-0.983529 2:-0.913043 4:-0.980469 
1 1:-0.938824 2:-0.73913 3:1 4:-0.980469 
1 1:-0.969412 2:-0.565217 4:-0.984375 
1 1:-0.988235 2:-0.478261 4:-0.984375 
1 1:-0.945882 2:-0.913043 4:-0.992188 
1 1:-0.964706 2:-0.652174 3:-1 4:-0.992188 
1 1:-0.964706 2:-0.652174 3:-1 4:-0.992188 
1 1:-0.964706 2:-0.652174 3:-1 4:-0.992188 
1 1:-0.978824 2:-0.913043 4:-0.984375 
1 1:-0.974118 2:-0.913043 4:-0.984375 
1 1:-0.927059 2:-0.913043 4:-0.992188 
1 1:-0.955294 2:-0.0434783 4:-0.984375 
1 1:-0.936471 2:-0.652174 3:-1 4:-0.992188 
1 1:-0.757647 2:-0.73913 4:-0.992188 
1 1:-0.927059 2:-0.913043 4:-0.992188 
1 1:-0.988235 2:-0.913043 4:-0.992188 
1 1:-0.990588 2:-0.565217 4:-0.984375 
1 1:-0.988235 2:-0.73913 3:1 4:-0.980469 
1 1:-0.945882 2:-0.913043 4:-0.996094 
1 1:-0.938824 2:-0.73913 3:1 4:-0.980469 
1 1:-0.950588 2:-0.652174 3:-1 4:-0.992188 
1 1:-0.950588 2:-0.652174 3:-1 4:-0.992188 
1 1:-0.924706 2:-0.913043 4:-0.992188 
1 1:-0.964706 2:-0.652174 3:-1 4:-0.992188 
1 1:-0.938824 2:-0.73913 4:-0.992188 
1 1:-0.863529 2:-1 3:-1 4:-0.996094 
1 1:-0.945882 2:-0.73913 3:1 4:-0.980469 
1 1:-0.964706 2:-0.652174 3:-1 4:-0.992188 
1 1:-0.964706 2:-0.652174 3:-1 4:-0.992188 
1 1:-0.936471 2:-0.652174 3:-1 4:-0.992188 
1 1:-0.936471 2:-0.652174 3:-1 4:-0.992188 
1 1:-0.938824 2:-0.73913 4:-0.992188 
1 1:-0.941176 2:-0.652174 3:-1 4:-0.996094 
1 1:-0.924706 2:-0.565217 4:-0.992188 
1 1:-0.96 2:-0.73913 4:-0.992188 
1 1:-0.964706 2:-0.652174 3:-1 4:-0.992188 
1 1:-0.545882 2:-0.826087 4:-0.996094 
1 1:-0.988235 2:-0.73913 3:1 4:-0.980469 
1 1:-0.990588 2:-0.565217 4:-0.988281 
1 1:-0.950588 2:-0.73913 3:1 4:-0.980469 
1 1:-0.950588 2:-0.73913 3:1 4:-0.976562 
1 1:-0.945882 2:-0.913043 4:-0.992188 
1 1:-0.938824 2:-0.73913 4:-0.996094 
1 1:-0.945882 2:-0.913043 4:-0.996094 
1 1:-0.976471 2:-0.391304 4:-0.992188 
1 1:-0.938824 2:-0.73913 3:1 4:-0.980469 
1 1:-0.997647 2:-0.73913 3:-0.5 4:-0.996094 
1 1:-0.938824 2:-0.73913 3:1 4:-0.980469 
1 1:-0.863529 2:-1 3:-1 4:-0.996094 
1 1:-0.945882 2:-0.913043 4:-0.992188 
1 1:-0.988235 2:-0.913043 4:-0.96875 
1 1:-0.936471 2:-0.652174 3:-1 4:-0.992188 
1 1:-0.903529 2:-0.73913 4:-0.992188 
1 1:-0.992941 2:-0.73913 3:1 4:-0.980469 
1 1:-0.936471 2:-0.652174 3:-1 4:-0.992188 
1 1:-0.92 2:-0.217391 3:1 4:-0.980469 
1 1:-0.988235 2:-0.391304 4:-0.992188 
1 1:-0.988235 2:-0.391304 4:-0.992188 
1 1:-0.903529 2:-0.913043 4:-0.992188 
1 1:-0.856471 2:-0.73913 3:-1 4:-0.984375 
1 1:-0.967059 2:-0.913043 4:-1 
1 1:-0.865882 2:-0.73913 4:-0.988281 
1 1:-0.771765 2:-0.565217 4:-0.992188 
1 1:-0.992941 2:-0.73913 3:1 4:-0.980469 
1 1:-0.945882 2:-0.913043 4:-0.984375 
1 1:-0.945882 2:-0.913043 4:-0.984375 
1 1:-0.938824 2:-0.73913 4:-0.984375 
1 1:-0.938824 2:-0.73913 3:1 4:-0.980469 
1 1:-0.988235 2:-0.73913 3:1 4:-0.980469 
1 1:-0.992941 2:-0.73913 3:1 4:-0.980469 
1 1:-0.992941 2:-0.73913 3:1 4:-0.980469 
1 1:-0.988235 2:-0.73913 3:1 4:-0.980469 
1 1:-0.938824 2:-0.73913 3:1 4:-0.980469 
1 1:-0.938824 2:-0.73913 4:-0.980469 
1 1:-0.992941 2:-0.73913 3:1 4:-0.980469 
1 1:-0.854118 2:-0.565217 4:-0.957031 
1 1:-0.903529 2:-0.478261 4:-0.988281 
1 1:-0.903529 2:-0.565217 4:-0.992188 
1 1:-0.957647 2:-0.73913 4:-0.992188 
1 1:-0.992941 2:-0.73913 3:1 4:-0.980469 
1 1:-0.992941 2:-0.565217 3:1 4:-0.980469 
1 1:-0.995294 2:-0.73913 3:1 4:-0.980469 
1 1:-0.992941 2:-0.73913 3:1 4:-0.980469 
1 1:-0.988235 2:-0.73913 3:1 4:-0.980469 
1 1:-0.988235 2:-0.478261 4:-0.980469 
1 1:-0.988235 2:-0.913043 4:-0.992188 
1 1:-0.863529 2:-1 3:-1 4:-0.992188 
1 1:-0.985882 2:-0.652174 3:1 4:-0.980469 
1 1:-0.945882 2:-0.73913 3:1 4:-0.980469 
1 1:-0.92 2:-0.913043 3:1 4:-0.988281 
1 1:-0.92 2:-0.73913 4:-0.992188 
1 1:-0.934118 2:-0.73913 3:1 4:-0.980469 
1 1:-0.934118 2:-0.73913 4:-0.992188 
1 1:-0.938824 2:-0.73913 3:1 4:-0.980469 
1 1:-0.983529 2:-0.73913 3:1 4:-0.980469 
1 1:-0.915294 2:-0.73913 4:-0.992188 
1 1:-0.545882 2:-0.826087 4:-0.996094 
1 1:-0.545882 2:-0.826087 4:-0.996094 
1 1:-0.974118 2:-0.478261 4:-1 
1 1:-0.985882 2:-0.652174 3:1 4:-0.980469 
1 1:-0.992941 2:-0.73913 3:1 4:-0.980469 
1 1:-0.938824 2:-0.73913 3:1 4:-0.980469 
1 1:-0.931765 2:-0.913043 4:-1 
1 1:-0.950588 2:-0.913043 3:1 4:-0.996094 
1 1:-0.545882 2:-0.826087 4:-0.996094 
1 1:-0.931765 2:-0.913043 4:-1 
1 1:-0.903529 2:-0.73913 3:-0.96875 4:-0.992188 
1 1:-0.950588 2:-0.913043 3:1 4:-0.996094 
1 1:-0.741176 2:-0.913043 4:-1 
1 1:-0.545882 2:-0.826087 4:-0.996094 
1 1:-0.950588 2:-0.913043 3:1 4:-0.996094 
1 1:-0.891765 2:-0.565217 4:-1 
1 1:-0.995294 2:-0.913043 3:-1 4:-0.984375 
1 1:-0.995294 2:-0.913043 3:-1 4:-0.984375 
1 1:-0.903529 2:-0.73913 4:-0.992188 
1 1:-0.971765 2:-0.913043 4:-1 
1 1:-0.992941 2:-0.73913 3:1 4:-0.980469 
1 1:-0.995294 2:-0.73913 3:1 4:-0.980469 
-1 1:-0.96 2:-0.565217 4:-0.992188 
-1 1:-0.976471 2:-0.913043 4:-1 
-1 1:-0.910588 2:-0.913043 4:-1 
-1 1:-0.938824 2:-0.73913 4:-0.988281 
-1 1:-0.983529 2:-0.73913 4:-0.992188 
-1 1:-0.409412 2:-0.565217 4:-0.992188 
-1 1:-0.938824 2:-0.73913 4:-0.992188 
-1 1:-0.938824 2:-0.73913 4:-0.992188 
-1 1:-0.964706 2:-0.217391 4:-0.988281 
-1 1:-0.969412 2:-0.913043 4:-0.984375 
-1 1:-0.971765 2:-0.913043 4:-0.988281 
-1 1:-0.964706 2:-0.73913 4:-0.992188 
-1 1:-0.854118 2:-0.217391 4:-0.992188 
-1 1:-0.988235 2:-0.478261 4:-0.992188 
-1 1:-0.952941 2:-0.73913 4:-0.992188 
-1 1:-0.938824 2:-0.73913 4:-0.992188 
-1 1:-0.901176 2:-0.73913 4:-0.988281 
-1 1:-0.952941 2:-0.73913 4:-0.992188 
-1 1:-1 2:-0.73913 4:-0.992188 
-1 1:-0.938824 2:-0.130435 3:1 4:-0.984375 
-1 1:-0.971765 2:-0.913043 4:-0.988281 
-1 1:-0.945882 2:-0.913043 4:-0.996094 
-1 1:-0.854118 2:-0.73913 4:-0.984375 
-1 1:-0.938824 2:-0.73913 4:-0.992188 
-1 1:-0.938824 2:-0.73913 4:-0.992188 
-1 1:-0.938824 2:-0.73913 4:-0.992188 
-1 1:-0.938824 2:-0.73913 4:-0.992188 
-1 1:-0.938824 2:-0.73913 4:-0.992188 
-1 1:-0.938824 2:-0.913043 4:-0.984375 
-1 1:-0.992941 2:-0.73913 4:-0.984375 
-1 1:-0.988235 2:-0.478261 4:-0.992188 
-1 1:-0.938824 2:-0.73913 4:-0.992188 
-1 1:-0.952941 2:-0.73913 4:-0.992188 
-1 1:-0.988235 2:-0.391304 4:-0.988281 
-1 1:-0.938824 2:-0.913043 4:-0.984375 
-1 1:-0.938824 2:-0.73913 4:-0.992188 
-1 1:-0.952941 2:-0.73913 4:-0.996094 
-1 1:-0.409412 2:-0.73913 4:-0.992188 
-1 1:-0.409412 2:-0.73913 4:-0.992188 
-1 1:-0.409412 2:-0.565217 4:-0.992188 
-1 1:-0.990588 2:-0.913043 4:-0.992188 
-1 1:-0.927059 2:-0.478261 4:-0.984375 
-1 1:-0.988235 2:-0.478261 4:-0.992188 
-1 1:-0.938824 2:-0.73913 4:-0.980469 
-1 1:-0.952941 2:-0.73913 4:-0.992188 
-1 1:-0.96 2:-0.565217 4:-0.992188 
-1 1:-0.854118 2:-0.217391 4:-0.992188 
-1 1:-0.877647 2:-0.913043 4:-0.996094 
-1 1:-0.976471 2:-0.913043 4:-1 
-1 1:-0.967059 2:-0.913043 4:-1 
-1 1:-0.971765 2:-0.565217 3:-1 4:-0.984375 
-1 1:-0.990588 2:-0.565217 4:-0.980469 
-1 1:-0.945882 2:-0.913043 4:-0.992188 
-1 1:-0.988235 2:-0.73913 3:1 4:-0.980469 
-1 1:-0.849412 2:-0.478261 3:1 4:-0.980469 
-1 1:-0.988235 2:-0.913043 4:-0.992188 
-1 1:-0.988235 2:-0.913043 4:-0.992188 
-1 1:-0.988235 2:-0.913043 4:-0.992188 
-1 1:-0.945882 2:-0.913043 4:-0.992188 
-1 1:-0.409412 2:-0.913043 3:1 4:-0.996094 
-1 1:-0.985882 2:-0.565217 3:1 4:-0.996094 
-1 1:-0.969412 2:-0.565217 4:-0.984375 
-1 1:-0.976471 2:-0.913043 4:-1 
-1 1:-0.877647 2:-1 3:-1 4:-0.996094 
-1 1:-0.635294 2:-0.913043 3:1 4:-0.996094 
-1 1:-0.635294 2:-0.913043 3:1 4:-0.996094 
-1 1:-0.950588 2:-0.73913 3:1 4:-0.980469 
-1 1:-0.988235 2:-0.73913 3:1 4:-0.980469 
-1 1:-0.934118 2:-0.73913 3:1 4:-0.980469 
-1 1:-0.635294 2:-0.913043 3:1 4:-0.996094 
-1 1:-0.856471 2:-0.913043 3:-0.96875 4:-0.988281 
-1 1:-0.856471 2:-0.913043 3:-0.96875 4:-0.988281 
-1 1:-0.856471 2:-0.913043 3:-0.96875 4:-0.988281 
-1 1:-0.971765 2:-0.913043 4:-1 
-1 1:-0.985882 2:-0.565217 3:1 4:-0.996094 
-1 1:-0.945882 2:-0.73913 3:1 4:-0.980469 
-1 1:-0.877647 2:-0.913043 3:1 4:-0.996094 
-1 1:-0.872941 2:-0.913043 3:1 4:-0.996094 
-1 1:-0.910588 2:-0.826087 4:-1 
-1 1:-0.802353 2:-0.913043 3:1 4:-0.996094 
-1 1:-0.635294 2:-0.913043 3:1 4:-0.996094 
-1 1:-0.635294 2:-0.913043 3:1 4:-0.996094 
-1 1:-0.802353 2:-0.913043 3:1 4:-0.996094 
-1 1:-0.927059 2:-0.130435 4:-0.996094 
-1 1:-0.635294 2:-0.913043 3:1 4:-0.996094 
-1 1:-0.635294 2:-0.913043 3:1 4:-0.996094 
-1 1:-0.943529 2:0.217391 3:1 4:-0.976562 
-1 1:-0.938824 2:-0.73913 3:1 4:-0.980469 
-1 1:-0.451765 2:-0.652174 4:-1 
-1 1:-0.451765 2:-0.652174 4:-1 
-1 1:-0.858824 2:-0.652174 4:-1 
-1 1:-0.858824 2:-0.826087 3:-1 4:-1 
-1 1:-0.731765 2:-0.826087 4:-1 
-1 1:-0.856471 2:-0.652174 4:-1 
-1 1:-0.682353 2:-0.73913 4:-1 
-1 1:-0.731765 2:-0.826087 4:-1 
-1 1:-0.964706 2:-0.826087 3:-0.75 4:-1 
-1 1:-0.774118 2:-0.652174 4:-1 
-1 1:-0.68 2:-0.73913 4:-1 
-1 1:-0.682353 2:-0.73913 4:-1 
-1 1:-0.68 2:-0.73913 4:-1 
-1 1:-0.68 2:-0.565217 4:-1 
-1 1:-0.849412 2:-0.391304 4:-1 
-1 1:-0.451765 2:-0.652174 4:-1 
-1 1:-0.451765 2:-0.73913 4:-1 
-1 1:-0.451765 2:-0.565217 4:-1 
-1 1:-0.731765 2:-0.826087 4:-1 
-1 1:-0.682353 2:-0.73913 4:-1 
-1 1:-0.68 2:-0.73913 4:-1 
-1 1:-0.731765 2:-0.826087 4:-1 
-1 1:-0.821176 2:-0.913043 4:-0.984375 
-1 1:-0.821176 2:-0.652174 4:-1 
-1 1:-0.795294 2:-0.652174 4:-1 
-1 1:-0.762353 2:-0.73913 4:-1 
-1 1:-0.821176 2:-0.913043 4:-0.984375 
-1 1:-0.809412 2:-0.652174 4:-1 
-1 1:-0.809412 2:-0.652174 4:-1 
-1 1:-0.797647 2:-0.652174 4:-1 
-1 1:-0.814118 2:-0.652174 4:-1 
-1 1:-0.682353 2:-0.73913 4:-1 
-1 1:-0.682353 2:-0.73913 4:-1 
-1 1:-0.741176 2:-0.652174 4:-1 
-1 1:-0.541176 2:-0.478261 3:-1 4:-0.996094 
-1 1:-0.541176 2:-0.130435 3:1 4:-0.988281 
-1 1:-0.541176 2:-0.565217 3:1 4:-0.996094 
-1 1:-0.741176 2:-0.826087 3:-0.75 4:-1 
-1 1:-0.541176 2:-0.217391 3:1 4:-0.980469 
-1 1:-0.931765 2:-0.73913 3:1 4:-1 
-1 1:-0.724706 2:-0.565217 3:1 4:-0.996094 
-1 1:-0.717647 2:-0.73913 4:-1 
-1 1:-0.870588 2:-0.652174 4:-1 
-1 1:-0.795294 2:-0.652174 4:-1 
-1 1:-0.870588 2:-0.652174 4:-1 
-1 1:-0.741176 2:-0.913043 3:-1 4:-1 
-1 1:-0.682353 2:-0.652174 4:-1 
-1 1:-0.682353 2:-0.652174 4:-1 
-1 1:-0.682353 2:-0.652174 4:-1 
-1 1:-0.92 2:-0.652174 4:-1 
-1 1:-0.451765 2:-0.652174 4:-1 
-1 1:-0.795294 2:-0.73913 3:-1 4:-1 
-1 1:-0.68 2:-0.652174 4:-1 
-1 1:-0.717647 2:-0.73913 4:-1 
-1 1:-0.962353 2:-0.826087 4:-0.992188 
-1 1:-0.741176 2:-0.652174 4:-1 
-1 1:-0.762353 2:-0.826087 4:-1 
-1 1:-0.682353 2:-0.73913 4:-1 
-1 1:-0.717647 2:-0.73913 4:-1 
-1 1:-0.717647 2:-0.652174 4:-1 
-1 1:-0.451765 2:-0.130435 4:-1 
1 1:-0.741176 2:-0.652174 4:-1 
1 1:-0.741176 2:-0.913043 3:-1 4:-1 
1 1:-0.717647 2:-0.73913 4:-1 
1 1:-0.870588 2:-0.73913 3:1 4:-0.984375 
1 1:-0.762353 2:-0.826087 4:-1 
1 1:-0.762353 2:-0.826087 4:-1 
1 1:-0.762353 2:-0.565217 4:-1 
1 1:-0.762353 2:-0.913043 4:-0.996094 
1 1:-0.809412 2:-0.652174 4:-1 
1 1:-0.797647 2:-0.652174 4:-1 
1 1:-0.809412 2:-0.652174 4:-1 
1 1:-0.814118 2:-0.652174 4:-1 
1 1:-0.682353 2:-0.652174 4:-1 
1 1:-0.870588 2:-0.652174 4:-1 
1 1:-0.870588 2:-0.652174 4:-1 
1 1:-0.870588 2:-0.652174 4:-1 
1 1:-0.870588 2:-0.652174 4:-1 
1 1:-0.870588 2:-0.652174 4:-1 
1 1:-0.870588 2:-0.652174 4:-1 
1 1:-0.682353 2:-0.652174 4:-1 
1 1:-0.68 2:-0.652174 4:-1 
1 1:-0.68 2:-0.652174 4:-1 
1 1:-0.92 2:-0.652174 4:-1 
1 1:-0.741176 2:-0.652174 4:-1 
1 1:-0.717647 2:-0.73913 4:-1 
1 1:-0.894118 2:-0.304348 4:-1 
1 1:-0.484706 2:-0.73913 3:-1 4:-1 
1 1:-0.484706 2:-0.913043 3:-1 4:-1 
1 1:-0.894118 2:-0.304348 4:-1 
1 1:-0.8 2:-0.478261 4:-1 
1 1:-0.743529 2:-0.652174 4:-1 
1 1:-0.870588 2:-0.652174 4:-1 
1 1:-0.870588 2:-0.652174 4:-1 
1 1:-0.743529 2:-0.652174 4:-1 
1 1:-0.682353 2:-0.652174 4:-1 
1 1:-0.92 2:-0.565217 4:-0.996094 
1 1:-0.92 2:-0.565217 4:-0.996094 
1 1:-0.778824 2:-0.913043 4:-0.960938 
1 1:-0.778824 2:-0.565217 4:-0.960938 
1 1:-0.896471 2:-0.826087 4:-0.96875 
1 1:-0.778824 2:-0.565217 4:-0.960938 
1 1:-0.778824 2:-0.73913 4:-0.96875 
1 1:-0.896471 2:-0.73913 4:-0.96875 
1 1:-0.778824 2:-0.565217 4:-0.964844 
1 1:-0.778824 2:-0.73913 4:-0.960938 
1 1:-0.778824 2:-0.565217 4:-0.960938 
1 1:-0.778824 2:-0.913043 4:-0.960938 
1 1:-0.778824 2:-0.73913 4:-0.960938 
1 1:-0.948235 2:-0.73913 3:-1 4:-1 
1 1:-0.795294 2:-0.652174 4:-1 
1 1:-0.743529 2:-0.652174 4:-1 
1 1:-0.743529 2:-0.652174 4:-1 
1 1:-0.743529 2:-0.652174 4:-1 
1 1:-0.870588 2:-0.652174 4:-1 
1 1:-0.762353 2:-0.652174 4:-1 
1 1:-0.762353 2:-0.73913 3:-1 4:-1 
1 1:-0.762353 2:-0.652174 4:-1 
1 1:-0.743529 2:-0.652174 4:-1 
1 1:-0.743529 2:-0.652174 4:-1 
1 1:-0.743529 2:-0.652174 4:-1 
1 1:-0.743529 2:-0.652174 4:-1 
1 1:-0.762353 2:-0.652174 4:-1 
1 1:-0.870588 2:-0.652174 4:-1 
1 1:-0.771765 2:-0.652174 4:-1 
-1 1:-0.451765 2:-0.652174 4:-1 
-1 1:-0.858824 2:-0.826087 3:-1 4:-1 
-1 1:-0.451765 2:-0.652174 4:-1 
-1 1:-0.964706 2:-0.826087 3:-0.75 4:-1 
-1 1:-0.774118 2:-0.652174 4:-1 
-1 1:-0.858824 2:-0.652174 4:-1 
-1 1:-0.682353 2:-0.73913 4:-1 
-1 1:-0.682353 2:-0.73913 4:-1 
-1 1:-0.856471 2:-0.652174 4:-1 
-1 1:-0.731765 2:-0.826087 4:-1 
-1 1:-0.821176 2:-0.652174 4:-1 
-1 1:-0.68 2:-0.73913 4:-1 
-1 1:-0.682353 2:-0.73913 4:-1 
-1 1:-0.451765 2:-0.652174 4:-1 
-1 1:-0.68 2:-0.73913 4:-1 
-1 1:-0.68 2:-0.565217 4:-1 
-1 1:-0.849412 2:-0.391304 4:-1 
-1 1:-0.731765 2:-0.826087 4:-1 
-1 1:-0.731765 2:-0.826087 4:-1 
-1 1:-0.682353 2:-0.73913 4:-1 
-1 1:-0.68 2:-0.73913 4:-1 
-1 1:-0.731765 2:-0.826087 4:-1 
-1 1:-0.682353 2:-0.652174 4:-1 
-1 1:-0.682353 2:-0.652174 4:-1 
-1 1:-0.795294 2:-0.652174 4:-1 
-1 1:-0.762353 2:-0.73913 4:-1 
-1 1:-0.451765 2:-0.73913 4:-1 
-1 1:-0.451765 2:-0.565217 4:-1 
-1 1:-0.741176 2:-0.652174 4:-1 
-1 1:-0.541176 2:-0.478261 3:-1 4:-0.988281 
-1 1:-0.541176 2:-0.130435 3:1 4:-0.980469 
-1 1:-0.541176 2:-0.565217 3:1 4:-0.996094 
-1 1:-0.741176 2:-0.826087 3:-0.75 4:-1 
-1 1:-0.717647 2:-0.73913 4:-1 
-1 1:-0.541176 2:-0.217391 3:1 4:-0.988281 
-1 1:-0.931765 2:-0.73913 3:1 4:-1 
-1 1:-0.724706 2:-0.565217 3:1 4:-0.996094 
-1 1:-0.962353 2:-0.826087 4:-0.992188 
-1 1:-0.682353 2:-0.73913 4:-1 
-1 1:-0.821176 2:-0.913043 4:-0.984375 
-1 1:-0.762353 2:-0.913043 4:-0.996094 
-1 1:-0.809412 2:-0.652174 4:-1 
-1 1:-0.809412 2:-0.652174 4:-1 
-1 1:-0.797647 2:-0.652174 4:-1 
-1 1:-0.814118 2:-0.652174 4:-1 
-1 1:-0.821176 2:-0.652174 4:-1 
-1 1:-0.682353 2:-0.652174 4:-1 
-1 1:-0.92 2:-0.652174 4:-1 
-1 1:-0.741176 2:-0.913043 3:-1 4:-1 
-1 1:-0.92 2:-0.652174 4:-1 
-1 1:-0.778824 2:-0.565217 4:-0.960938 
-1 1:-0.778824 2:-0.913043 4:-0.960938 
-1 1:-0.778824 2:-0.73913 4:-0.960938 
-1 1:-0.451765 2:-0.652174 4:-1 
-1 1:-0.717647 2:-0.73913 4:-1 
-1 1:-0.741176 2:-0.652174 4:-1 
-1 1:-0.717647 2:-0.73913 4:-1 
-1 1:-0.717647 2:-0.652174 4:-1 
-1 1:-0.795294 2:-0.652174 4:-1 
1 1:-0.870588 2:-0.73913 3:1 4:-0.984375 
1 1:-0.741176 2:-0.652174 4:-1 
1 1:-0.451765 2:-0.130435 4:-1 
1 1:-0.741176 2:-0.913043 3:-1 4:-1 
1 1:-0.762353 2:-0.826087 4:-1 
1 1:-0.717647 2:-0.73913 4:-1 
1 1:-0.762353 2:-0.826087 4:-1 
1 1:-0.682353 2:-0.652174 4:-1 
1 1:-0.762353 2:-0.565217 4:-1 
1 1:-0.896471 2:-0.73913 4:-0.96875 
1 1:-0.92 2:-0.565217 4:-0.996094 
1 1:-0.778824 2:-0.565217 4:-0.964844 
1 1:-0.896471 2:-0.826087 4:-0.96875 
1 1:-0.778824 2:-0.565217 4:-0.960938 
1 1:-0.778824 2:-0.565217 4:-0.960938 
1 1:-0.778824 2:-0.913043 4:-0.960938 
1 1:-0.778824 2:-0.73913 4:-0.960938 
1 1:-0.821176 2:-0.913043 4:-0.984375 
1 1:-0.778824 2:-0.73913 4:-0.96875 
1 1:-0.741176 2:-0.652174 4:-1 
1 1:-0.717647 2:-0.73913 4:-1 
1 1:-0.894118 2:-0.304348 4:-1 
1 1:-0.741176 2:-0.652174 4:-1 
1 1:-0.894118 2:-0.304348 4:-1 
1 1:-0.762353 2:-0.826087 4:-1 
1 1:-0.795294 2:-0.652174 4:-1 
1 1:-0.296471 2:-0.391304 4:-0.996094 
1 1:-0.68 2:-0.652174 4:-1 
1 1:-0.8 2:-0.478261 4:-1 
1 1:-0.484706 2:-0.913043 3:-1 4:-1 
1 1:-0.152941 2:-0.913043 3:-1 4:-1 
1 1:-0.870588 2:-0.565217 3:1 4:-0.980469 
1 1:-0.68 2:-0.652174 4:-1 
1 1:-0.68 2:-0.652174 4:-1 
1 1:-0.682353 2:-0.652174 4:-1 
1 1:-0.795294 2:-0.652174 4:-1 
1 1:-0.762353 2:-0.73913 3:-1 4:-1 
1 1:-0.296471 2:-0.304348 4:-1 
1 1:-0.682353 2:-0.73913 4:-1 
1 1:-0.682353 2:-0.652174 4:-1 
1 1:-0.795294 2:-0.73913 3:-1 4:-1 
1 1:-0.484706 2:-0.73913 3:-1 4:-1 
1 1:-0.762353 2:-0.652174 4:-1 
1 1:-0.762353 2:-0.652174 4:-1 
1 1:-0.795294 2:-0.652174 4:-1 
1 1:-0.795294 2:-0.652174 4:-1 
1 1:-0.894118 2:-0.304348 4:-1 
1 1:-0.762353 2:-0.652174 4:-1 
1 1:-0.795294 2:-0.652174 4:-1 
1 1:-0.795294 2:-0.652174 4:-1 
1 1:-0.795294 2:-0.652174 4:-1 
1 1:-0.814118 2:-0.913043 4:-0.988281 
1 1:-0.861176 2:-0.130435 4:-0.992188 
1 1:-0.541176 2:0.130435 3:-1 4:-0.996094 
1 1:-0.877647 2:-0.73913 3:1 4:-0.980469 
1 1:-0.924706 2:-0.73913 3:1 4:-0.992188 
1 1:-0.710588 2:-0.913043 3:1 4:-0.992188 
1 1:-0.877647 2:-0.73913 3:1 4:-0.984375 
1 1:-0.927059 2:-0.913043 3:1 4:-0.996094 
1 1:-0.802353 2:-0.826087 4:-0.992188 
1 1:-0.861176 2:-0.130435 4:-0.992188 
1 1:-0.924706 2:-0.652174 4:-1 
1 1:-0.727059 2:-0.826087 4:-0.988281 
1 1:-0.877647 2:-0.565217 3:1 4:-0.984375 
1 1:-0.727059 2:-0.73913 3:1 4:-0.984375 
1 1:-0.727059 2:-0.913043 3:1 4:-0.992188 
1 1:-0.802353 2:-0.565217 3:1 4:-0.992188 
1 1:-0.927059 2:-0.73913 3:1 4:-0.996094 
1 1:-0.724706 2:-0.73913 3:1 4:-0.992188 
1 1:-0.724706 2:-0.913043 3:1 4:-0.992188 
1 1:-0.877647 2:-0.217391 3:1 4:-0.980469 
1 1:-0.802353 2:-0.565217 3:1 4:-0.992188 
1 1:-0.802353 2:-0.652174 4:-0.984375 
1 1:-0.809412 2:-0.652174 4:-1 
1 1:-0.797647 2:-0.652174 4:-1 
1 1:-0.809412 2:-0.652174 4:-1 
1 1:-0.814118 2:-0.652174 4:-1 
1 1:-0.948235 2:-0.73913 3:-1 4:-1 
1 1:-0.870588 2:-0.652174 4:-1 
1 1:-0.870588 2:-0.652174 4:-1 
1 1:-0.870588 2:-0.652174 4:-1 
1 1:-0.870588 2:-0.652174 4:-1 
1 1:-0.870588 2:-0.652174 4:-1 
1 1:-0.870588 2:-0.652174 4:-1 
1 1:-0.870588 2:-0.73913 3:1 4:-0.984375 
1 1:-0.374118 2:-0.652174 4:-1 
1 1:-0.731765 2:-0.73913 4:1 
1 1:-0.741176 2:-0.391304 3:1 4:-0.984375 
1 1:-0.724706 2:-0.565217 3:1 4:-0.980469 
1 1:-0.971765 2:-0.652174 4:-0.996094 
1 1:-0.842353 2:-0.826087 4:-1 
1 1:-0.842353 2:-0.826087 4:-1 
1 1:-0.842353 2:-0.826087 4:-1 
1 1:-0.931765 2:-0.652174 4:-1 
1 1:-0.68 2:-0.652174 3:-0.75 4:-1 
1 1:-0.374118 2:-0.652174 4:-1 
1 1:-0.771765 2:-0.652174 4:-1 
1 1:-0.774118 2:-0.565217 4:-1 
1 1:-0.872941 2:-0.73913 4:-0.996094 
1 1:-0.842353 2:-0.391304 4:-1 
1 1:-0.842353 2:-0.478261 4:-1 
-1 1:-0.76 2:-0.73913 4:-1 
-1 1:-0.76 2:-0.73913 4:-1 
-1 1:-0.856471 2:-0.391304 4:-1 
-1 1:-0.637647 2:-0.652174 4:-1 
-1 1:-0.76 2:-0.73913 4:-1 
-1 1:-0.637647 2:-0.652174 4:-1 
-1 1:-0.76 2:-0.73913 4:-1 
-1 1:-0.76 2:-0.73913 4:-1 
-1 1:-0.856471 2:-0.391304 4:-1 
-1 1:-0.856471 2:-0.130435 4:-1 
-1 1:-0.856471 2:-0.391304 4:-1 
-1 1:-0.856471 2:-0.391304 4:-1 
-1 1:-0.628235 2:-0.391304 4:-1 
-1 1:-0.76 2:-0.73913 4:-1 
-1 1:-0.76 2:-0.73913 4:-1 
-1 1:-0.856471 2:-0.391304 4:-1 
-1 1:-0.392941 2:-0.304348 4:-1 
-1 1:-0.856471 2:-0.304348 4:-1 
-1 1:-0.856471 2:-0.391304 4:-1 
-1 1:-0.392941 2:-0.391304 4:-1 
-1 1:-0.392941 2:-0.304348 4:-1 
-1 1:-0.637647 2:-0.652174 4:-1 
-1 1:-0.637647 2:-0.652174 4:-1 
-1 1:-0.637647 2:-0.652174 4:-1 
-1 1:-0.628235 2:-0.391304 4:-1 
-1 1:-0.628235 2:-0.391304 4:-1 
-1 1:-0.76 2:-0.652174 4:-1 
-1 1:-0.948235 2:-0.391304 4:-1 
-1 1:-0.823529 2:-0.73913 4:-1 
-1 1:-0.555294 2:-0.391304 4:-1 
-1 1:-0.611765 2:-0.913043 4:-1 
-1 1:-0.465882 2:-0.913043 4:-1 
-1 1:-0.823529 2:-0.73913 4:-1 
-1 1:-0.611765 2:-0.913043 4:-1 
-1 1:-0.611765 2:-0.913043 4:-1 
-1 1:-0.611765 2:-0.913043 4:-1 
-1 1:-0.611765 2:-0.913043 4:-1 
-1 1:-0.823529 2:-0.73913 4:-1 
-1 1:-0.611765 2:-0.913043 4:-1 
-1 1:-0.465882 2:-0.913043 4:-1 
-1 1:-0.823529 2:-0.73913 4:-1 
-1 1:-0.823529 2:-0.73913 4:-1 
-1 1:-0.823529 2:-0.73913 4:-1 
-1 1:-0.823529 2:-0.652174 4:-1 
-1 1:-0.823529 2:-0.73913 4:-1 
-1 1:-0.465882 2:-0.913043 4:-1 
-1 1:-0.823529 2:-0.73913 4:-1 
-1 1:-0.823529 2:-0.73913 4:-1 
-1 1:-0.823529 2:-0.73913 4:-1 
-1 1:-0.465882 2:-0.913043 4:-1 
-1 1:-0.555294 2:-0.73913 4:-0.996094 
-1 1:-0.465882 2:-0.913043 4:-1 
-1 1:-0.465882 2:-0.913043 4:-1 
-1 1:-0.637647 2:-0.652174 4:-1 
-1 1:-0.555294 2:-0.73913 4:-0.996094 
-1 1:-0.555294 2:-0.391304 4:-1 
-1 1:1 2:-0.391304 4:-1 
-1 1:-0.637647 2:-0.652174 4:-1 
-1 1:-0.637647 2:-0.652174 4:-1 
-1 1:-0.392941 2:-0.391304 4:-1 
-1 1:-0.722353 2:-0.913043 4:-1 
-1 1:1 2:-0.391304 4:-1 
-1 1:-0.611765 2:-0.913043 4:-1 
-1 1:-0.696471 2:-0.913043 4:-1 
-1 1:-0.505882 2:-0.391304 4:-1 
-1 1:-0.637647 2:-0.652174 4:-1 
-1 1:-0.696471 2:-0.913043 4:-1 
-1 1:-0.465882 2:-0.913043 4:-1 
-1 1:-0.637647 2:-0.652174 4:-1 
-1 1:-0.722353 2:-0.913043 4:-0.992188 
-1 1:-0.722353 2:-0.913043 4:-0.992188 
-1 1:-0.696471 2:-0.913043 4:-1 
-1 1:-0.465882 2:-0.913043 4:-1 
-1 1:-0.823529 2:-0.73913 4:-1 
-1 1:-0.465882 2:-0.913043 4:-1 
-1 1:-0.465882 2:-0.913043 4:-1 
-1 1:-0.764706 2:-0.73913 4:-1 
-1 1:1 2:-0.391304 4:-1 
-1 1:1 2:-0.391304 4:-1 
-1 1:-0.555294 2:-0.652174 4:-1 
-1 1:-0.823529 2:-0.73913 4:-1 
-1 1:-0.637647 2:-0.652174 4:-1 
-1 1:-0.637647 2:-0.652174 4:-1 
-1 1:-0.637647 2:-0.652174 4:-1 
-1 1:-0.392941 2:-0.391304 4:-1 
-1 1:-0.637647 2:-0.652174 4:-1 
-1 1:-0.722353 2:-0.913043 4:-1 
-1 1:-0.555294 2:-0.391304 4:-1 
-1 1:-0.555294 2:-0.391304 4:-1 
-1 1:-0.555294 2:-0.565217 4:-0.996094 
-1 1:-0.696471 2:-0.913043 4:-1 
-1 1:-0.611765 2:-0.913043 4:-1 
-1 1:-0.776471 2:-0.391304 4:-1 
-1 1:-0.764706 2:-0.73913 4:-1 
-1 1:-0.465882 2:-0.565217 4:-1 
-1 1:-0.764706 2:-0.652174 4:-1 
-1 1:-0.611765 2:-0.913043 4:-1 
-1 1:-0.465882 2:-0.913043 4:-1 
-1 1:-0.465882 2:-0.913043 4:-1 
-1 1:-0.465882 2:-0.913043 4:-1 
-1 1:-0.788235 2:-0.73913 4:-1 
-1 1:-0.856471 2:-0.304348 4:-1 
-1 1:-0.856471 2:-0.391304 4:-1 
-1 1:-0.555294 2:-0.73913 4:-0.996094 
-1 1:-0.465882 2:-0.565217 3:1 4:-0.996094 
-1 1:-0.465882 2:-0.913043 3:-1 4:-0.992188 
-1 1:-0.465882 2:-0.913043 3:-1 4:-0.992188 
-1 1:-0.392941 2:-0.304348 4:-1 
-1 1:-0.856471 2:-0.304348 4:-1 
-1 1:1 2:-0.391304 4:-1 
-1 1:-0.505882 2:-0.391304 4:-1 
-1 1:1 2:-0.391304 4:-1 
-1 1:-0.927059 2:-0.565217 3:-1 4:-1 
-1 1:-0.875294 2:-0.913043 4:-1 
-1 1:-0.776471 2:-0.391304 4:-1 
-1 1:-0.823529 2:-0.73913 4:-1 
-1 1:-0.788235 2:-0.652174 4:-1 
-1 1:-0.788235 2:-0.73913 4:-1 
-1 1:-0.392941 2:-0.304348 4:-1 
-1 1:-0.637647 2:-0.652174 4:-1 
-1 1:-0.76 2:-0.565217 4:-1 
-1 1:-0.555294 2:-0.391304 4:-1 
-1 1:-0.637647 2:-0.652174 4:-1 
-1 1:-0.764706 2:-0.73913 4:-1 
-1 1:-0.696471 2:-0.913043 4:-1 
-1 1:0.388235 2:-0.913043 4:-1 
-1 1:0.388235 2:-0.913043 4:-1 
-1 1:-0.788235 2:-0.73913 4:-1 
-1 1:-0.788235 2:-0.73913 4:-1 
-1 1:-0.197647 2:-0.913043 4:-1 
-1 1:-0.611765 2:-0.913043 4:-1 
-1 1:-0.823529 2:-0.73913 4:-1 
-1 1:-0.698824 2:-0.391304 4:-1 
-1 1:-0.637647 2:-0.652174 4:-1 
-1 1:-0.637647 2:-0.652174 4:-1 
-1 1:-0.637647 2:-0.652174 4:-1 
-1 1:-0.637647 2:-0.652174 4:-1 
-1 1:-0.696471 2:-0.913043 4:-1 
-1 1:-0.611765 2:-0.913043 4:-1 
-1 1:-0.788235 2:-0.73913 4:-1 
-1 1:-0.788235 2:-0.73913 4:-1 
-1 1:-0.764706 2:-0.73913 4:-1 
-1 1:0.388235 2:-0.913043 4:-1 
-1 1:0.388235 2:-0.913043 4:-1 
-1 1:-0.788235 2:-0.73913 4:-1 
-1 1:-0.788235 2:-0.73913 4:-1 
-1 1:-0.764706 2:-0.73913 4:-1 
-1 1:-0.364706 2:-0.73913 4:-1 
-1 1:-0.698824 2:-0.391304 4:-1 
-1 1:0.388235 2:-0.913043 4:-1 
-1 1:0.388235 2:-0.913043 4:-1 
-1 1:0.388235 2:-0.913043 4:-1 
-1 1:0.388235 2:-0.913043 4:-1 
-1 1:0.388235 2:-0.913043 4:-1 
-1 1:0.388235 2:-0.913043 4:-1 
-1 1:-0.696471 2:-0.913043 4:-1 
-1 1:-0.555294 2:-0.565217 4:-0.996094 
-1 1:1 2:-0.391304 4:-1 
-1 1:-0.76 2:-0.73913 4:-1 
-1 1:-0.505882 2:-0.391304 4:-1 
-1 1:0.388235 2:-0.913043 4:-1 
-1 1:-0.788235 2:-0.73913 4:-1 
-1 1:-0.698824 2:-0.391304 4:-1 
-1 1:-0.698824 2:-0.73913 4:-1 
-1 1:-0.698824 2:-0.304348 4:-1 
-1 1:-0.364706 2:-0.73913 4:-1 
-1 1:-0.698824 2:-0.73913 4:-1 
-1 1:-0.698824 2:-0.73913 4:-1 
-1 1:-0.637647 2:-0.652174 4:-1 
-1 1:-0.637647 2:-0.652174 4:-1 
-1 1:-0.465882 2:-0.913043 4:-1 
-1 1:-0.696471 2:-0.391304 4:-1 
-1 1:-0.736471 2:-0.913043 4:-0.996094 
-1 1:-0.637647 2:-0.652174 4:-1 
-1 1:-0.776471 2:-0.391304 4:-1 
-1 1:-0.788235 2:-0.73913 4:-1 
-1 1:-0.696471 2:-0.913043 4:-1 
-1 1:-0.465882 2:-0.913043 4:-1 
-1 1:-0.555294 2:-0.913043 4:-0.988281 
-1 1:-0.197647 2:-0.913043 4:-1 
-1 1:-0.197647 2:-0.391304 4:-1 
-1 1:-0.628235 2:-0.391304 4:-1 
-1 1:-0.722353 2:-0.826087 4:-0.988281 
-1 1:-0.722353 2:-0.826087 4:-0.996094 
-1 1:0.388235 2:-0.913043 4:-1 
-1 1:-0.788235 2:-0.73913 4:-1 
-1 1:0.388235 2:-0.913043 4:-1 
-1 1:0.388235 2:-0.913043 4:-1 
-1 1:-0.788235 2:-0.73913 4:-1 
-1 1:-0.637647 2:-0.652174 4:-1 
-1 1:-0.788235 2:-0.73913 4:-1 
-1 1:-0.611765 2:-0.913043 4:-1 
-1 1:-0.465882 2:-0.913043 4:-1 
-1 1:-0.465882 2:-0.913043 4:-1 
-1 1:-0.465882 2:-0.913043 4:-1 
-1 1:-0.465882 2:-0.913043 4:-1 
-1 1:-0.611765 2:-0.913043 4:-1 
-1 1:-0.465882 2:-0.913043 4:-1 
-1 1:-0.465882 2:-0.913043 4:-1 
-1 1:-0.555294 2:-0.73913 4:-0.996094 
-1 1:-0.611765 2:-0.913043 4:-1 
-1 1:-0.611765 2:-0.913043 4:-1 
-1 1:-0.611765 2:-0.913043 4:-1 
-1 1:-0.611765 2:-0.913043 4:-1 
-1 1:-0.611765 2:-0.913043 4:-1 
-1 1:-0.465882 2:-0.913043 4:-1 
-1 1:-0.465882 2:-0.913043 4:-1 
-1 1:-0.465882 2:-0.913043 4:-1 
-1 1:-0.823529 2:-0.73913 4:-1 
-1 1:-0.736471 2:-0.913043 4:-1 
-1 1:-0.696471 2:-0.73913 4:-1 
-1 1:-0.729412 2:-0.391304 4:-1 
-1 1:1 2:-0.391304 4:-1 
-1 1:-0.465882 2:-0.565217 3:1 4:-0.996094 
-1 1:-0.465882 2:-0.913043 4:-1 
-1 1:-0.357647 2:-0.0434783 4:-1 
-1 1:-0.357647 2:-0.913043 4:-1 
-1 1:-0.465882 2:-0.913043 4:-1 
-1 1:-0.635294 2:-0.826087 4:-1 
-1 1:-0.364706 2:-0.73913 4:-1 
-1 1:-0.555294 2:-0.73913 4:-0.996094 
-1 1:0.388235 2:-0.913043 4:-1 
-1 1:-0.635294 2:-0.73913 4:-1 
-1 1:0.388235 2:-0.913043 4:-1 
-1 1:-0.637647 2:-0.652174 4:-1 
-1 1:-0.788235 2:-0.73913 4:-1 
-1 1:0.388235 2:-0.913043 4:-1 
-1 1:-0.197647 2:-0.913043 4:-1 
-1 1:-0.698824 2:-0.652174 4:-1 
-1 1:-0.962353 2:-0.478261 4:-1 
-1 1:0.388235 2:-0.913043 4:-1 
-1 1:-0.835294 2:-0.652174 4:-1 
-1 1:-0.197647 2:-0.391304 4:-1 
-1 1:-0.197647 2:-0.391304 4:-1 
-1 1:-0.197647 2:-0.913043 4:-1 
-1 1:-0.197647 2:-0.913043 4:-1 
-1 1:-0.197647 2:-0.913043 4:-1 
-1 1:-0.962353 2:-0.73913 4:-1 
-1 1:-0.788235 2:-0.73913 4:-1 
-1 1:0.388235 2:-0.913043 4:-1 
-1 1:0.388235 2:-0.913043 4:-1 
-1 1:-0.555294 2:-0.391304 4:-1 
-1 1:-0.555294 2:-0.913043 4:-0.988281 
-1 1:-0.465882 2:-0.913043 4:-1 
-1 1:-0.611765 2:-0.913043 4:-1 
-1 1:-0.555294 2:-0.565217 4:-0.996094 
-1 1:-0.465882 2:-0.913043 4:-0.984375 
-1 1:-0.611765 2:-0.913043 4:-0.984375 
-1 1:-0.611765 2:-0.913043 4:-1 
-1 1:-0.465882 2:-0.913043 4:-1 
-1 1:-0.611765 2:-0.913043 4:-1 
-1 1:-0.465882 2:-0.913043 4:-1 
-1 1:-0.788235 2:-0.73913 4:-1 
-1 1:-0.357647 2:-0.913043 4:-1 
-1 1:-0.357647 2:-0.913043 4:-1 
-1 1:-0.357647 2:-0.913043 4:-1 
-1 1:-0.357647 2:-0.913043 4:-1 
-1 1:0.388235 2:-0.913043 4:-1 
-1 1:-0.637647 2:-0.652174 4:-1 
-1 1:-0.555294 2:-0.913043 4:-0.988281 
-1 1:-0.743529 2:-0.478261 4:-1 
-1 1:-0.637647 2:-0.652174 4:-1 
-1 1:0.388235 2:-0.913043 4:-1 
1 1:-0.197647 2:-0.913043 4:-1 
1 1:-0.505882 2:-0.304348 4:-1 
-1 1:1 2:-0.304348 4:-1 
1 1:-0.465882 2:-0.913043 4:-1 
1 1:-0.856471 2:-0.304348 4:-1 
1 1:0.388235 2:-0.913043 4:-1 
1 1:-0.197647 2:-0.913043 4:-1 
1 1:-0.835294 2:-0.652174 4:-1 
1 1:0.388235 2:-0.913043 4:-1 
1 1:-0.788235 2:-0.73913 4:-1 
1 1:-0.637647 2:-0.652174 4:-1 
1 1:-0.392941 2:-0.304348 4:-1 
1 1:0.388235 2:-0.913043 4:-1 
1 1:-0.197647 2:-0.391304 4:-1 
1 1:-0.197647 2:-0.913043 4:-1 
1 1:0.388235 2:-0.913043 4:-1 
1 1:0.388235 2:-0.391304 4:-1 
1 1:-0.197647 2:-0.391304 4:-1 
1 1:0.388235 2:-0.391304 4:-1 
1 1:0.388235 2:-0.913043 4:-1 
1 1:0.388235 2:-0.913043 4:-1 
1 1:0.388235 2:-0.913043 4:-1 
1 1:-0.364706 2:-0.73913 4:-1 
1 1:-0.698824 2:-0.73913 4:-1 
1 1:-0.364706 2:-0.73913 4:-1 
1 1:-0.364706 2:-0.73913 4:-1 
1 1:-0.364706 2:-0.73913 4:-1 
1 1:-0.357647 2:-0.913043 4:-1 
1 1:-0.364706 2:-0.73913 4:-1 
1 1:1 2:-0.913043 3:-1 4:-1 
1 1:-0.505882 2:-0.913043 3:-1 4:-1 
1 1:-0.776471 2:-0.913043 3:-1 4:-1 
1 1:-0.736471 2:-0.913043 4:-1 
1 1:-0.465882 2:-0.565217 4:-1 
1 1:-0.357647 2:-0.913043 4:-1 
1 1:-0.465882 2:-0.913043 4:-1 
1 1:0.388235 2:-0.391304 4:-1 
1 1:0.388235 2:-0.913043 4:-1 
1 1:-0.555294 2:-0.652174 4:-1 
1 1:-0.976471 2:-0.73913 4:-1 
1 1:-0.722353 2:-0.826087 4:-0.996094 
1 1:-0.722353 2:-0.913043 4:-1 
1 1:-0.555294 2:-0.913043 4:-0.984375 
1 1:-0.465882 2:-0.217391 4:-1 
1 1:-0.882353 2:-0.913043 4:-0.988281 
1 1:-0.465882 2:-0.913043 4:-0.980469 
1 1:-0.611765 2:-0.913043 4:-0.980469 
1 1:-0.555294 2:-0.913043 4:-0.980469 
1 1:0.0117647 2:-0.73913 4:-1 
1 1:0.0117647 2:-0.73913 4:-1 
1 1:0.414118 2:-0.304348 4:-1 
1 1:0.388235 2:-0.913043 4:-1 
1 1:0.388235 2:-0.913043 4:-1 
1 1:0.388235 2:-0.913043 4:-1 
1 1:0.388235 2:-0.913043 4:-1 
1 1:0.388235 2:-0.913043 4:-1 
1 1:0.388235 2:-0.913043 4:-1 
1 1:0.388235 2:-0.913043 4:-1 
1 1:0.388235 2:-0.913043 4:-1 
1 1:0.388235 2:-0.913043 4:-1 
1 1:0.388235 2:-0.913043 4:-1 
1 1:0.388235 2:-0.913043 4:-1 
1 1:0.388235 2:-0.913043 4:-1 
1 1:0.388235 2:-0.913043 4:-1 
1 1:0.388235 2:-0.913043 4:-1 
1 1:0.388235 2:-0.913043 4:-1 
1 1:0.388235 2:-0.913043 4:-1 
1 1:0.388235 2:-0.913043 4:-1 
1 1:-0.505882 2:-0.391304 4:-1 
1 1:-0.541176 2:-0.913043 4:-1 
1 1:-0.736471 2:-1 3:-1 4:-1 
1 1:0.388235 2:-0.913043 4:-1 
1 1:0.388235 2:-0.913043 4:-1 
1 1:-0.635294 2:-0.73913 4:-1 
1 1:-0.635294 2:-0.391304 4:-1 
1 1:-0.635294 2:-0.826087 4:-1 
1 1:-0.364706 2:-0.73913 4:-1 
1 1:-0.364706 2:-0.73913 4:-1 
1 1:-0.364706 2:-0.73913 4:-1 
1 1:-0.364706 2:-0.652174 4:-1 
1 1:-0.698824 2:-0.304348 4:-1 
1 1:-0.698824 2:-0.304348 4:-1 
1 1:-0.357647 2:-0.391304 4:-1 
1 1:-0.357647 2:-0.391304 4:-1 
1 1:-0.555294 2:-0.913043 4:-0.980469 
1 1:-0.555294 2:-0.913043 4:-0.984375 
1 1:-0.555294 2:-0.913043 4:-0.984375 
1 1:0.388235 2:-0.913043 4:-1 
1 1:-0.197647 2:-0.913043 4:-1 
1 1:-0.197647 2:-0.913043 4:-0.988281 
1 1:0.388235 2:-0.913043 4:-0.964844 
1 1:-0.555294 2:-0.913043 4:-0.984375 
1 1:0.388235 2:-0.913043 4:-1 
1 1:0.388235 2:-0.913043 4:-1 
1 1:0.388235 2:-0.913043 4:-0.964844 
1 1:0.388235 2:-0.913043 4:-1 
1 1:0.388235 2:-0.913043 4:-0.988281 
1 1:-0.197647 2:-0.913043 4:-0.984375 
1 1:0.388235 2:-0.913043 4:-0.984375 
1 1:0.388235 2:-0.913043 4:-0.988281 
1 1:-0.743529 2:-0.478261 4:-1 
1 1:-0.637647 2:-0.652174 4:-1 
1 1:0.388235 2:-0.913043 4:-0.984375 
1 1:-0.541176 2:-0.391304 4:-1 
1 1:-0.197647 2:-0.913043 4:-1 
1 1:-0.197647 2:-0.130435 4:-1 
1 1:-0.357647 2:-0.913043 4:-1 
1 1:-0.197647 2:-0.304348 4:-1 
1 1:-0.392941 2:-0.304348 4:-1 
1 1:-0.856471 2:-0.391304 4:-1 
1 1:-0.856471 2:-0.304348 4:-1 
1 1:-0.856471 2:-0.304348 4:-1 
1 1:-0.294118 2:-0.73913 4:-1 
1 1:-0.294118 2:-0.652174 4:-1 
1 1:-0.294118 2:-0.73913 4:-1 
1 1:-0.294118 2:-0.73913 4:-1 
1 1:-0.294118 2:-0.652174 4:-1 
1 1:-0.294118 2:-0.652174 4:-1 
1 1:-0.294118 2:-0.73913 4:-1 
1 1:-0.294118 2:-0.73913 4:-1 
1 1:-0.294118 2:-0.73913 4:-1 
1 1:-0.294118 2:-0.73913 4:-1 
1 1:-0.134118 2:-0.913043 4:-1 
1 1:-0.134118 2:-0.913043 4:-1 
1 1:-0.134118 2:-0.913043 4:-1 
1 1:-0.134118 2:-0.913043 4:-1 
1 1:-0.134118 2:-0.913043 4:-1 
1 1:-0.835294 2:-0.652174 4:-1 
1 1:-0.197647 2:-0.391304 4:-1 
1 1:-0.555294 2:-0.304348 4:-1 
1 1:-0.555294 2:-0.304348 4:-1 
1 1:0.209412 2:-0.304348 4:-1 
1 1:-0.628235 2:-0.391304 4:-1 
1 1:-0.357647 2:-0.913043 4:-1 
1 1:-0.611765 2:-0.913043 3:-1 4:-1 
1 1:-0.611765 2:-0.391304 4:-1 
1 1:-0.357647 2:-0.391304 4:-1 
1 1:-0.635294 2:-0.304348 4:-1 
1 1:-0.505882 2:-0.391304 4:-1 
1 1:-0.698824 2:-0.304348 4:-1 
1 1:-0.865882 2:-0.304348 4:-1 
1 1:-0.505882 2:-0.391304 4:-1 
1 1:-0.465882 2:-0.913043 4:-0.988281 
1 1:-0.677647 2:-0.391304 4:-1 
1 1:-0.677647 2:-0.391304 4:-1 
1 1:-0.357647 2:-0.304348 4:-1 
1 1:-0.364706 2:-0.73913 4:-1 
1 1:-0.364706 2:-0.652174 4:-1 
1 1:-0.364706 2:-0.73913 4:-1 
1 1:1 2:-0.304348 4:-1 
1 1:-0.505882 2:-0.391304 4:-1 
1 1:-0.390588 2:-0.565217 3:1 4:-0.992188 
1 1:-0.887059 2:-0.826087 3:-0.75 4:-1 
1 1:-0.357647 2:-0.304348 4:-1 
1 1:0.0117647 2:-0.478261 4:-1 
1 1:0.0117647 2:-0.478261 4:-1 
1 1:0.0117647 2:-0.73913 4:-1 
1 1:0.0117647 2:-0.73913 4:-1 
1 1:0.414118 2:-0.913043 4:-1 
1 1:0.414118 2:-0.0434783 4:-1 
1 1:0.414118 2:-0.913043 4:-1 
1 1:0.414118 2:-0.913043 4:-1 
1 1:0.414118 2:-0.130435 4:-1 
1 1:0.414118 2:-0.913043 4:-1 
1 1:0.414118 2:-0.391304 4:-1 
1 1:-0.635294 2:-0.304348 4:-1 
1 1:-0.677647 2:-0.391304 4:-1 
1 1:-0.729412 2:-0.913043 3:-1 4:-1 
1 1:-0.357647 2:-0.913043 4:-1 
1 1:-0.357647 2:-0.913043 4:-0.988281 
1 1:-0.677647 2:-0.0434783 4:-1 
1 1:-0.677647 2:-0.0434783 4:-1 
1 1:-0.635294 2:-0.391304 4:-1 
1 1:-0.364706 2:-0.652174 4:-1 
1 1:-0.197647 2:-0.391304 4:-1 
1 1:-0.875294 2:-1 3:-1 4:-1 
1 1:-0.776471 2:-0.913043 3:-1 4:-1 
1 1:1 2:-0.913043 3:-1 4:-1 
1 1:-0.228235 2:-0.913043 3:-1 4:-1 
1 1:-0.887059 2:-0.652174 4:-1 
1 1:-0.134118 2:-0.913043 4:-1 
1 1:-0.294118 2:-0.73913 4:-1 
1 1:-0.294118 2:-0.391304 4:-1 
1 1:-0.134118 2:-0.913043 4:-1 
1 1:-0.294118 2:-0.73913 4:-1 
1 1:-0.294118 2:-0.73913 4:-1 
1 1:-0.294118 2:-0.652174 4:-1 
1 1:-0.134118 2:-0.913043 4:-1 
1 1:-0.134118 2:-0.391304 4:-1 
1 1:-0.134118 2:-0.391304 4:-1 
1 1:-0.134118 2:-0.913043 4:-1 
1 1:-0.134118 2:-0.913043 4:-1 
1 1:-0.134118 2:-0.391304 4:-1 
1 1:-0.134118 2:-0.913043 4:-1 
1 1:-0.134118 2:-0.913043 4:-1 
1 1:-0.134118 2:-0.913043 4:-1 
1 1:-0.134118 2:-0.913043 4:-1 
1 1:-0.134118 2:-0.391304 4:-1 
1 1:-0.134118 2:-0.913043 4:-1 
1 1:-0.294118 2:-0.73913 4:-1 
1 1:-0.294118 2:-0.652174 4:-1 
1 1:-0.294118 2:-0.73913 4:-1 
1 1:-0.294118 2:-0.73913 4:-1 
1 1:-0.134118 2:-0.391304 4:-1 
1 1:-0.134118 2:-0.913043 4:-1 
1 1:-0.134118 2:-0.73913 4:-1 
1 1:-0.134118 2:-0.913043 4:-1 
1 1:-0.134118 2:-0.913043 4:-1 
1 1:-0.134118 2:-0.913043 4:-1 
1 1:-0.294118 2:-0.73913 4:-1 
1 1:-0.637647 2:-0.652174 4:-1 
1 1:-0.392941 2:-0.304348 4:-1 
1 1:-0.835294 2:-0.652174 4:-1 
1 1:-0.197647 2:-0.391304 4:-1 
1 1:-0.197647 2:-0.391304 4:-1 
1 1:0.388235 2:-0.304348 4:-1 
1 1:-0.465882 2:-0.391304 4:-1 
1 1:-0.465882 2:-0.391304 4:-1 
1 1:-0.882353 2:-0.913043 4:-0.984375 
1 1:-0.357647 2:-0.913043 4:-0.984375 
1 1:-0.357647 2:-0.913043 4:-0.984375 
1 1:-0.677647 2:-0.391304 4:-1 
1 1:-0.611765 2:-0.913043 4:-0.988281 
1 1:-0.677647 2:-0.913043 3:-1 4:-1 
1 1:-0.790588 2:-0.304348 4:-1 
1 1:-0.790588 2:-0.73913 3:-1 4:-1 
1 1:-0.628235 2:-0.391304 4:-1 
1 1:-0.390588 2:-0.913043 3:-1 4:-0.988281 
1 1:-0.887059 2:-0.391304 4:-1 
1 1:-0.390588 2:-0.913043 3:-1 4:-0.988281 
1 1:-0.390588 2:-0.565217 4:-0.992188 
1 1:-0.390588 2:-0.565217 3:1 4:-0.988281 
1 1:-0.776471 2:-0.913043 3:-1 4:-1 
1 1:-0.390588 2:-0.565217 4:-0.992188 
1 1:0.414118 2:-0.913043 4:-1 
1 1:0.414118 2:-0.391304 4:-1 
1 1:0.414118 2:-0.913043 4:-1 
1 1:0.414118 2:-0.913043 4:-1 
1 1:0.414118 2:-0.913043 4:-1 
1 1:0.414118 2:-0.913043 4:-0.988281 
1 1:0.414118 2:-0.913043 4:-1 
1 1:-0.635294 2:-0.913043 3:-1 4:-1 
1 1:-0.294118 2:-0.391304 4:-1 
1 1:-0.134118 2:-0.391304 4:-1 
1 1:-0.134118 2:-0.913043 4:-1 
1 1:-0.637647 2:-0.652174 4:-1 
1 1:-0.134118 2:-0.913043 4:-0.988281 
1 1:-0.835294 2:-0.652174 4:-1 
1 1:-0.392941 2:-0.304348 4:-1 
1 1:-0.835294 2:-0.652174 4:-1 
1 1:-0.910588 2:-0.73913 3:-1 4:-1 
1 1:-0.465882 2:-0.391304 4:-1 
1 1:-0.465882 2:-0.391304 4:-1 
1 1:-0.465882 2:-0.391304 4:-1 
1 1:0.388235 2:-0.913043 4:-1 
1 1:-0.0564706 2:-0.913043 3:-1 4:-1 
1 1:-0.465882 2:-0.217391 4:-1 
1 1:-0.887059 2:-0.391304 4:-1 
1 1:1 2:-0.391304 4:-1 
1 1:-0.134118 2:-0.913043 4:-0.988281 
1 1:-0.835294 2:-0.652174 4:-1 
1 1:1 2:-0.391304 4:-1 
1 1:1 2:-0.391304 4:-1 
1 1:1 2:0.0434783 3:-1 4:-1 
1 1:0.414118 2:-0.913043 4:-1 
1 1:0.414118 2:-0.913043 4:-1 
1 1:-0.134118 2:-0.913043 4:-0.988281 
1 1:-0.134118 2:-0.913043 4:-1 
1 1:-0.628235 2:-0.391304 4:-1 
1 1:-0.392941 2:-0.304348 4:-1 
1 1:0.414118 2:-0.304348 4:-1 
1 1:-0.635294 2:-0.826087 4:-1 
1 1:0.0117647 2:-0.73913 4:-1 
1 1:0.414118 2:-0.391304 4:-1 
1 1:-0.134118 2:-0.913043 4:-1 
1 1:-0.552941 2:-0.391304 4:-1 
1 1:-0.392941 2:-0.304348 4:-1 
1 1:-0.552941 2:-0.391304 4:-1 
1 1:-0.552941 2:-0.391304 4:-1 
1 1:-0.392941 2:-0.304348 4:-1 
1 1:-0.552941 2:-0.391304 4:-1 
1 1:-0.552941 2:-0.391304 4:-1 
1 1:-0.552941 2:-0.391304 4:-1 
1 1:-0.552941 2:-0.391304 4:-1 
1 1:-0.552941 2:-0.304348 4:-1 
1 1:1 2:0.217391 3:-1 4:-1 
1 1:1 2:-0.391304 3:-1 4:-1 
1 1:-0.541176 2:-0.391304 4:-1 
1 1:-0.995294 2:-0.391304 4:-1 
1 1:-0.858824 2:0.0434783 3:1 4:-1 
-1 1:-0.637647 2:-0.652174 4:-1 
-1 1:-0.637647 2:-0.652174 4:-1 
-1 1:-0.392941 2:-0.304348 4:-1 
-1 1:-0.392941 2:-0.391304 4:-1 
-1 1:-0.637647 2:-0.652174 4:-1 
-1 1:-0.392941 2:-0.304348 4:-1 
-1 1:-0.637647 2:-0.652174 4:-1 
-1 1:-0.856471 2:-0.130435 4:-1 
-1 1:-0.856471 2:-0.391304 4:-1 
-1 1:-0.637647 2:-0.652174 4:-1 
-1 1:-0.856471 2:-0.391304 4:-1 
-1 1:-0.948235 2:-0.391304 4:-1 
-1 1:-0.637647 2:-0.652174 4:-1 
-1 1:-0.637647 2:-0.652174 4:-1 
-1 1:-0.637647 2:-0.652174 4:-1 
-1 1:-0.392941 2:-0.391304 4:-1 
-1 1:-0.637647 2:-0.652174 4:-1 
-1 1:-0.76 2:-0.73913 4:-1 
-1 1:-0.637647 2:-0.652174 4:-1 
-1 1:-0.637647 2:-0.652174 4:-1 
-1 1:-0.628235 2:-0.391304 4:-1 
-1 1:-0.628235 2:-0.391304 4:-1 
-1 1:-0.637647 2:-0.652174 4:-1 
-1 1:-0.76 2:-0.73913 4:-1 
-1 1:-0.856471 2:-0.391304 4:-1 
-1 1:-0.76 2:-0.73913 4:-1 
-1 1:-0.856471 2:-0.391304 4:-1 
-1 1:-0.856471 2:-0.391304 4:-1 
-1 1:-0.637647 2:-0.652174 4:-1 
-1 1:-0.76 2:-0.73913 4:-1 
-1 1:-0.555294 2:-0.391304 4:-1 
-1 1:-0.823529 2:-0.73913 4:-1 
-1 1:-0.823529 2:-0.73913 4:-1 
-1 1:-0.856471 2:-0.391304 4:-1 
-1 1:-0.856471 2:-0.304348 4:-1 
-1 1:-0.823529 2:-0.73913 4:-1 
-1 1:-0.823529 2:-0.73913 4:-1 
-1 1:-0.823529 2:-0.652174 4:-1 
-1 1:-0.76 2:-0.73913 4:-1 
-1 1:-0.637647 2:-0.652174 4:-1 
-1 1:-0.76 2:-0.652174 4:-1 
-1 1:-0.611765 2:-0.913043 4:-1 
-1 1:-0.823529 2:-0.73913 4:-1 
-1 1:-0.611765 2:-0.913043 4:-1 
-1 1:-0.611765 2:-0.913043 4:-1 
-1 1:-0.392941 2:-0.391304 4:-1 
-1 1:-0.823529 2:-0.73913 4:-1 
-1 1:-0.823529 2:-0.73913 4:-1 
-1 1:-0.823529 2:-0.73913 4:-1 
-1 1:-0.555294 2:-0.391304 4:-1 
-1 1:-0.555294 2:-0.73913 4:-0.996094 
-1 1:-0.823529 2:-0.73913 4:-1 
-1 1:-0.465882 2:-0.913043 4:-1 
-1 1:-0.764706 2:-0.73913 4:-1 
-1 1:1 2:-0.391304 4:-1 
-1 1:1 2:-0.391304 4:-1 
-1 1:-0.76 2:-0.73913 4:-1 
-1 1:-0.628235 2:-0.391304 4:-1 
-1 1:-0.76 2:-0.73913 4:-1 
-1 1:-0.611765 2:-0.913043 4:-1 
-1 1:-0.823529 2:-0.73913 4:-1 
-1 1:-0.637647 2:-0.652174 4:-1 
-1 1:-0.465882 2:-0.913043 4:-1 
-1 1:-0.823529 2:-0.73913 4:-1 
-1 1:-0.555294 2:-0.73913 4:-0.996094 
-1 1:-0.611765 2:-0.913043 4:-1 
-1 1:-0.465882 2:-0.913043 4:-1 
-1 1:-0.465882 2:-0.913043 4:-1 
-1 1:-0.465882 2:-0.913043 4:-1 
-1 1:-0.696471 2:-0.913043 4:-1 
-1 1:-0.611765 2:-0.913043 4:-1 
-1 1:-0.555294 2:-0.565217 4:-0.996094 
-1 1:-0.611765 2:-0.913043 4:-1 
-1 1:-0.611765 2:-0.913043 4:-1 
-1 1:-0.465882 2:-0.913043 4:-1 
-1 1:-0.465882 2:-0.913043 4:-1 
-1 1:-0.465882 2:-0.913043 4:-1 
-1 1:-0.465882 2:-0.913043 4:-1 
-1 1:-0.555294 2:-0.391304 4:-1 
-1 1:-0.555294 2:-0.391304 4:-1 
-1 1:-0.637647 2:-0.652174 4:-1 
-1 1:1 2:-0.391304 4:-1 
-1 1:-0.637647 2:-0.652174 4:-1 
-1 1:-0.637647 2:-0.652174 4:-1 
-1 1:-0.637647 2:-0.652174 4:-1 
-1 1:-0.465882 2:-0.913043 4:-1 
-1 1:-0.611765 2:-0.913043 4:-1 
-1 1:-0.555294 2:-0.652174 4:-1 
-1 1:-0.856471 2:-0.304348 4:-1 
-1 1:-0.856471 2:-0.391304 4:-1 
-1 1:-0.722353 2:-0.913043 4:-1 
-1 1:-0.637647 2:-0.652174 4:-1 
-1 1:-0.637647 2:-0.652174 4:-1 
-1 1:-0.628235 2:-0.391304 4:-1 
-1 1:-0.392941 2:-0.304348 4:-1 
-1 1:-0.856471 2:-0.304348 4:-1 
-1 1:-0.823529 2:-0.73913 4:-1 
-1 1:-0.788235 2:-0.73913 4:-1 
-1 1:-0.788235 2:-0.73913 4:-1 
-1 1:0.388235 2:-0.913043 4:-1 
-1 1:-0.392941 2:-0.304348 4:-1 
-1 1:-0.637647 2:-0.652174 4:-1 
-1 1:-0.696471 2:-0.913043 4:-1 
-1 1:-0.696471 2:-0.913043 4:-1 
-1 1:-0.788235 2:-0.73913 4:-1 
-1 1:-0.788235 2:-0.73913 4:-1 
-1 1:-0.776471 2:-0.391304 4:-1 
-1 1:-0.788235 2:-0.652174 4:-1 
-1 1:0.388235 2:-0.913043 4:-1 
-1 1:-0.696471 2:-0.913043 4:-1 
-1 1:-0.696471 2:-0.913043 4:-1 
-1 1:-0.823529 2:-0.73913 4:-1 
-1 1:-0.555294 2:-0.565217 4:-0.996094 
-1 1:-0.555294 2:-0.652174 4:-1 
-1 1:-0.637647 2:-0.652174 4:-1 
-1 1:-0.555294 2:-0.73913 4:-0.996094 
-1 1:0.388235 2:-0.913043 4:-1 
-1 1:0.388235 2:-0.913043 4:-1 
-1 1:-0.788235 2:-0.73913 4:-1 
-1 1:-0.788235 2:-0.73913 4:-1 
-1 1:0.388235 2:-0.913043 4:-1 
-1 1:-0.788235 2:-0.73913 4:-1 
-1 1:-0.465882 2:-0.565217 3:1 4:-0.996094 
-1 1:-0.465882 2:-0.913043 3:-1 4:-0.992188 
-1 1:-0.465882 2:-0.913043 3:-1 4:-0.992188 
-1 1:-0.776471 2:-0.391304 4:-1 
-1 1:-0.465882 2:-0.913043 4:-1 
-1 1:1 2:-0.391304 4:-1 
-1 1:-0.505882 2:-0.391304 4:-1 
-1 1:1 2:-0.391304 4:-1 
-1 1:-0.197647 2:-0.913043 4:-1 
-1 1:-0.788235 2:-0.73913 4:-1 
-1 1:-0.788235 2:-0.73913 4:-1 
-1 1:-0.788235 2:-0.73913 4:-1 
-1 1:-0.611765 2:-0.913043 4:-1 
-1 1:-0.197647 2:-0.391304 4:-1 
-1 1:-0.465882 2:-0.913043 4:-1 
-1 1:-0.823529 2:-0.73913 4:-1 
-1 1:-0.555294 2:-0.73913 4:-0.996094 
-1 1:-0.764706 2:-0.73913 4:-1 
-1 1:-0.505882 2:-0.391304 4:-1 
-1 1:1 2:-0.391304 4:-1 
-1 1:-0.76 2:-0.565217 4:-1 
-1 1:-0.555294 2:-0.391304 4:-1 
-1 1:-0.722353 2:-0.913043 4:-0.992188 
-1 1:-0.722353 2:-0.913043 4:-0.992188 
-1 1:-0.927059 2:-0.565217 3:-1 4:-1 
-1 1:-0.875294 2:-0.913043 4:-1 
-1 1:-0.764706 2:-0.73913 4:-1 
-1 1:0.388235 2:-0.913043 4:-1 
-1 1:0.388235 2:-0.913043 4:-1 
-1 1:-0.465882 2:-0.913043 4:-1 
-1 1:-0.465882 2:-0.913043 4:-1 
-1 1:-0.465882 2:-0.913043 4:-1 
-1 1:-0.465882 2:-0.913043 4:-1 
-1 1:-0.637647 2:-0.652174 4:-1 
-1 1:-0.764706 2:-0.73913 4:-1 
-1 1:-0.764706 2:-0.652174 4:-1 
-1 1:-0.637647 2:-0.652174 4:-1 
-1 1:1 2:-0.391304 4:-1 
-1 1:-0.465882 2:-0.913043 4:-1 
-1 1:-0.611765 2:-0.913043 4:-1 
-1 1:-0.465882 2:-0.913043 4:-0.988281 
-1 1:-0.611765 2:-0.913043 4:-1 
-1 1:-0.555294 2:-0.73913 4:-0.996094 
-1 1:-0.611765 2:-0.913043 4:-1 
-1 1:-0.611765 2:-0.913043 4:-1 
-1 1:-0.611765 2:-0.913043 4:-1 
-1 1:-0.611765 2:-0.913043 4:-1 
-1 1:-0.611765 2:-0.913043 4:-1 
-1 1:-0.788235 2:-0.73913 4:-1 
-1 1:-0.555294 2:-0.913043 4:-0.988281 
-1 1:-0.611765 2:-0.913043 4:-0.988281 
-1 1:-0.696471 2:-0.913043 4:-1 
-1 1:-0.637647 2:-0.652174 4:-1 
-1 1:-0.637647 2:-0.652174 4:-1 
-1 1:-0.637647 2:-0.652174 4:-1 
-1 1:-0.637647 2:-0.652174 4:-1 
-1 1:-0.722353 2:-0.913043 4:-1 
-1 1:-0.76 2:-0.73913 4:-1 
-1 1:-0.788235 2:-0.73913 4:-1 
-1 1:0.388235 2:-0.913043 4:-1 
-1 1:0.388235 2:-0.913043 4:-1 
-1 1:-0.962353 2:-0.478261 4:-1 
-1 1:0.388235 2:-0.913043 4:-1 
-1 1:-0.835294 2:-0.652174 4:-1 
-1 1:-0.197647 2:-0.391304 4:-1 
-1 1:0.388235 2:-0.913043 4:-1 
-1 1:-0.197647 2:-0.391304 4:-1 
-1 1:-0.197647 2:-0.913043 4:-1 
-1 1:-0.197647 2:-0.913043 4:-1 
-1 1:-0.788235 2:-0.73913 4:-1 
-1 1:0.388235 2:-0.913043 4:-1 
-1 1:0.388235 2:-0.913043 4:-1 
-1 1:0.388235 2:-0.913043 4:-1 
-1 1:-0.197647 2:-0.913043 4:-1 
-1 1:0.388235 2:-0.913043 4:-1 
-1 1:-0.197647 2:-0.913043 4:-1 
-1 1:0.388235 2:-0.913043 4:-1 
-1 1:0.388235 2:-0.913043 4:-1 
-1 1:0.388235 2:-0.913043 4:-1 
-1 1:-0.696471 2:-0.391304 4:-1 
-1 1:-0.555294 2:-0.391304 4:-1 
-1 1:-0.197647 2:-0.913043 4:-1 
-1 1:-0.197647 2:-0.391304 4:-1 
-1 1:-0.197647 2:-0.913043 4:-1 
-1 1:-0.197647 2:-0.913043 4:-1 
-1 1:-0.696471 2:-0.913043 4:-1 
-1 1:0.388235 2:-0.913043 4:-1 
-1 1:0.388235 2:-0.913043 4:-1 
-1 1:0.388235 2:-0.913043 4:-1 
-1 1:0.388235 2:-0.913043 4:-1 
-1 1:0.388235 2:-0.391304 4:-1 
-1 1:0.388235 2:-0.913043 4:-1 
-1 1:-0.788235 2:-0.73913 4:-1 
-1 1:-0.465882 2:-0.565217 4:-1 
-1 1:-0.696471 2:-0.913043 4:-1 
-1 1:0.388235 2:-0.913043 4:-1 
-1 1:-0.392941 2:-0.304348 4:-1 
-1 1:-0.197647 2:-0.913043 4:-1 
-1 1:-0.197647 2:-0.130435 4:-1 
-1 1:-0.197647 2:-0.913043 4:-1 
-1 1:-0.764706 2:-0.73913 4:-1 
-1 1:-0.696471 2:-0.73913 4:-1 
-1 1:-0.465882 2:-0.913043 4:-1 
-1 1:-0.465882 2:-0.913043 4:-1 
-1 1:-0.637647 2:-0.652174 4:-1 
-1 1:-0.357647 2:-0.0434783 4:-1 
-1 1:-0.357647 2:-0.913043 4:-1 
-1 1:-0.698824 2:-0.391304 4:-1 
-1 1:-0.364706 2:-0.73913 4:-1 
-1 1:-0.357647 2:-0.913043 4:-1 
-1 1:-0.555294 2:-0.913043 4:-0.988281 
-1 1:-0.555294 2:-0.913043 4:-0.984375 
-1 1:-0.698824 2:-0.391304 4:-1 
-1 1:-0.465882 2:-0.913043 4:-1 
-1 1:-0.698824 2:-0.391304 4:-1 
-1 1:-0.698824 2:-0.73913 4:-1 
-1 1:-0.698824 2:-0.73913 4:-1 
-1 1:-0.698824 2:-0.73913 4:-1 
-1 1:-0.698824 2:-0.304348 4:-1 
-1 1:-0.788235 2:-0.73913 4:-1 
-1 1:-0.823529 2:-0.73913 4:-1 
-1 1:-0.357647 2:-0.913043 4:-1 
-1 1:-0.357647 2:-0.913043 4:-1 
-1 1:-0.357647 2:-0.913043 4:-1 
-1 1:-0.364706 2:-0.73913 4:-1 
-1 1:-0.698824 2:-0.73913 4:-1 
-1 1:-0.364706 2:-0.73913 4:-1 
-1 1:1 2:-0.391304 4:-1 
-1 1:-0.611765 2:-0.913043 4:-1 
-1 1:-0.635294 2:-0.826087 4:-1 
-1 1:-0.364706 2:-0.73913 4:-1 
-1 1:-0.364706 2:-0.73913 4:-1 
-1 1:-0.635294 2:-0.73913 4:-1 
-1 1:-0.736471 2:-0.913043 4:-0.996094 
-1 1:-0.357647 2:-0.913043 4:-1 
-1 1:-0.364706 2:-0.73913 4:-1 
-1 1:-0.611765 2:-0.913043 4:-1 
-1 1:-0.611765 2:-0.913043 4:-1 
-1 1:-0.611765 2:-0.913043 4:-1 
-1 1:-0.611765 2:-0.913043 4:-0.984375 
-1 1:-0.555294 2:-0.913043 4:-0.988281 
-1 1:-0.465882 2:-0.913043 4:-1 
-1 1:-0.465882 2:-0.913043 4:-1 
-1 1:-0.465882 2:-0.913043 4:-1 
-1 1:-0.465882 2:-0.913043 4:-0.984375 
-1 1:-0.465882 2:-0.913043 4:-1 
-1 1:-0.465882 2:-0.913043 4:-1 
-1 1:-0.465882 2:-0.913043 4:-1 
-1 1:-0.555294 2:-0.913043 4:-0.980469 
-1 1:-0.465882 2:-0.913043 4:-1 
-1 1:-0.465882 2:-0.913043 4:-1 
1 1:-0.465882 2:-0.913043 4:-0.988281 
1 1:0.388235 2:-0.913043 4:-1 
1 1:-0.555294 2:-0.913043 4:-0.984375 
1 1:-0.555294 2:-0.913043 4:-0.984375 
1 1:0.388235 2:-0.913043 4:-1 
1 1:0.388235 2:-0.913043 4:-1 
1 1:-0.465882 2:-0.913043 4:-0.980469 
1 1:-0.555294 2:-0.913043 4:-0.980469 
1 1:-0.722353 2:-0.826087 4:-0.996094 
1 1:-0.835294 2:-0.652174 4:-1 
1 1:-0.364706 2:-0.73913 4:-1 
1 1:-0.555294 2:-0.304348 4:-1 
1 1:-0.465882 2:-0.913043 4:-1 
1 1:-0.776471 2:-0.391304 4:-1 
1 1:0.388235 2:-0.391304 4:-1 
1 1:-0.722353 2:-0.826087 4:-0.988281 
1 1:0.388235 2:-0.391304 4:-1 
1 1:0.388235 2:-0.913043 4:-1 
1 1:-0.197647 2:-0.391304 4:-1 
1 1:-0.856471 2:-0.304348 4:-1 
1 1:-0.392941 2:-0.304348 4:-1 
1 1:-0.197647 2:-0.304348 4:-1 
1 1:-0.197647 2:-0.391304 4:-1 
1 1:-0.197647 2:-0.391304 4:-1 
1 1:0.388235 2:-0.913043 4:-1 
1 1:-0.743529 2:-0.478261 4:-1 
1 1:-0.637647 2:-0.652174 4:-1 
1 1:-0.962353 2:-0.73913 4:-1 
1 1:-0.628235 2:-0.391304 4:-1 
1 1:-0.465882 2:-0.913043 4:-1 
1 1:-0.357647 2:-0.913043 4:-1 
1 1:-0.357647 2:-0.391304 4:-1 
1 1:-0.555294 2:-0.304348 4:-1 
1 1:0.388235 2:-0.304348 4:-1 
1 1:-0.465882 2:-0.913043 4:-1 
1 1:-0.729412 2:-0.391304 4:-1 
1 1:-0.364706 2:-0.73913 4:-1 
1 1:-0.637647 2:-0.652174 4:-1 
1 1:-0.541176 2:-0.391304 4:-1 
1 1:-0.776471 2:-0.913043 3:-1 4:-1 
1 1:-0.635294 2:-0.73913 4:-1 
1 1:-0.364706 2:-0.73913 4:-1 
1 1:-0.736471 2:-0.913043 4:-1 
1 1:-0.875294 2:-1 3:-1 4:-1 
1 1:-0.736471 2:-0.913043 4:-1 
1 1:-0.698824 2:-0.652174 4:-1 
1 1:-0.505882 2:-0.391304 4:-1 
1 1:-0.698824 2:-0.304348 4:-1 
1 1:-0.505882 2:-0.391304 4:-1 
1 1:-0.776471 2:-0.913043 3:-1 4:-1 
1 1:1 2:-0.913043 3:-1 4:-1 
1 1:-0.505882 2:-0.913043 3:-1 4:-1 
1 1:-0.465882 2:-0.565217 3:1 4:-0.996094 
1 1:-0.788235 2:-0.73913 4:-1 
1 1:-0.698824 2:-0.304348 4:-1 
1 1:-0.698824 2:-0.304348 4:-1 
1 1:-0.505882 2:-0.304348 4:-1 
1 1:1 2:-0.304348 4:-1 
1 1:0.209412 2:-0.304348 4:-1 
1 1:-0.611765 2:-0.391304 4:-1 
1 1:-0.611765 2:-0.913043 3:-1 4:-1 
1 1:0.388235 2:-0.913043 4:-1 
1 1:-0.357647 2:-0.304348 4:-1 
1 1:-0.364706 2:-0.73913 4:-1 
1 1:-0.357647 2:-0.391304 4:-1 
1 1:-0.505882 2:-0.391304 4:-1 
1 1:0.388235 2:-0.913043 4:-1 
1 1:-0.364706 2:-0.652174 4:-1 
1 1:-0.357647 2:-0.913043 4:-1 
1 1:0.388235 2:-0.913043 4:-1 
1 1:-0.364706 2:-0.73913 4:-1 
1 1:-0.555294 2:-0.826087 4:-1 
1 1:-0.635294 2:-0.304348 4:-1 
1 1:-0.677647 2:-0.0434783 4:-1 
1 1:-0.865882 2:-0.304348 4:-1 
1 1:1 2:-0.913043 3:-1 4:-1 
1 1:-0.635294 2:-0.826087 4:-1 
1 1:-0.357647 2:-0.913043 4:-1 
1 1:-0.882353 2:-0.913043 4:-0.988281 
1 1:-0.722353 2:-0.826087 4:-0.996094 
1 1:-0.722353 2:-0.913043 4:-1 
1 1:-0.976471 2:-0.73913 4:-1 
1 1:-0.722353 2:-0.826087 4:-0.988281 
1 1:-0.722353 2:-0.913043 4:-0.992188 
1 1:-0.637647 2:-0.652174 4:-1 
1 1:-0.392941 2:-0.304348 4:-1 
1 1:-0.465882 2:-0.217391 4:-1 
1 1:-0.555294 2:-0.913043 4:-0.980469 
1 1:0.388235 2:-0.913043 4:-1 
1 1:-0.856471 2:-0.391304 4:-1 
1 1:-0.856471 2:-0.304348 4:-1 
1 1:-0.856471 2:-0.304348 4:-1 
1 1:-0.134118 2:-0.913043 4:-1 
1 1:-0.294118 2:-0.73913 4:-1 
1 1:-0.294118 2:-0.73913 4:-1 
1 1:-0.134118 2:-0.913043 4:-1 
1 1:-0.294118 2:-0.73913 4:-1 
1 1:-0.294118 2:-0.73913 4:-1 
1 1:-0.294118 2:-0.73913 4:-1 
1 1:-0.294118 2:-0.73913 4:-1 
1 1:-0.134118 2:-0.913043 4:-1 
1 1:-0.294118 2:-0.73913 4:-1 
1 1:-0.294118 2:-0.652174 4:-1 
1 1:-0.134118 2:-0.913043 4:-1 
1 1:-0.197647 2:-0.391304 4:-1 
1 1:-0.197647 2:-0.913043 4:-0.988281 
1 1:0.388235 2:-0.913043 4:-0.984375 
1 1:0.388235 2:-0.913043 4:-0.984375 
1 1:0.388235 2:-0.913043 4:-1 
1 1:0.388235 2:-0.913043 4:-0.988281 
1 1:0.388235 2:-0.913043 4:-1 
1 1:0.388235 2:-0.913043 4:-1 
1 1:-0.197647 2:-0.913043 4:-1 
1 1:0.388235 2:-0.913043 4:-1 
1 1:0.388235 2:-0.913043 4:-1 
1 1:0.388235 2:-0.913043 4:-1 
1 1:0.388235 2:-0.913043 4:-1 
1 1:0.388235 2:-0.913043 4:-1 
1 1:0.388235 2:-0.913043 4:-1 
1 1:0.388235 2:-0.913043 4:-1 
1 1:-0.197647 2:-0.391304 4:-1 
1 1:-0.677647 2:-0.391304 4:-1 
1 1:-0.635294 2:-0.391304 4:-1 
1 1:-0.635294 2:-0.391304 4:-1 
1 1:-0.729412 2:-0.913043 3:-1 4:-1 
1 1:-0.465882 2:-0.217391 4:-1 
1 1:-0.736471 2:-1 3:-1 4:-1 
1 1:-0.465882 2:-0.565217 4:-1 
1 1:-0.677647 2:-0.0434783 4:-1 
1 1:-0.635294 2:-0.913043 3:-1 4:-1 
1 1:-0.465882 2:-0.391304 4:-1 
1 1:-0.465882 2:-0.391304 4:-1 
1 1:-0.465882 2:-0.391304 4:-1 
1 1:-0.465882 2:-0.391304 4:-1 
1 1:-0.465882 2:-0.391304 4:-1 
1 1:-0.465882 2:-0.391304 4:-1 
1 1:-0.364706 2:-0.73913 4:-1 
1 1:-0.364706 2:-0.73913 4:-1 
1 1:-0.505882 2:-0.391304 4:-1 
1 1:1 2:-0.304348 4:-1 
1 1:-0.677647 2:-0.391304 4:-1 
1 1:-0.677647 2:-0.391304 4:-1 
1 1:0.388235 2:-0.913043 4:-1 
1 1:-0.364706 2:-0.652174 4:-1 
1 1:-0.357647 2:-0.304348 4:-1 
1 1:-0.357647 2:-0.913043 4:-1 
1 1:-0.357647 2:-0.913043 4:-0.988281 
1 1:-0.357647 2:-0.913043 4:-0.984375 
1 1:-0.637647 2:-0.652174 4:-1 
1 1:-0.392941 2:-0.304348 4:-1 
1 1:-0.835294 2:-0.652174 4:-1 
1 1:-0.835294 2:-0.652174 4:-1 
1 1:-0.294118 2:-0.652174 4:-1 
1 1:-0.294118 2:-0.652174 4:-1 
1 1:-0.294118 2:-0.73913 4:-1 
1 1:-0.294118 2:-0.391304 4:-1 
1 1:-0.134118 2:-0.913043 4:-1 
1 1:-0.134118 2:-0.913043 4:-1 
1 1:-0.134118 2:-0.913043 4:-1 
1 1:-0.134118 2:-0.73913 4:-1 
1 1:-0.134118 2:-0.913043 4:-1 
1 1:-0.134118 2:-0.913043 4:-1 
1 1:-0.134118 2:-0.913043 4:-1 
1 1:-0.134118 2:-0.913043 4:-1 
1 1:-0.294118 2:-0.73913 4:-1 
1 1:-0.294118 2:-0.73913 4:-1 
1 1:-0.134118 2:-0.913043 4:-1 
1 1:-0.134118 2:-0.391304 4:-1 
1 1:-0.134118 2:-0.391304 4:-1 
1 1:-0.294118 2:-0.652174 4:-1 
1 1:-0.134118 2:-0.913043 4:-1 
1 1:-0.134118 2:-0.913043 4:-1 
1 1:-0.134118 2:-0.913043 4:-1 
1 1:-0.294118 2:-0.73913 4:-1 
1 1:-0.134118 2:-0.391304 4:-1 
1 1:-0.294118 2:-0.73913 4:-1 
1 1:-0.134118 2:-0.391304 4:-1 
1 1:-0.134118 2:-0.391304 4:-1 
1 1:-0.635294 2:-0.304348 4:-1 
1 1:-0.677647 2:-0.391304 4:-1 
1 1:-0.677647 2:-0.391304 4:-1 
1 1:-0.465882 2:-0.913043 4:-0.992188 
1 1:-0.910588 2:-0.73913 3:-1 4:-1 
1 1:-0.788235 2:-0.73913 4:-1 
1 1:-0.364706 2:-0.652174 4:-1 
1 1:-0.134118 2:-0.913043 4:-1 
1 1:-0.134118 2:-0.391304 4:-1 
1 1:-0.134118 2:-0.913043 4:-1 
1 1:-0.294118 2:-0.73913 4:-1 
1 1:-0.134118 2:-0.913043 4:-1 
1 1:-0.294118 2:-0.73913 4:-1 
1 1:-0.294118 2:-0.652174 4:-1 
1 1:-0.134118 2:-0.913043 4:-1 
1 1:-0.835294 2:-0.652174 4:-1 
1 1:-0.392941 2:-0.304348 4:-1 
1 1:-0.835294 2:-0.652174 4:-1 
1 1:-0.390588 2:-0.565217 3:1 4:-0.992188 
1 1:-0.887059 2:-0.826087 3:-0.75 4:-1 
1 1:-0.790588 2:-0.73913 3:-1 4:-1 
1 1:-0.790588 2:-0.304348 4:-1 
1 1:-0.390588 2:-0.913043 3:-1 4:-0.988281 
1 1:-0.887059 2:-0.391304 4:-1 
1 1:-0.390588 2:-0.913043 3:-1 4:-0.988281 
1 1:-0.465882 2:-0.913043 4:-0.984375 
1 1:-0.357647 2:-0.913043 4:-0.984375 
1 1:-0.357647 2:-0.913043 4:-0.984375 
1 1:-0.835294 2:-0.652174 4:-1 
1 1:-0.835294 2:-0.652174 4:-1 
1 1:-0.392941 2:-0.304348 4:-1 
1 1:-0.628235 2:-0.391304 4:-1 
1 1:-0.552941 2:-0.391304 4:-1 
1 1:-0.392941 2:-0.304348 4:-1 
1 1:-0.552941 2:-0.391304 4:-1 
1 1:-0.790588 2:-0.73913 4:-1 
1 1:-0.390588 2:-0.565217 3:1 4:-0.992188 
1 1:-0.790588 2:-0.304348 4:-1 
1 1:-0.790588 2:-0.73913 4:-1 
1 1:-0.228235 2:-0.913043 3:-1 4:-1 
1 1:-0.390588 2:-0.565217 4:-0.992188 
1 1:-0.677647 2:-0.913043 3:-1 4:-1 
1 1:0.388235 2:-0.913043 4:-1 
1 1:0.388235 2:-0.913043 4:-1 
1 1:0.388235 2:-0.913043 4:-1 
1 1:0.388235 2:-0.913043 4:-1 
1 1:0.388235 2:-0.913043 4:-1 
1 1:0.388235 2:-0.913043 4:-1 
1 1:0.388235 2:-0.913043 4:-1 
1 1:-0.995294 2:-0.391304 4:-1 
1 1:-0.392941 2:-0.304348 4:-1 
1 1:-0.552941 2:-0.391304 4:-1 
1 1:-0.552941 2:-0.391304 4:-1 
1 1:-0.552941 2:-0.391304 4:-1 
1 1:-0.552941 2:-0.304348 4:-1 
1 1:-0.887059 2:-0.652174 4:-1 
1 1:-0.887059 2:-0.73913 4:-1 
1 1:-0.790588 2:-0.73913 4:-1 
1 1:-0.790588 2:-0.73913 4:-1 
1 1:-0.552941 2:-0.391304 4:-1 
1 1:-0.465882 2:-0.913043 4:-0.984375 
1 1:-0.790588 2:-0.73913 4:-1 
1 1:-0.390588 2:-0.565217 4:-0.992188 
1 1:-0.465882 2:-0.913043 4:-0.984375 
1 1:-0.628235 2:-0.391304 4:-1 
1 1:-0.541176 2:-0.391304 4:-1 
1 1:-0.357647 2:-0.391304 4:-1 
1 1:-0.821176 2:0.391304 3:1 4:-0.992188 
1 1:-0.858824 2:0.0434783 3:1 4:-1 
1 1:-0.858824 2:-0.565217 3:1 4:-0.996094 
1 1:-0.465882 2:-0.913043 4:-0.980469 
