svm_type epsilon_svr
kernel_type rbf
gamma 0.25
nr_class 2
total_sv 4395
rho -996.59290932118893
SV
-1 1:-0.971784 2:-0.565217 4:-0.999805 
-1 1:-0.583402 2:-0.565217 4:-0.999805 
-1 1:-0.993361 2:-0.565217 4:-0.999023 
-1 1:-0.956846 2:-0.73913 4:-0.999805 
-1 1:-0.956846 2:-0.73913 4:-0.999609 
-1 1:-0.961826 2:-0.913043 4:-0.999609 
-1 1:-0.968465 2:-0.652174 3:-1 4:-0.999805 
-1 1:-0.966805 2:-0.73913 4:-0.999805 
-1 1:-0.961826 2:-0.913043 4:-0.999805 
-1 1:-0.956846 2:-0.913043 4:-0.999414 
-1 1:-0.991701 2:-0.913043 4:-0.999805 
-1 1:-0.956846 2:-0.130435 3:1 4:-0.999218 
-1 1:-0.956846 2:-0.73913 4:-0.999805 
-1 1:-0.829046 2:-0.73913 4:-0.999609 
-1 1:-0.956846 2:-0.73913 3:1 4:-0.999023 
-1 1:-0.978423 2:-0.913043 4:-0.999218 
-1 1:-0.956846 2:-0.73913 4:-0.999609 
-1 1:-0.978423 2:-0.565217 4:-0.999218 
-1 1:-0.980083 2:-0.565217 3:-1 4:-0.999218 
-1 1:-0.991701 2:-0.913043 4:-0.999609 
-1 1:-0.968465 2:-0.73913 4:-0.999609 
-1 1:-0.990041 2:-0.391304 4:-0.999609 
-1 1:-0.995021 2:-0.73913 3:1 4:-0.999023 
-1 1:-0.956846 2:-0.73913 4:-0.999805 
-1 1:-0.966805 2:-0.73913 4:-0.999805 
-1 1:-0.991701 2:-0.478261 4:-0.999609 
-1 1:-0.956846 2:-0.73913 4:-0.999805 
-1 1:-0.956846 2:-0.73913 4:-0.999609 
-1 1:-0.804149 2:0.0434783 4:-0.999609 
-1 1:-0.956846 2:-0.73913 4:-0.999414 
-1 1:-0.975104 2:-0.913043 4:-0.999023 
-1 1:-0.991701 2:-0.913043 4:-0.999609 
-1 1:-0.991701 2:-0.913043 4:-0.999609 
-1 1:-0.993361 2:-0.913043 4:-0.999805 
-1 1:-0.968465 2:-0.73913 4:-0.999414 
-1 1:-0.93361 2:-0.73913 4:-0.999414 
-1 1:-0.948548 2:-0.478261 4:-0.999218 
-1 1:-0.804149 2:-0.73913 4:-0.999609 
-1 1:-0.804149 2:-0.73913 4:-0.999609 
-1 1:-0.956846 2:-0.73913 4:-0.999414 
-1 1:-0.991701 2:-0.478261 4:-0.999805 
-1 1:-0.991701 2:-0.913043 4:-0.999609 
-1 1:-0.983402 2:-0.913043 4:-1 
-1 1:-0.966805 2:-0.73913 4:-0.999609 
-1 1:-0.829046 2:-0.913043 4:-0.999609 
-1 1:-0.946888 2:-0.304348 4:-0.999218 
-1 1:-0.804149 2:-0.73913 4:-0.999609 
-1 1:-0.804149 2:-0.913043 4:-0.999609 
-1 1:-0.948548 2:-0.73913 4:-0.999609 
-1 1:-0.991701 2:-0.913043 4:-0.999805 
-1 1:-0.983402 2:-0.913043 4:-1 
-1 1:-0.988382 2:-0.73913 4:-0.999609 
-1 1:-0.991701 2:-0.478261 4:-0.999609 
-1 1:-0.971784 2:-0.565217 4:-0.999609 
-1 1:-0.966805 2:-0.73913 4:-0.999609 
-1 1:-0.956846 2:-0.73913 4:-0.999609 
-1 1:-0.956846 2:-0.73913 4:-0.999609 
-1 1:-0.961826 2:-0.913043 4:-0.999609 
-1 1:-0.956846 2:-0.73913 4:-0.999805 
-1 1:-0.961826 2:-0.913043 4:-0.999805 
-1 1:-0.956846 2:-0.73913 4:-0.999414 
-1 1:-0.988382 2:-0.565217 4:-0.999218 
-1 1:-0.898755 2:-0.913043 3:-0.96875 4:-0.999609 
-1 1:-0.804149 2:-0.73913 4:-0.999218 
-1 1:-0.956846 2:-0.73913 4:-0.999609 
-1 1:-0.961826 2:-0.913043 4:-0.999218 
-1 1:-0.583402 2:-0.565217 4:-0.999609 
-1 1:-0.980083 2:-0.913043 4:-0.999414 
-1 1:-0.980083 2:-0.913043 4:-0.999414 
-1 1:-0.976763 2:-0.565217 4:-0.999609 
-1 1:-0.995021 2:-0.73913 4:-0.999414 
-1 1:-0.898755 2:-0.913043 3:-0.96875 4:-0.999609 
-1 1:-0.966805 2:-0.73913 4:-0.999805 
-1 1:-0.956846 2:-0.913043 4:-0.999414 
-1 1:-0.99668 2:-0.652174 3:1 4:-0.998436 
-1 1:-0.991701 2:-0.913043 4:-0.999805 
-1 1:-0.99668 2:-0.913043 3:-1 4:-0.999218 
-1 1:-0.975104 2:-0.217391 4:-0.999414 
-1 1:-0.956846 2:-0.913043 4:-0.999414 
-1 1:-0.898755 2:-0.913043 3:-0.96875 4:-0.999609 
-1 1:-0.975104 2:-0.73913 4:-0.999609 
-1 1:-0.966805 2:-0.73913 4:-0.999805 
-1 1:-0.99668 2:-0.913043 3:-1 4:-0.999218 
-1 1:-0.961826 2:-0.913043 4:-0.999609 
-1 1:-0.93195 2:-0.73913 4:-0.999609 
-1 1:-0.956846 2:-0.73913 4:-0.999023 
-1 1:-0.985062 2:-0.565217 4:-0.999218 
-1 1:-0.986722 2:-0.913043 4:-0.998632 
-1 1:-0.898755 2:-0.73913 3:-1 4:-0.999218 
-1 1:-0.991701 2:-0.73913 3:1 4:-0.999023 
-1 1:-0.966805 2:-0.73913 4:-0.999609 
-1 1:-0.925311 2:-0.478261 3:1 4:-0.997655 
-1 1:-0.948548 2:-0.73913 4:-0.999609 
-1 1:-0.897095 2:-0.73913 4:-0.999218 
-1 1:-1 2:-0.73913 4:-0.999609 
-1 1:-0.898755 2:-0.913043 3:-0.96875 4:-0.999218 
-1 1:-0.898755 2:-0.913043 3:-0.96875 4:-0.999218 
-1 1:-0.898755 2:-0.913043 3:-0.96875 4:-0.999218 
-1 1:-0.970124 2:-0.565217 4:-1 
-1 1:-0.897095 2:-0.217391 4:-0.999609 
-1 1:-0.897095 2:-0.217391 4:-0.999609 
-1 1:-0.956846 2:-0.73913 4:-0.999609 
-1 1:-0.961826 2:-0.913043 4:-0.999609 
-1 1:-0.93029 2:-0.73913 4:-0.999414 
-1 1:-0.968465 2:-0.652174 3:-1 4:-0.999805 
-1 1:-0.93195 2:-0.565217 4:-0.999414 
-1 1:-0.936929 2:-0.913043 4:-1 
-1 1:-0.99668 2:-0.652174 3:1 4:-0.998827 
-1 1:-0.956846 2:-0.73913 4:-0.999609 
-1 1:-0.956846 2:-0.73913 4:-0.999609 
-1 1:-0.991701 2:-0.391304 4:-0.999414 
-1 1:-0.953527 2:-0.73913 4:-0.999609 
-1 1:-0.956846 2:-0.73913 4:-0.999805 
-1 1:-0.961826 2:-0.913043 4:-0.999609 
-1 1:-0.956846 2:-0.73913 4:-0.999609 
-1 1:-0.961826 2:-0.913043 4:-0.999609 
-1 1:-0.956846 2:-0.73913 4:-0.999805 
-1 1:-0.976763 2:-0.913043 4:-1 
-1 1:-0.583402 2:-0.73913 4:-0.999609 
-1 1:-0.958506 2:-0.913043 4:-0.999805 
-1 1:-0.93029 2:-0.304348 3:1 4:-0.999023 
-1 1:-0.961826 2:-0.913043 4:-0.999805 
-1 1:-0.961826 2:-0.913043 4:-0.999609 
-1 1:-0.955187 2:-0.565217 4:-0.999609 
-1 1:-0.990041 2:-0.652174 4:-0.999609 
-1 1:-0.991701 2:-0.565217 4:-0.999609 
-1 1:-0.966805 2:-0.652174 3:1 4:-0.998827 
-1 1:-0.995021 2:-0.391304 4:-0.999609 
-1 1:-0.991701 2:-0.73913 3:1 4:-0.999023 
-1 1:-0.961826 2:-0.913043 4:-0.999805 
-1 1:-0.961826 2:-0.913043 4:-0.999805 
-1 1:-0.956846 2:-0.913043 4:-0.999609 
-1 1:-0.956846 2:-0.73913 4:-0.999609 
-1 1:-0.991701 2:-0.73913 3:1 4:-0.999023 
-1 1:-0.956846 2:-0.73913 3:1 4:-0.999023 
-1 1:-0.913693 2:-1 3:-1 4:-0.999805 
-1 1:-0.956846 2:-0.73913 3:1 4:-0.999023 
-1 1:-0.898755 2:-0.913043 3:-0.96875 4:-0.999414 
-1 1:-0.898755 2:-0.913043 3:-0.96875 4:-0.999414 
-1 1:-0.898755 2:-0.913043 3:-0.96875 4:-0.999414 
-1 1:-0.956846 2:-0.73913 3:1 4:-0.999023 
-1 1:-0.961826 2:-0.73913 3:1 4:-0.999023 
-1 1:-0.99668 2:-0.73913 3:1 4:-0.999023 
-1 1:-0.913693 2:-0.913043 4:-0.999805 
-1 1:-0.995021 2:-0.73913 3:1 4:-0.999023 
-1 1:-0.980083 2:-0.565217 3:-1 4:-0.999805 
-1 1:-0.975104 2:-0.652174 3:-1 4:-0.999805 
-1 1:-0.991701 2:-0.913043 4:-0.999805 
-1 1:-0.965145 2:-0.565217 4:-0.999609 
-1 1:-0.956846 2:-0.73913 3:1 4:-0.999023 
-1 1:-0.958506 2:-0.913043 4:-0.999609 
-1 1:-0.961826 2:-0.913043 4:-0.999609 
-1 1:-0.991701 2:-0.73913 3:1 4:-0.999023 
-1 1:-0.958506 2:-0.565217 3:1 4:-0.999023 
-1 1:-0.956846 2:-0.73913 3:1 4:-0.999023 
-1 1:-0.991701 2:-0.73913 3:1 4:-0.999023 
-1 1:-0.956846 2:-0.73913 3:1 4:-0.999023 
-1 1:-0.995021 2:-0.73913 3:1 4:-0.999023 
-1 1:-0.961826 2:-0.913043 4:-0.999609 
-1 1:-0.991701 2:-0.913043 4:-0.999609 
-1 1:-0.968465 2:-0.565217 3:1 4:-0.999023 
-1 1:-0.961826 2:-0.913043 4:-0.999805 
-1 1:-0.988382 2:-0.73913 4:-0.999609 
-1 1:-0.990041 2:-0.652174 3:-1 4:-0.999609 
-1 1:-0.956846 2:-0.73913 4:-0.999805 
-1 1:-0.961826 2:-0.913043 4:-0.999805 
-1 1:-0.995021 2:-0.73913 3:1 4:-0.999023 
-1 1:-0.991701 2:-0.73913 3:1 4:-0.999023 
-1 1:-0.956846 2:-0.73913 3:1 4:-0.999023 
-1 1:-0.958506 2:-0.913043 4:-0.999805 
-1 1:-0.583402 2:-0.73913 4:-0.999805 
-1 1:-0.975104 2:-0.652174 3:-1 4:-0.999609 
-1 1:-0.975104 2:-0.652174 3:-1 4:-0.999609 
-1 1:-0.995021 2:-0.73913 3:1 4:-0.999023 
-1 1:-0.995021 2:-0.73913 3:1 4:-0.999023 
-1 1:-0.961826 2:-0.913043 4:-0.999805 
-1 1:-0.961826 2:-0.913043 4:-0.999805 
-1 1:-0.956846 2:-0.73913 3:1 4:-0.999023 
-1 1:-0.936929 2:-0.826087 4:-1 
-1 1:-0.995021 2:-0.73913 3:1 4:-0.999023 
-1 1:-0.898755 2:-0.913043 3:-0.96875 4:-0.999023 
-1 1:-0.898755 2:-0.913043 3:-0.96875 4:-0.999023 
-1 1:-0.898755 2:-0.913043 3:-0.96875 4:-0.999023 
-1 1:-0.961826 2:-0.913043 4:-0.999805 
-1 1:-0.965145 2:-0.73913 3:1 4:-0.999023 
-1 1:-0.995021 2:-0.73913 3:1 4:-0.999023 
-1 1:-0.983402 2:-0.652174 3:-1 4:-0.999805 
-1 1:-0.961826 2:-0.913043 4:-0.999609 
-1 1:-0.961826 2:-0.73913 3:1 4:-0.999023 
-1 1:-0.995021 2:-0.73913 3:1 4:-0.999023 
-1 1:-0.905394 2:-0.73913 4:-0.999414 
-1 1:-0.956846 2:-0.913043 4:-0.999414 
-1 1:-0.995021 2:-0.73913 3:1 4:-0.999023 
-1 1:-0.955187 2:-0.652174 3:-1 4:-0.999609 
-1 1:-0.955187 2:-0.652174 3:-1 4:-0.999609 
-1 1:-0.975104 2:-0.652174 3:-1 4:-0.999805 
-1 1:-0.958506 2:-0.913043 4:-0.999805 
-1 1:-0.858921 2:-0.913043 3:1 4:-0.999805 
-1 1:-0.961826 2:-0.73913 3:1 4:-0.999023 
-1 1:-0.839004 2:-0.652174 3:-1 4:-0.999609 
-1 1:-0.583402 2:-0.913043 3:1 4:-0.999805 
-1 1:-0.897095 2:-0.913043 4:-0.999609 
-1 1:-0.93029 2:-0.73913 3:1 4:-0.999023 
-1 1:-0.961826 2:-0.73913 3:1 4:-0.999218 
-1 1:-0.965145 2:-0.391304 3:1 4:-0.999023 
-1 1:-0.918672 2:-0.565217 3:1 4:-0.999023 
-1 1:-0.965145 2:-0.652174 3:-1 4:-0.999609 
-1 1:-0.965145 2:-0.652174 3:-1 4:-0.999609 
-1 1:-0.993361 2:-0.73913 3:1 4:-0.999023 
-1 1:-0.988382 2:-0.913043 3:1 4:-0.999414 
-1 1:-0.860581 2:-0.913043 3:1 4:-0.999805 
-1 1:-0.980083 2:-0.913043 4:-1 
-1 1:-0.956846 2:-0.73913 3:1 4:-0.999023 
-1 1:-0.93195 2:-0.565217 4:-0.999609 
-1 1:-0.956846 2:-0.73913 4:-0.999218 
-1 1:-0.961826 2:-0.913043 4:-0.999218 
-1 1:-0.991701 2:-0.73913 3:1 4:-0.999023 
-1 1:-0.961826 2:-0.913043 4:-0.999218 
-1 1:-0.995021 2:-0.73913 3:1 4:-0.999023 
-1 1:-0.995021 2:-0.73913 3:1 4:-0.999023 
-1 1:-0.991701 2:-0.73913 3:1 4:-0.999023 
-1 1:-0.958506 2:-0.913043 4:-0.999609 
-1 1:-0.960166 2:0.217391 3:1 4:-0.998827 
-1 1:-0.956846 2:-0.73913 3:1 4:-0.999023 
-1 1:-0.910373 2:-0.913043 3:1 4:-0.999805 
-1 1:-0.936929 2:-0.913043 3:1 4:-0.999805 
-1 1:-0.93361 2:-0.391304 4:-0.999805 
-1 1:-0.970124 2:-0.73913 4:-0.999609 
-1 1:-0.983402 2:-0.652174 3:-1 4:-0.999609 
-1 1:-0.858921 2:-0.73913 3:1 4:-0.999023 
-1 1:-0.988382 2:-0.478261 4:-0.999218 
-1 1:-0.995021 2:-0.217391 4:-0.999805 
-1 1:-0.991701 2:-0.391304 4:-0.999609 
-1 1:-0.804149 2:-0.73913 4:-0.999218 
-1 1:-0.541909 2:1 4:-0.999609 
-1 1:-0.991701 2:-0.73913 3:1 4:-0.999023 
-1 1:-0.948548 2:-0.913043 4:-0.999609 
-1 1:-0.991701 2:-0.478261 4:-0.999218 
-1 1:-0.991701 2:-0.913043 4:-0.999609 
-1 1:-0.93195 2:-0.73913 4:-0.999414 
-1 1:-0.975104 2:-0.652174 3:-1 4:-0.999805 
-1 1:-0.893776 2:-0.478261 3:1 4:-0.999023 
-1 1:-0.975104 2:-0.652174 3:-1 4:-0.999805 
-1 1:-0.953527 2:-0.73913 3:1 4:-0.999023 
-1 1:-0.910373 2:-0.913043 3:1 4:-0.999805 
-1 1:-0.956846 2:-0.73913 3:1 4:-0.999023 
-1 1:-0.956846 2:-0.73913 3:1 4:-0.999023 
-1 1:-0.965145 2:-0.73913 3:1 4:-0.999023 
-1 1:-0.961826 2:-0.73913 3:1 4:-0.999023 
-1 1:-0.93195 2:-0.565217 4:-0.999218 
-1 1:-0.985062 2:-0.565217 4:-0.999218 
-1 1:-0.968465 2:-0.565217 3:1 4:-0.999023 
-1 1:-0.990041 2:-0.565217 3:1 4:-0.999805 
-1 1:-0.956846 2:-0.73913 3:1 4:-0.999023 
-1 1:-0.988382 2:-0.478261 4:-0.999218 
-1 1:-0.991701 2:-0.913043 4:-0.999609 
-1 1:-0.905394 2:-0.913043 4:-0.999609 
-1 1:-0.961826 2:-0.73913 3:1 4:-0.999023 
-1 1:-0.983402 2:-0.913043 4:-1 
-1 1:-0.976763 2:-0.652174 3:1 4:-0.999023 
-1 1:-0.975104 2:-0.652174 3:-1 4:-0.999609 
-1 1:-0.956846 2:-0.73913 4:-0.999609 
-1 1:-0.955187 2:-0.73913 4:-0.999218 
-1 1:-0.975104 2:-0.652174 3:-1 4:-0.999609 
-1 1:-0.583402 2:-0.913043 3:1 4:-0.999805 
-1 1:-0.990041 2:-0.565217 3:1 4:-0.999805 
-1 1:-0.961826 2:-0.913043 4:-0.999805 
-1 1:-0.99668 2:-0.73913 3:1 4:-0.999023 
-1 1:-0.961826 2:-0.73913 3:1 4:-0.999023 
-1 1:-0.981743 2:-0.217391 4:-0.999218 
-1 1:-0.975104 2:-0.652174 3:-1 4:-0.999609 
-1 1:-0.975104 2:-0.652174 3:-1 4:-0.999609 
-1 1:-0.956846 2:-0.73913 3:1 4:-0.999023 
-1 1:-0.961826 2:-0.73913 3:1 4:-0.999023 
-1 1:-0.956846 2:-0.73913 3:1 4:-0.999023 
-1 1:-0.742739 2:-0.913043 3:1 4:-0.999805 
-1 1:-0.995021 2:-0.73913 3:1 4:-0.999023 
-1 1:-0.991701 2:-0.913043 4:-0.999609 
-1 1:-0.990041 2:-0.73913 3:1 4:-0.999023 
-1 1:-0.93195 2:-0.478261 4:-0.999414 
-1 1:-0.953527 2:-0.913043 3:-0.96875 4:-0.999805 
-1 1:-0.953527 2:-0.913043 3:-0.96875 4:-0.999805 
-1 1:-0.995021 2:-0.73913 3:1 4:-0.999023 
-1 1:-0.840664 2:-0.217391 4:-0.998632 
-1 1:-0.93195 2:-0.652174 4:-0.999218 
-1 1:-0.995021 2:-0.73913 3:1 4:-0.999023 
-1 1:-0.991701 2:-0.73913 3:1 4:-0.999023 
-1 1:-0.541909 2:-0.565217 4:-0.999609 
-1 1:-0.995021 2:-0.652174 4:-0.999609 
-1 1:-0.961826 2:-0.913043 4:-0.999609 
-1 1:-0.956846 2:-0.73913 4:-0.999609 
-1 1:-0.956846 2:-0.73913 4:-0.999609 
-1 1:-0.961826 2:-0.913043 4:-0.999609 
-1 1:-0.956846 2:-0.73913 3:1 4:-0.999023 
-1 1:-0.995021 2:-0.73913 3:1 4:-0.999023 
-1 1:-0.742739 2:-0.913043 3:1 4:-0.999805 
-1 1:-0.742739 2:-0.913043 3:1 4:-0.999805 
-1 1:-0.983402 2:-0.652174 4:-0.999609 
-1 1:-0.983402 2:-0.391304 3:1 4:-0.999805 
-1 1:-0.995021 2:-0.73913 3:1 4:-0.999023 
-1 1:-0.955187 2:-0.652174 3:1 4:-0.999023 
-1 1:-0.956846 2:-0.73913 3:1 4:-0.999023 
-1 1:-0.991701 2:-0.913043 4:-0.999609 
-1 1:-0.993361 2:-0.565217 4:-0.999414 
-1 1:-0.995021 2:-0.73913 3:1 4:-0.999023 
-1 1:-0.975104 2:-0.652174 3:-1 4:-0.999609 
-1 1:-0.975104 2:-0.73913 3:1 4:-0.999023 
-1 1:-0.742739 2:-0.913043 3:1 4:-0.999805 
-1 1:-0.860581 2:-0.913043 3:1 4:-0.999805 
-1 1:-0.965145 2:-0.652174 3:-1 4:-0.999609 
-1 1:-0.965145 2:-0.652174 3:-1 4:-0.999609 
-1 1:-0.965145 2:-0.652174 3:-1 4:-0.999609 
-1 1:-0.583402 2:-0.913043 4:-0.999414 
-1 1:-0.983402 2:-0.652174 4:-0.999609 
-1 1:-0.948548 2:-0.652174 3:-0.5 4:-0.999609 
-1 1:-0.965145 2:-0.652174 3:-1 4:-0.999805 
-1 1:-0.965145 2:-0.652174 3:-1 4:-0.999609 
-1 1:-0.995021 2:-0.73913 3:1 4:-0.999023 
-1 1:-0.978423 2:-0.652174 3:-1 4:-0.999805 
-1 1:-0.817427 2:-0.826087 4:-0.999805 
-1 1:-0.961826 2:-0.913043 4:-0.999609 
-1 1:-0.742739 2:-0.913043 3:1 4:-0.999805 
-1 1:-0.991701 2:-0.73913 3:1 4:-0.999023 
-1 1:-0.860581 2:-0.913043 3:1 4:-0.999805 
-1 1:-0.940249 2:-0.73913 4:-0.999805 
-1 1:-0.975104 2:-0.652174 3:-1 4:-0.999609 
-1 1:-0.975104 2:-0.652174 3:-1 4:-0.999609 
-1 1:-0.975104 2:-0.652174 3:-1 4:-0.999609 
-1 1:-0.993361 2:-0.913043 4:-0.999609 
-1 1:-0.93029 2:-0.652174 4:-0.999609 
-1 1:-0.958506 2:-0.913043 4:-0.999609 
-1 1:-0.993361 2:-0.565217 4:-0.999414 
-1 1:-0.93361 2:-0.73913 4:-0.999414 
-1 1:-0.958506 2:-0.565217 3:1 4:-0.999023 
-1 1:-0.991701 2:-0.913043 4:-0.999805 
-1 1:-0.961826 2:-0.73913 3:1 4:-0.999023 
-1 1:-0.913693 2:-0.913043 3:1 4:-0.999805 
-1 1:-0.93527 2:-0.130435 3:1 4:-0.999023 
-1 1:-0.903734 2:-0.478261 3:1 4:-0.999023 
-1 1:-0.980083 2:-0.913043 4:-1 
-1 1:-0.993361 2:-0.913043 4:-0.999609 
-1 1:-0.995021 2:-0.73913 3:1 4:-0.999023 
-1 1:-0.975104 2:-0.652174 3:-1 4:-0.999609 
-1 1:-0.988382 2:-0.478261 4:-0.999218 
-1 1:-0.991701 2:-0.913043 4:-0.999609 
-1 1:-0.839004 2:-0.565217 4:-0.999609 
-1 1:-0.742739 2:-0.913043 3:1 4:-0.999805 
-1 1:-0.961826 2:-0.913043 4:-0.999805 
-1 1:-0.958506 2:-0.652174 3:-1 4:-0.999609 
-1 1:-0.995021 2:-0.73913 3:1 4:-0.999023 
-1 1:-0.961826 2:-0.73913 3:1 4:-0.999023 
-1 1:-0.860581 2:-0.913043 3:1 4:-0.999805 
-1 1:-0.948548 2:-0.217391 4:-1 
-1 1:-0.980083 2:-0.391304 3:1 4:-0.999023 
-1 1:-0.961826 2:-0.73913 3:1 4:-0.999023 
-1 1:-0.956846 2:-0.913043 4:-0.999609 
-1 1:-0.991701 2:-0.73913 3:1 4:-0.999023 
-1 1:-0.995021 2:-0.73913 3:1 4:-0.999023 
-1 1:-0.583402 2:-0.913043 4:-0.999218 
-1 1:-0.99834 2:-0.73913 3:-0.5 4:-0.999805 
-1 1:-0.583402 2:-0.913043 4:-0.999414 
-1 1:-0.975104 2:-0.652174 3:-1 4:-0.999609 
-1 1:-0.99668 2:-0.73913 3:1 4:-0.999023 
-1 1:-0.893776 2:-1 3:-1 4:-0.999805 
-1 1:-0.958506 2:-0.913043 4:-0.999609 
-1 1:-0.893776 2:-1 3:-1 4:-0.999805 
-1 1:-0.583402 2:-0.913043 4:-0.999218 
-1 1:-0.990041 2:-0.652174 3:1 4:-0.999023 
-1 1:-0.975104 2:-0.652174 3:-1 4:-0.999609 
-1 1:-0.995021 2:-0.652174 3:-1 4:-0.999609 
-1 1:-0.975104 2:-0.652174 3:-1 4:-0.999609 
-1 1:-0.991701 2:-0.478261 4:-0.999805 
-1 1:-0.951867 2:-0.913043 3:1 4:-0.999609 
-1 1:-0.983402 2:-0.913043 4:-0.999805 
-1 1:-0.951867 2:-0.73913 4:-0.999609 
-1 1:-0.965145 2:-0.913043 3:1 4:-0.999805 
-1 1:-0.742739 2:-0.913043 3:1 4:-0.999805 
-1 1:-0.583402 2:-0.913043 4:-0.999218 
-1 1:-0.93527 2:-0.73913 3:1 4:-0.999023 
1 1:-0.903734 2:-1 3:-1 4:-0.999805 
-1 1:-0.975104 2:-0.652174 3:-1 4:-0.999805 
-0.46593428727859632 1:-0.742739 2:-0.913043 3:1 4:-0.999805 
1 1:-0.99668 2:-0.826087 4:-0.999609 
1 1:-0.970124 2:-0.913043 4:-0.999023 
-0.53406571272140368 1:-0.975104 2:-0.652174 3:-1 4:-0.999609 
1 1:-0.742739 2:-0.913043 3:1 4:-0.999805 
1 1:-0.965145 2:-0.73913 3:1 4:-0.998827 
-1 1:-0.981743 2:-0.478261 4:-1 
1 1:-0.966805 2:-0.913043 4:-1 
1 1:-0.900415 2:-0.826087 4:-0.999414 
1 1:-0.980083 2:-0.913043 3:1 4:-0.999414 
1 1:-0.900415 2:-0.826087 4:-0.999414 
1 1:-0.900415 2:-0.826087 4:-0.999414 
1 1:-0.900415 2:-0.826087 4:-0.999414 
1 1:-0.900415 2:-0.826087 4:-0.999414 
1 1:-0.900415 2:-0.826087 4:-0.999414 
1 1:-0.583402 2:-0.913043 4:-0.999218 
1 1:-0.978423 2:-0.565217 4:-0.999218 
1 1:-0.961826 2:-0.73913 3:1 4:-0.999023 
1 1:-0.99668 2:-0.913043 4:-0.999414 
1 1:-0.975104 2:-0.652174 3:-1 4:-0.999805 
1 1:-0.956846 2:-0.73913 4:-0.999609 
1 1:-0.960166 2:-0.73913 3:1 4:-0.999023 
1 1:-0.905394 2:-0.73913 4:-0.999609 
1 1:-0.814108 2:-0.913043 4:-0.999609 
1 1:-0.958506 2:-0.652174 3:-1 4:-0.999805 
1 1:-0.951867 2:-0.913043 3:1 4:-0.999805 
1 1:-0.742739 2:-0.913043 3:1 4:-0.999805 
1 1:-0.936929 2:-0.913043 4:-1 
1 1:-0.978423 2:-0.565217 3:1 4:-0.999805 
1 1:-0.975104 2:-0.652174 3:-1 4:-0.999609 
1 1:-0.860581 2:-0.913043 3:1 4:-0.999805 
1 1:-0.814108 2:-0.826087 4:-0.999414 
1 1:-0.923651 2:-0.913043 4:-0.999609 
1 1:-0.814108 2:-0.826087 4:-0.999414 
1 1:-0.814108 2:-0.826087 4:-0.999414 
1 1:-0.742739 2:-0.913043 3:1 4:-0.999805 
1 1:-0.943568 2:-0.217391 3:1 4:-0.999023 
1 1:-0.900415 2:-0.826087 4:-0.999414 
1 1:-0.900415 2:-0.826087 4:-0.999414 
1 1:-0.975104 2:-0.652174 3:-1 4:-0.999609 
1 1:-0.975104 2:-0.652174 3:-1 4:-0.999805 
1 1:-0.905394 2:-0.73913 4:-0.999609 
1 1:-0.908714 2:-0.913043 4:-1 
1 1:-0.983402 2:-0.913043 4:-0.999805 
1 1:-0.583402 2:-0.913043 4:-0.999218 
1 1:-0.742739 2:-0.913043 3:-1 4:-0.999805 
1 1:-0.988382 2:-0.73913 3:1 4:-0.999023 
1 1:-0.679668 2:-0.826087 4:-0.999805 
1 1:-0.583402 2:-0.913043 3:1 4:-0.999805 
1 1:-0.742739 2:-0.913043 3:1 4:-0.999805 
1 1:-0.583402 2:-0.913043 4:-0.999218 
1 1:-0.583402 2:-0.913043 4:-0.999218 
1 1:-0.985062 2:-0.913043 4:-0.999218 
1 1:-0.953527 2:-0.73913 3:1 4:-0.999023 
1 1:-0.953527 2:-0.73913 4:-0.999609 
1 1:-0.961826 2:-0.913043 4:-0.999414 
1 1:-0.903734 2:-1 3:-1 4:-0.999805 
1 1:-0.93195 2:-0.73913 4:-0.999609 
1 1:-0.955187 2:-0.652174 3:-1 4:-0.999609 
1 1:-0.955187 2:-0.652174 3:-1 4:-0.999609 
1 1:-0.956846 2:-0.73913 3:1 4:-0.999023 
1 1:-0.742739 2:-0.913043 3:1 4:-0.999805 
1 1:-0.975104 2:-0.652174 3:-1 4:-0.999609 
1 1:-0.99668 2:-0.73913 3:1 4:-0.999023 
1 1:-0.961826 2:-0.913043 4:-0.999609 
1 1:-0.975104 2:-0.652174 3:-1 4:-0.999609 
1 1:-0.995021 2:-0.73913 3:1 4:-0.999023 
1 1:-0.918672 2:-0.652174 3:-1 4:-0.999609 
1 1:-0.93195 2:-0.913043 4:-0.999609 
1 1:-0.961826 2:-0.73913 3:1 4:-0.999023 
1 1:-0.975104 2:-0.73913 3:1 4:-0.999023 
1 1:-0.541909 2:-0.217391 4:-0.999218 
1 1:-0.583402 2:-0.913043 4:-0.999218 
1 1:-0.804149 2:-0.652174 4:-0.999414 
1 1:-0.679668 2:-0.826087 4:-0.999805 
1 1:-0.679668 2:-0.826087 4:-0.999805 
1 1:-0.910373 2:-0.913043 3:1 4:-0.999805 
1 1:-0.975104 2:-0.73913 3:1 4:-0.998827 
1 1:-0.742739 2:-0.913043 3:1 4:-0.999805 
1 1:-0.970124 2:-0.565217 4:-0.999609 
1 1:-0.995021 2:-0.73913 3:1 4:-0.999023 
1 1:-0.983402 2:-0.391304 4:-0.999609 
1 1:-0.880498 2:-0.913043 3:1 4:-0.999805 
1 1:-0.860581 2:-0.913043 3:1 4:-0.999805 
1 1:-0.860581 2:-0.913043 3:-1 4:-0.999805 
1 1:-0.978423 2:-0.565217 3:1 4:-0.999805 
1 1:-0.860581 2:-0.913043 3:1 4:-0.999805 
1 1:-0.93195 2:-0.73913 3:1 4:-0.999023 
1 1:-0.583402 2:-0.913043 4:-0.999218 
1 1:-0.583402 2:-0.913043 4:-0.999218 
1 1:-0.975104 2:-0.652174 3:-1 4:-0.999609 
1 1:-0.93195 2:-0.304348 3:1 4:-0.999023 
1 1:-0.99668 2:-0.73913 3:1 4:-0.999023 
1 1:-0.860581 2:-0.913043 3:1 4:-0.999805 
1 1:-0.583402 2:-0.913043 4:-0.999218 
1 1:-0.679668 2:-0.826087 4:-0.999805 
1 1:-0.995021 2:-0.73913 3:1 4:-0.999023 
1 1:-0.583402 2:-0.913043 4:-0.999218 
1 1:-0.583402 2:-0.913043 4:-0.999218 
1 1:-0.975104 2:-0.652174 3:-1 4:-0.999609 
1 1:-0.679668 2:-0.826087 4:-0.999805 
1 1:-0.910373 2:-0.913043 3:1 4:-0.999805 
1 1:-0.742739 2:-0.913043 3:1 4:-0.999805 
1 1:-0.965145 2:-0.913043 3:1 4:-0.999805 
1 1:-0.679668 2:-0.826087 4:-0.999805 
1 1:-0.679668 2:-0.826087 4:-0.999805 
1 1:-0.893776 2:-1 3:-1 4:-0.999609 
1 1:-0.679668 2:-0.826087 4:-0.999805 
1 1:-0.925311 2:-0.304348 4:-0.998241 
1 1:-0.877178 2:-0.304348 4:-0.998241 
1 1:-0.903734 2:-0.913043 4:-0.999218 
1 1:-0.903734 2:-0.73913 4:-0.999218 
1 1:-0.900415 2:-0.130435 4:-0.998241 
1 1:-0.877178 2:-0.304348 4:-0.998241 
1 1:-0.951867 2:-0.913043 4:-1 
1 1:-0.923651 2:-0.478261 4:-0.999609 
1 1:-0.583402 2:-0.913043 4:-0.999218 
1 1:-0.583402 2:-0.913043 4:-0.999218 
1 1:-0.583402 2:-0.913043 4:-0.999218 
1 1:-0.991701 2:-0.391304 4:-0.999609 
1 1:-0.991701 2:-0.391304 4:-0.999609 
1 1:-0.679668 2:-0.826087 4:-0.999805 
1 1:-0.583402 2:-0.913043 4:-0.999218 
1 1:-0.943568 2:-0.913043 3:1 4:-0.999414 
1 1:-0.975104 2:-0.652174 3:-1 4:-0.999609 
1 1:-0.963485 2:-0.73913 4:-0.999414 
1 1:-0.724481 2:-0.73913 4:-0.999023 
1 1:-0.988382 2:-0.565217 4:-0.999023 
1 1:-0.862241 2:-0.73913 4:-0.999218 
1 1:-0.862241 2:-0.73913 4:-0.999218 
1 1:-0.724481 2:-0.565217 4:-0.999023 
1 1:-0.956846 2:-0.73913 3:1 4:-0.999023 
1 1:-0.948548 2:-0.130435 4:-0.999805 
1 1:-0.995021 2:-0.73913 3:1 4:-0.999023 
1 1:-0.966805 2:-0.913043 4:-1 
1 1:-0.742739 2:-0.913043 3:1 4:-0.999805 
1 1:-0.679668 2:-0.826087 4:-0.999805 
1 1:-0.965145 2:-0.913043 3:1 4:-0.999805 
1 1:-0.583402 2:-0.913043 4:-0.999218 
1 1:-0.583402 2:-0.913043 4:-0.999218 
1 1:-0.742739 2:-0.913043 3:1 4:-0.999805 
1 1:-0.940249 2:-0.73913 4:-0.999609 
1 1:-0.583402 2:-0.913043 4:-0.999218 
1 1:-0.583402 2:-0.913043 4:-0.999218 
1 1:-0.956846 2:-0.73913 3:1 4:-0.999023 
1 1:-0.995021 2:-0.565217 3:1 4:-0.999023 
1 1:-0.943568 2:-0.73913 4:-0.999609 
1 1:-0.742739 2:-0.913043 3:1 4:-0.999805 
1 1:-0.993361 2:-0.565217 4:-0.999218 
1 1:-0.829046 2:-0.913043 3:1 4:-0.999805 
1 1:-0.923651 2:-0.565217 4:-1 
1 1:-0.991701 2:-0.73913 3:1 4:-0.999023 
1 1:-0.986722 2:-0.652174 3:1 4:-0.999218 
1 1:-0.986722 2:-0.913043 4:-0.998632 
1 1:-0.679668 2:-0.826087 4:-0.999805 
1 1:-0.978423 2:-0.565217 3:1 4:-0.999805 
1 1:-0.742739 2:-0.913043 3:1 4:-0.999805 
1 1:-0.93195 2:-0.73913 3:-0.96875 4:-0.999609 
1 1:-0.988382 2:-0.73913 3:1 4:-0.999023 
1 1:-0.975104 2:-0.826087 4:-0.999414 
1 1:-0.880498 2:-0.913043 4:-1 
1 1:-0.956846 2:-0.913043 3:1 4:-0.999609 
1 1:-0.936929 2:-0.913043 4:-1 
1 1:-0.583402 2:-0.913043 4:-0.999218 
1 1:-0.955187 2:-0.652174 3:-1 4:-0.999609 
1 1:-0.880498 2:-0.913043 3:1 4:-0.999805 
1 1:-0.991701 2:-0.478261 4:-0.999609 
1 1:-0.956846 2:-0.73913 4:-0.999414 
1 1:-0.991701 2:-0.478261 4:-0.999023 
1 1:-0.995021 2:-0.73913 3:1 4:-0.999023 
1 1:-0.995021 2:-0.73913 3:1 4:-0.999023 
1 1:-0.988382 2:-0.73913 3:1 4:-0.999023 
1 1:-0.975104 2:-0.652174 3:-1 4:-0.999609 
1 1:-0.860581 2:-0.913043 3:1 4:-0.999805 
1 1:-0.913693 2:-1 3:-1 4:-0.999805 
1 1:-0.679668 2:-0.826087 4:-0.999805 
1 1:-0.817427 2:-0.913043 4:-1 
1 1:-0.880498 2:-0.913043 4:-1 
1 1:-0.814108 2:-0.826087 4:-0.999414 
1 1:-0.742739 2:-0.913043 4:-1 
1 1:-0.991701 2:-0.913043 4:-0.999609 
1 1:-0.890456 2:-0.826087 4:-0.999805 
1 1:-0.583402 2:-0.73913 4:-0.999218 
1 1:-0.583402 2:-0.913043 4:-0.999414 
1 1:-0.921992 2:-1 3:-1 4:-1 
1 1:-0.910373 2:-0.913043 3:1 4:-0.999805 
1 1:-0.978423 2:-0.565217 3:1 4:-0.999805 
1 1:-0.679668 2:-0.826087 4:-0.999805 
1 1:-0.973444 2:-0.478261 4:-0.999414 
1 1:-0.965145 2:-0.652174 3:-1 4:-0.999609 
1 1:-0.986722 2:-0.652174 3:1 4:-0.999218 
1 1:-0.991701 2:-0.913043 4:-0.999609 
1 1:-0.991701 2:-0.913043 4:-0.999609 
1 1:-0.991701 2:-0.478261 4:-0.999023 
1 1:-0.980083 2:-1 3:-1 4:-0.999609 
1 1:-0.991701 2:-0.478261 4:-0.999023 
1 1:-0.951867 2:-0.913043 4:-1 
1 1:-0.829046 2:-0.913043 4:-1 
1 1:-0.679668 2:-0.826087 4:-0.999805 
1 1:-0.804149 2:-1 3:-1 4:-1 
1 1:-0.814108 2:-0.913043 3:1 4:-0.999414 
1 1:-0.966805 2:-0.913043 3:-0.96875 4:-0.999414 
1 1:-0.963485 2:-0.652174 3:-1 4:-0.999218 
1 1:-0.978423 2:-0.826087 4:-0.999023 
1 1:-0.877178 2:-0.217391 3:1 4:-0.998632 
1 1:-0.965145 2:-0.391304 3:1 4:-0.999023 
1 1:-0.990041 2:-0.391304 4:-0.998436 
1 1:-0.991701 2:-0.913043 4:-0.999609 
1 1:-0.860581 2:-0.913043 4:-1 
1 1:-0.968465 2:-0.0434783 4:-0.999218 
1 1:-0.897095 2:-0.565217 4:-0.99785 
1 1:-0.991701 2:-0.478261 4:-0.999218 
1 1:-0.897095 2:-0.913043 4:-0.999609 
1 1:-0.860581 2:-0.913043 3:1 4:-0.999805 
1 1:-0.960166 2:-0.826087 4:-0.999023 
1 1:-0.858921 2:-0.565217 4:-0.999609 
1 1:-0.991701 2:-0.478261 4:-0.999218 
1 1:-0.742739 2:-0.913043 3:1 4:-0.999805 
1 1:-0.980083 2:-0.652174 3:-1 4:-0.999218 
1 1:-0.923651 2:-0.478261 4:-0.999609 
1 1:-0.742739 2:-0.913043 3:1 4:-0.999805 
1 1:-0.973444 2:-0.478261 4:-0.999218 
1 1:-0.956846 2:-0.73913 4:-0.999023 
1 1:-0.880498 2:-0.913043 4:-1 
1 1:-0.946888 2:-0.913043 4:-0.999609 
1 1:-0.961826 2:-0.913043 4:-0.999609 
1 1:0.107054 2:-0.217391 4:-0.999218 
1 1:-0.991701 2:-0.478261 4:-0.999609 
1 1:-0.971784 2:-0.73913 4:-0.999609 
1 1:-0.946888 2:-0.565217 4:-0.999609 
1 1:-0.995021 2:-0.73913 3:1 4:-0.999023 
1 1:-0.679668 2:-0.826087 4:-0.999805 
1 1:-0.817427 2:-0.652174 3:-0.5 4:-0.999609 
1 1:-0.995021 2:-0.73913 3:1 4:-0.999023 
1 1:-0.963485 2:-0.652174 3:-1 4:-0.999609 
1 1:-0.975104 2:-0.652174 3:-1 4:-0.999609 
1 1:-0.995021 2:-0.73913 3:1 4:-0.999023 
1 1:-0.973444 2:-0.391304 4:-0.999218 
1 1:-0.965145 2:-0.652174 3:-1 4:-0.999609 
1 1:-0.995021 2:-0.73913 3:1 4:-0.999023 
1 1:-0.970124 2:-0.73913 4:-0.999609 
1 1:-0.991701 2:-0.478261 4:-0.999023 
1 1:-0.822407 2:-0.73913 4:-0.999609 
1 1:-0.991701 2:-0.73913 3:1 4:-0.998827 
1 1:-0.903734 2:-1 3:-1 4:-0.999609 
1 1:-0.991701 2:-0.913043 4:-0.999609 
1 1:-0.975104 2:-0.826087 4:-0.999414 
1 1:-0.956846 2:-0.73913 4:-0.999218 
1 1:-0.991701 2:-0.565217 4:-0.999218 
1 1:-0.995021 2:-0.73913 3:1 4:-0.999023 
1 1:-0.961826 2:-0.73913 3:1 4:-0.999023 
1 1:-0.975104 2:-0.652174 3:-1 4:-0.999609 
1 1:-0.966805 2:-0.913043 4:-1 
1 1:-0.679668 2:-0.826087 4:-0.999805 
1 1:-0.991701 2:-0.73913 4:-0.999218 
1 1:-0.946888 2:-0.913043 4:-0.999609 
1 1:-0.995021 2:-0.73913 3:1 4:-0.999023 
1 1:-0.966805 2:-0.913043 4:-1 
1 1:-0.860581 2:-0.913043 3:1 4:-0.999805 
1 1:-0.995021 2:-0.73913 4:-0.999414 
1 1:-0.877178 2:-0.913043 4:-0.999023 
1 1:-0.995021 2:-0.73913 4:-1 
1 1:-0.910373 2:-0.913043 3:1 4:-0.999805 
1 1:-0.804149 2:-0.913043 4:-1 
1 1:-0.93527 2:0.304348 4:-0.998241 
1 1:-0.804149 2:-0.913043 4:-1 
1 1:-0.993361 2:-0.565217 4:-1 
1 1:-0.804149 2:-0.913043 4:-1 
1 1:-0.804149 2:-0.913043 4:-1 
1 1:-0.991701 2:-0.913043 4:-0.999609 
1 1:-0.804149 2:-0.913043 4:-1 
1 1:-0.955187 2:-0.652174 3:-1 4:-0.999609 
1 1:-0.985062 2:-0.73913 3:-0.5 4:-0.999609 
1 1:-0.804149 2:-0.913043 4:-1 
1 1:-0.988382 2:-0.913043 4:-0.999023 
1 1:-0.981743 2:-0.913043 4:-0.999218 
1 1:-0.948548 2:-0.913043 4:-0.999609 
1 1:-0.93527 2:-0.652174 3:-1 4:-0.999609 
1 1:-0.817427 2:-0.652174 4:-0.999414 
1 1:-0.975104 2:-0.652174 3:-1 4:-0.999609 
1 1:-0.976763 2:-0.913043 4:-1 
1 1:-0.804149 2:-0.913043 4:-1 
1 1:-0.988382 2:-0.652174 3:-1 4:-0.999609 
1 1:-0.991701 2:-0.478261 4:-0.999023 
1 1:-0.991701 2:-0.565217 4:-0.999218 
1 1:-0.956846 2:-0.913043 4:-0.999414 
1 1:-0.991701 2:-0.913043 4:-0.999218 
1 1:-0.956846 2:-0.73913 4:-0.999023 
1 1:-0.898755 2:-0.73913 3:-1 4:-0.999218 
1 1:-0.804149 2:-1 3:-1 4:-1 
1 1:-0.991701 2:-0.565217 4:-0.999023 
1 1:-0.990041 2:-0.913043 4:-0.999609 
1 1:-0.804149 2:-0.913043 4:-1 
1 1:-0.804149 2:-0.913043 4:-1 
1 1:-0.903734 2:-1 3:-1 4:-0.999609 
1 1:-0.804149 2:-0.913043 4:-1 
1 1:-0.965145 2:-0.913043 4:-1 
1 1:-0.960166 2:-0.826087 4:-0.999023 
1 1:-0.970124 2:-0.913043 4:-1 
1 1:-0.951867 2:-0.913043 4:-1 
1 1:-0.990041 2:-0.565217 3:1 4:-0.999805 
1 1:0.26473 2:-0.130435 4:-0.999805 
1 1:-0.991701 2:-0.913043 4:-0.999218 
1 1:-0.946888 2:-0.913043 4:-0.999218 
1 1:-0.968465 2:-0.73913 4:-0.999609 
1 1:-0.991701 2:-0.913043 4:-0.999609 
1 1:-0.965145 2:-0.652174 3:-1 4:-0.999609 
1 1:-0.804149 2:-0.913043 4:-1 
1 1:-0.804149 2:-0.913043 4:-1 
1 1:-0.946888 2:-0.913043 4:-0.999609 
1 1:-0.960166 2:-0.913043 4:-0.999218 
1 1:-0.858921 2:-0.73913 4:-0.999218 
1 1:-0.858921 2:-0.565217 4:-0.998436 
1 1:-0.93195 2:-0.73913 3:-0.5 4:-0.999609 
1 1:-0.93195 2:-0.652174 4:-0.999609 
1 1:-0.93195 2:-0.391304 4:-0.999609 
1 1:-0.93195 2:-0.391304 4:-0.999609 
1 1:-0.93195 2:-0.652174 4:-0.999609 
1 1:-0.93195 2:-0.652174 4:-0.999609 
1 1:-0.93195 2:-0.652174 4:-0.999609 
1 1:-0.93195 2:-0.652174 4:-0.999609 
1 1:-0.93195 2:-0.652174 4:-0.999609 
1 1:-0.975104 2:-0.652174 3:-1 4:-0.999609 
-1 1:-0.971784 2:-0.565217 4:-0.999609 
-1 1:-0.983402 2:-0.913043 4:-1 
-1 1:-0.936929 2:-0.913043 4:-1 
-1 1:-0.956846 2:-0.73913 4:-0.999414 
-1 1:-0.988382 2:-0.73913 4:-0.999609 
-1 1:-0.583402 2:-0.565217 4:-0.999609 
-1 1:-0.956846 2:-0.73913 4:-0.999609 
-1 1:-0.956846 2:-0.73913 4:-0.999609 
-1 1:-0.975104 2:-0.217391 4:-0.999414 
-1 1:-0.978423 2:-0.913043 4:-0.999218 
-1 1:-0.980083 2:-0.913043 4:-0.999414 
-1 1:-0.975104 2:-0.73913 4:-0.999609 
-1 1:-0.897095 2:-0.217391 4:-0.999609 
-1 1:-0.991701 2:-0.478261 4:-0.999609 
-1 1:-0.966805 2:-0.73913 4:-0.999609 
-1 1:-0.956846 2:-0.73913 4:-0.999609 
-1 1:-0.93029 2:-0.73913 4:-0.999414 
-1 1:-0.966805 2:-0.73913 4:-0.999609 
-1 1:-1 2:-0.73913 4:-0.999609 
-1 1:-0.956846 2:-0.130435 3:1 4:-0.999218 
-1 1:-0.980083 2:-0.913043 4:-0.999414 
-1 1:-0.961826 2:-0.913043 4:-0.999805 
-1 1:-0.897095 2:-0.73913 4:-0.999218 
-1 1:-0.956846 2:-0.73913 4:-0.999609 
-1 1:-0.956846 2:-0.73913 4:-0.999609 
-1 1:-0.956846 2:-0.73913 4:-0.999609 
-1 1:-0.956846 2:-0.73913 4:-0.999609 
-1 1:-0.971784 2:-0.565217 4:-0.999609 
-1 1:-0.956846 2:-0.73913 4:-0.999609 
-1 1:-0.956846 2:-0.73913 4:-0.999609 
-1 1:-0.956846 2:-0.73913 4:-0.999609 
-1 1:-0.583402 2:-0.565217 4:-0.999609 
-1 1:-0.995021 2:-0.73913 4:-0.999218 
-1 1:-0.988382 2:-0.73913 4:-0.999609 
-1 1:-0.956846 2:-0.73913 4:-0.999609 
-1 1:-0.966805 2:-0.73913 4:-0.999609 
-1 1:-0.956846 2:-0.913043 4:-0.999218 
-1 1:-0.966805 2:-0.73913 4:-0.999805 
-1 1:-0.961826 2:-0.913043 4:-0.999609 
-1 1:-0.961826 2:-0.913043 4:-0.999609 
-1 1:-0.583402 2:-0.73913 4:-0.999609 
-1 1:-0.956846 2:-0.73913 4:-0.999414 
-1 1:-0.956846 2:-0.73913 4:-0.999609 
-1 1:-0.968465 2:-0.652174 3:-1 4:-0.999609 
-1 1:-0.993361 2:-0.565217 4:-0.999023 
-1 1:-0.961826 2:-0.913043 4:-0.999609 
-1 1:-0.968465 2:-0.652174 3:-1 4:-0.999609 
-1 1:-0.956846 2:-0.913043 4:-0.999218 
-1 1:-0.991701 2:-0.913043 4:-0.999609 
-1 1:-0.956846 2:-0.73913 4:-0.999609 
-1 1:-0.829046 2:-0.73913 4:-0.999609 
-1 1:-0.956846 2:-0.73913 3:1 4:-0.999023 
-1 1:-0.978423 2:-0.565217 4:-0.999218 
-1 1:-0.980083 2:-0.565217 3:-1 4:-0.999218 
-1 1:-0.991701 2:-0.913043 4:-0.999609 
-1 1:-0.968465 2:-0.73913 4:-0.999609 
-1 1:-0.990041 2:-0.391304 4:-0.999609 
-1 1:-0.995021 2:-0.73913 3:1 4:-0.999023 
-1 1:-0.991701 2:-0.478261 4:-0.999609 
-1 1:-0.956846 2:-0.73913 4:-0.999609 
-1 1:-0.804149 2:0.0434783 4:-0.999609 
-1 1:-0.975104 2:-0.913043 4:-0.999023 
-1 1:-0.991701 2:-0.913043 4:-0.999609 
-1 1:-0.991701 2:-0.913043 4:-0.999609 
-1 1:-0.993361 2:-0.913043 4:-0.999609 
-1 1:-0.968465 2:-0.73913 4:-0.999414 
-1 1:-0.93361 2:-0.73913 4:-0.999414 
-1 1:-0.948548 2:-0.478261 4:-0.999218 
-1 1:-0.804149 2:-0.73913 4:-0.999609 
-1 1:-0.804149 2:-0.73913 4:-0.999609 
-1 1:-0.991701 2:-0.478261 4:-0.999609 
-1 1:-0.991701 2:-0.913043 4:-0.999609 
-1 1:-0.983402 2:-0.913043 4:-1 
-1 1:-0.966805 2:-0.73913 4:-0.999609 
-1 1:-0.829046 2:-0.913043 4:-0.999609 
-1 1:-0.946888 2:-0.304348 4:-0.999414 
-1 1:-0.804149 2:-0.73913 4:-0.999609 
-1 1:-0.804149 2:-0.913043 4:-0.999609 
-1 1:-0.948548 2:-0.73913 4:-0.999609 
-1 1:-0.991701 2:-0.913043 4:-0.999609 
-1 1:-0.961826 2:-0.913043 4:-0.999609 
-1 1:-0.966805 2:-0.73913 4:-0.999609 
-1 1:-0.956846 2:-0.73913 4:-0.999609 
-1 1:-0.961826 2:-0.913043 4:-0.999609 
-1 1:-0.961826 2:-0.913043 4:-0.999609 
-1 1:-0.956846 2:-0.73913 4:-0.999414 
-1 1:-0.940249 2:-0.73913 4:-0.999609 
-1 1:-0.898755 2:-0.913043 3:-0.96875 4:-0.999609 
-1 1:-0.804149 2:-0.73913 4:-0.999218 
-1 1:-0.961826 2:-0.913043 4:-0.999218 
-1 1:-0.898755 2:-0.913043 3:-0.96875 4:-0.999218 
-1 1:-0.898755 2:-0.913043 3:-0.96875 4:-0.999218 
-1 1:-0.976763 2:-0.565217 4:-0.999609 
-1 1:-0.898755 2:-0.913043 3:-0.96875 4:-0.999218 
-1 1:-0.970124 2:-0.565217 4:-0.999609 
-1 1:-0.898755 2:-0.913043 3:-0.96875 4:-0.999609 
-1 1:-0.956846 2:-0.913043 4:-0.999414 
-1 1:-0.99668 2:-0.652174 3:1 4:-0.998241 
-1 1:-0.991701 2:-0.913043 4:-0.999609 
-1 1:-0.99668 2:-0.913043 3:-1 4:-0.999218 
-1 1:-0.898755 2:-0.913043 3:-0.96875 4:-0.999609 
-1 1:-0.99668 2:-0.913043 3:-1 4:-0.999218 
-1 1:-0.961826 2:-0.913043 4:-0.999609 
-1 1:-0.93195 2:-0.73913 4:-0.999609 
-1 1:-0.93195 2:-0.565217 4:-0.999414 
-1 1:-0.956846 2:-0.73913 4:-0.999023 
-1 1:-0.985062 2:-0.565217 4:-0.999218 
-1 1:-0.986722 2:-0.913043 4:-0.998632 
-1 1:-0.898755 2:-0.73913 3:-1 4:-0.999218 
-1 1:-0.991701 2:-0.73913 3:1 4:-0.999023 
-1 1:-0.966805 2:-0.73913 4:-0.999609 
-1 1:-0.925311 2:-0.478261 3:1 4:-0.997459 
-1 1:-0.948548 2:-0.73913 4:-0.999609 
-1 1:-0.583402 2:-0.73913 4:-0.999609 
-1 1:-0.956846 2:-0.73913 4:-0.999609 
-1 1:-0.961826 2:-0.913043 4:-0.999609 
-1 1:-0.956846 2:-0.73913 4:-0.999609 
-1 1:-0.991701 2:-0.391304 4:-0.999414 
-1 1:-0.897095 2:-0.217391 4:-0.999609 
-1 1:-0.99668 2:-0.652174 3:1 4:-0.998241 
-1 1:-0.953527 2:-0.73913 4:-0.999609 
-1 1:-0.956846 2:-0.73913 4:-0.999609 
-1 1:-0.961826 2:-0.913043 4:-0.999609 
-1 1:-0.956846 2:-0.73913 4:-0.999609 
-1 1:-0.965145 2:-0.565217 4:-0.999414 
-1 1:-0.956846 2:-0.73913 4:-0.999609 
-1 1:-0.955187 2:-0.73913 4:-0.999218 
-1 1:-0.968465 2:-0.565217 3:1 4:-0.999023 
-1 1:-0.990041 2:-0.652174 4:-0.999609 
-1 1:-0.991701 2:-0.565217 4:-0.999609 
-1 1:-0.995021 2:-0.391304 4:-0.999609 
-1 1:-0.913693 2:-0.913043 4:-0.999805 
-1 1:-0.913693 2:-1 3:-1 4:-0.999805 
-1 1:-0.955187 2:-0.565217 4:-0.999609 
-1 1:-0.976763 2:-0.913043 4:-1 
-1 1:-0.993361 2:-0.73913 3:1 4:-0.999023 
-1 1:-0.839004 2:-0.652174 3:-1 4:-0.999609 
-1 1:-0.991701 2:-0.73913 3:1 4:-0.999023 
-1 1:-0.961826 2:-0.73913 3:1 4:-0.999218 
-1 1:-0.991701 2:-0.73913 3:1 4:-0.999023 
-1 1:-0.898755 2:-0.913043 3:-0.96875 4:-0.999414 
-1 1:-0.898755 2:-0.913043 3:-0.96875 4:-0.999414 
-1 1:-0.898755 2:-0.913043 3:-0.96875 4:-0.999414 
-1 1:-0.956846 2:-0.73913 3:1 4:-0.999023 
-1 1:-0.961826 2:-0.913043 4:-0.999609 
-1 1:-0.995021 2:-0.565217 3:1 4:-0.999023 
-1 1:-0.966805 2:-0.652174 3:1 4:-0.998632 
-1 1:-0.990041 2:-0.652174 3:-1 4:-0.999609 
-1 1:-0.965145 2:-0.652174 3:-1 4:-0.999609 
-1 1:-0.961826 2:-0.913043 4:-0.999609 
-1 1:-0.965145 2:-0.652174 3:-1 4:-0.999609 
-1 1:-0.991701 2:-0.73913 3:1 4:-0.999023 
-1 1:-0.956846 2:-0.73913 3:1 4:-0.999023 
-1 1:-0.958506 2:-0.565217 3:1 4:-0.999023 
-1 1:-0.961826 2:-0.73913 3:1 4:-0.999023 
-1 1:-0.583402 2:-0.913043 3:1 4:-0.999805 
-1 1:-0.958506 2:-0.913043 4:-0.999609 
-1 1:-0.93029 2:-0.73913 3:1 4:-0.999023 
-1 1:-0.961826 2:-0.913043 4:-0.999609 
-1 1:-0.991701 2:-0.913043 4:-0.999609 
-1 1:-0.991701 2:-0.73913 3:1 4:-0.999023 
-1 1:-0.965145 2:-0.73913 3:1 4:-0.999023 
-1 1:-0.956846 2:-0.73913 3:1 4:-0.999023 
-1 1:-0.995021 2:-0.73913 3:1 4:-0.999023 
-1 1:-0.961826 2:-0.913043 4:-0.999609 
-1 1:-0.961826 2:-0.913043 4:-0.999609 
-1 1:-0.991701 2:-0.391304 4:-0.999609 
-1 1:-0.956846 2:-0.73913 3:1 4:-0.999023 
-1 1:-0.956846 2:-0.73913 3:1 4:-0.999023 
-1 1:-0.968465 2:-0.565217 3:1 4:-0.999023 
-1 1:-0.858921 2:-0.73913 3:1 4:-0.999023 
-1 1:-0.958506 2:-0.913043 4:-0.999609 
-1 1:-0.961826 2:-0.73913 3:1 4:-0.999023 
-1 1:-0.991701 2:-0.73913 3:1 4:-0.999023 
-1 1:-0.991701 2:-0.73913 3:1 4:-0.999023 
-1 1:-0.910373 2:-0.913043 3:1 4:-0.999805 
-1 1:-0.965145 2:-0.652174 3:-1 4:-0.999609 
-1 1:-0.965145 2:-0.652174 3:-1 4:-0.999609 
-1 1:-0.993361 2:-0.565217 4:-0.999023 
-1 1:-0.918672 2:-0.565217 3:1 4:-0.999023 
-1 1:-0.958506 2:-0.913043 4:-0.999609 
-1 1:-0.985062 2:-0.565217 4:-0.999218 
-1 1:-0.995021 2:-0.73913 3:1 4:-0.999023 
-1 1:-0.961826 2:-0.913043 4:-0.999609 
-1 1:-0.980083 2:-0.913043 4:-1 
-1 1:-0.860581 2:-0.913043 3:1 4:-0.999805 
-1 1:-0.995021 2:-0.73913 3:1 4:-0.999023 
-1 1:-0.988382 2:-0.913043 3:1 4:-0.999414 
-1 1:-0.858921 2:-0.913043 3:1 4:-0.999609 
-1 1:-0.958506 2:-0.913043 4:-0.999609 
-1 1:-0.955187 2:-0.652174 3:-1 4:-0.999609 
-1 1:-0.955187 2:-0.652174 3:-1 4:-0.999609 
-1 1:-0.995021 2:-0.73913 3:1 4:-0.998827 
-1 1:-0.965145 2:-0.652174 3:-1 4:-0.999609 
-1 1:-0.93195 2:-0.565217 4:-0.999414 
-1 1:-0.961826 2:-0.73913 3:1 4:-0.999023 
-1 1:-0.956846 2:-0.73913 3:1 4:-0.998827 
-1 1:-0.965145 2:-0.391304 3:1 4:-0.999023 
-1 1:-0.958506 2:-0.913043 4:-0.999609 
-1 1:-0.960166 2:0.217391 3:1 4:-0.998827 
-1 1:-0.956846 2:-0.73913 3:1 4:-0.999023 
-1 1:-0.961826 2:-0.913043 4:-0.999218 
-1 1:-0.961826 2:-0.913043 4:-0.999218 
-1 1:-0.956846 2:-0.73913 4:-0.999218 
-1 1:-0.975104 2:-0.652174 3:-1 4:-0.999609 
-1 1:-0.975104 2:-0.652174 3:-1 4:-0.999609 
-1 1:-0.991701 2:-0.73913 3:1 4:-0.999023 
-1 1:-0.956846 2:-0.73913 3:1 4:-0.999023 
-1 1:-0.961826 2:-0.73913 3:1 4:-0.999023 
-1 1:-0.898755 2:-0.913043 3:-0.96875 4:-0.999023 
-1 1:-0.898755 2:-0.913043 3:-0.96875 4:-0.999023 
-1 1:-0.898755 2:-0.913043 3:-0.96875 4:-0.999023 
-1 1:-0.961826 2:-0.913043 4:-0.999609 
-1 1:-0.897095 2:-0.913043 4:-0.999609 
-1 1:-0.961826 2:-0.913043 4:-0.999609 
-1 1:-0.991701 2:-0.913043 4:-0.999609 
-1 1:-0.985062 2:-0.73913 3:-0.5 4:-0.999609 
-1 1:-0.978423 2:-0.652174 3:-1 4:-0.999609 
-1 1:-0.983402 2:-0.652174 4:-0.999609 
-1 1:-0.991701 2:-0.73913 3:1 4:-0.998827 
-1 1:-0.961826 2:-0.913043 4:-0.999609 
-1 1:-0.976763 2:-0.652174 3:1 4:-0.999023 
-1 1:-0.956846 2:-0.73913 3:1 4:-0.999023 
-1 1:-0.961826 2:-0.913043 4:-0.999609 
-1 1:-0.991701 2:-0.913043 4:-0.999609 
-1 1:-0.936929 2:-0.826087 4:-1 
-1 1:-0.983402 2:-0.652174 3:-1 4:-0.999609 
-1 1:-0.995021 2:-0.73913 3:1 4:-0.999023 
-1 1:-0.995021 2:-0.73913 3:1 4:-0.999023 
-1 1:-0.99668 2:-0.73913 3:1 4:-0.999023 
-1 1:-0.956846 2:-0.73913 3:1 4:-0.999023 
-1 1:-0.93029 2:-0.304348 3:1 4:-0.999023 
-1 1:-0.965145 2:-0.73913 3:1 4:-0.999023 
-1 1:-0.991701 2:-0.73913 3:1 4:-0.999023 
-1 1:-0.93195 2:-0.73913 4:-0.999414 
-1 1:-0.956846 2:-0.73913 3:1 4:-0.999023 
-1 1:-0.995021 2:-0.73913 3:1 4:-0.999023 
-1 1:-0.960166 2:-0.73913 3:1 4:-0.999023 
-1 1:-0.961826 2:-0.913043 4:-0.999609 
-1 1:-0.988382 2:-0.478261 4:-0.999218 
-1 1:-0.988382 2:-0.478261 4:-0.999218 
-1 1:-0.988382 2:-0.478261 4:-0.999218 
-1 1:-0.983402 2:-0.652174 4:-0.999609 
-1 1:-0.983402 2:-0.913043 4:-1 
-1 1:-0.93361 2:-0.391304 4:-0.999609 
-1 1:-0.991701 2:-0.913043 4:-0.999609 
-1 1:-0.903734 2:-0.478261 3:1 4:-0.999023 
-1 1:-0.970124 2:-0.73913 4:-0.999609 
-1 1:-0.983402 2:-0.652174 3:-1 4:-0.999609 
-1 1:-0.995021 2:-0.217391 4:-0.999609 
-1 1:-0.804149 2:-0.73913 4:-0.999218 
-1 1:-0.956846 2:-0.913043 4:-0.999609 
-1 1:-0.980083 2:-0.565217 3:-1 4:-0.999609 
-1 1:-0.541909 2:1 4:-0.999609 
-1 1:-0.956846 2:-0.73913 3:1 4:-0.999023 
-1 1:-0.840664 2:-0.217391 4:-0.998436 
-1 1:-0.93195 2:-0.652174 4:-0.999218 
-1 1:-0.995021 2:-0.73913 3:1 4:-0.999023 
-1 1:-0.955187 2:-0.652174 3:1 4:-0.999023 
-1 1:-0.810788 2:-0.826087 4:-1 
-1 1:-0.873859 2:-0.913043 4:-0.999218 
-1 1:-0.900415 2:-0.826087 3:-1 4:-1 
-1 1:-0.900415 2:-0.652174 4:-1 
-1 1:-0.810788 2:-0.826087 4:-1 
-1 1:-0.775934 2:-0.73913 4:-1 
-1 1:-0.873859 2:-0.913043 4:-0.999218 
-1 1:-0.855602 2:-0.652174 4:-1 
-1 1:-0.943568 2:-0.652174 4:-1 
-1 1:-0.775934 2:-0.73913 4:-1 
-1 1:-0.775934 2:-0.73913 4:-1 
-1 1:-0.774274 2:-0.565217 4:-1 
-1 1:-0.774274 2:-0.73913 4:-1 
-1 1:-0.908714 2:-0.652174 4:-1 
-1 1:-0.873859 2:-0.652174 4:-1 
-1 1:-0.613278 2:-0.652174 4:-1 
-1 1:-0.613278 2:-0.652174 4:-1 
-1 1:-0.855602 2:-0.652174 4:-1 
-1 1:-0.975104 2:-0.826087 3:-0.75 4:-1 
-1 1:-0.840664 2:-0.652174 4:-1 
-1 1:-0.775934 2:-0.652174 4:-1 
-1 1:-0.775934 2:-0.73913 4:-1 
-1 1:-0.774274 2:-0.73913 4:-1 
-1 1:-0.613278 2:-0.73913 4:-1 
-1 1:-0.613278 2:-0.565217 4:-1 
-1 1:-0.774274 2:-0.73913 4:-1 
-1 1:-0.775934 2:-0.73913 4:-1 
-1 1:-0.775934 2:-0.73913 4:-1 
-1 1:-0.676349 2:-0.217391 3:1 4:-0.999023 
-1 1:-0.817427 2:-0.652174 4:-1 
-1 1:-0.676349 2:-0.478261 3:-1 4:-0.999805 
-1 1:-0.676349 2:-0.130435 3:1 4:-0.999414 
-1 1:-0.676349 2:-0.565217 3:1 4:-0.999805 
-1 1:-0.873859 2:-0.652174 4:-1 
-1 1:-0.817427 2:-0.913043 3:-1 4:-1 
-1 1:-0.951867 2:-0.73913 3:1 4:-1 
-1 1:-0.805809 2:-0.565217 3:1 4:-0.999805 
-1 1:-0.613278 2:-0.652174 4:-1 
-1 1:-0.613278 2:-0.652174 4:-1 
-1 1:-0.86556 2:-0.652174 4:-1 
-1 1:-0.86556 2:-0.652174 4:-1 
-1 1:-0.857261 2:-0.652174 4:-1 
-1 1:-0.86888 2:-0.652174 4:-1 
-1 1:-0.775934 2:-0.652174 4:-1 
-1 1:-0.775934 2:-0.652174 4:-1 
-1 1:-0.817427 2:-0.652174 4:-1 
-1 1:-0.810788 2:-0.826087 4:-1 
-1 1:-0.817427 2:-0.652174 4:-1 
-1 1:-0.855602 2:-0.73913 3:-1 4:-1 
-1 1:-0.873859 2:-0.826087 4:-0.999023 
-1 1:-0.810788 2:-0.826087 4:-1 
-1 1:-0.893776 2:-0.391304 4:-1 
-1 1:-0.898755 2:-0.652174 4:-1 
-1 1:-0.873859 2:-0.652174 4:-1 
-1 1:-0.873859 2:-0.913043 3:1 4:-0.998827 
-1 1:-0.80083 2:-0.73913 4:-1 
-1 1:-0.80083 2:-0.652174 4:-1 
-1 1:-0.943568 2:-0.652174 4:-1 
-1 1:-0.832365 2:-0.913043 4:-0.999805 
-1 1:-0.902075 2:-0.130435 4:-0.999609 
-1 1:-0.676349 2:0.130435 3:-1 4:-0.999805 
-1 1:-0.946888 2:-0.652174 4:-1 
-1 1:-0.913693 2:-0.73913 3:1 4:-0.999023 
-1 1:-0.853942 2:-0.73913 3:1 4:-0.998827 
-1 1:-0.853942 2:-0.913043 3:1 4:-0.998827 
-1 1:-0.853942 2:-0.73913 3:1 4:-0.999023 
-1 1:-0.943568 2:-0.565217 4:-0.999805 
-1 1:-0.843983 2:-0.565217 4:-0.998046 
-1 1:-0.908714 2:-0.73913 3:1 4:-0.999218 
-1 1:-0.80083 2:-0.73913 4:-1 
-1 1:-0.613278 2:-0.130435 4:-1 
-1 1:-0.946888 2:-0.73913 3:1 4:-0.999609 
-1 1:-0.80083 2:-0.73913 4:-1 
-1 1:-0.926971 2:-0.826087 4:-0.998436 
-1 1:-0.843983 2:-0.565217 4:-0.998241 
-1 1:-0.843983 2:-0.73913 4:-0.998046 
-1 1:-0.843983 2:-0.913043 4:-0.998046 
-1 1:-0.843983 2:-0.565217 4:-0.998046 
-1 1:-0.843983 2:-0.565217 4:-0.998046 
-1 1:-0.926971 2:-0.73913 4:-0.998436 
-1 1:-0.973444 2:-0.826087 4:-0.999609 
-1 1:-0.774274 2:-0.652174 4:-1 
-1 1:-0.908714 2:-0.73913 3:1 4:-0.999218 
-1 1:-0.908714 2:-0.565217 3:1 4:-0.999023 
-1 1:-0.817427 2:-0.913043 3:-1 4:-1 
-1 1:-0.817427 2:-0.826087 3:-0.75 4:-1 
-1 1:-0.636515 2:-0.73913 3:-1 4:-1 
-1 1:-0.636515 2:-0.913043 3:-1 4:-1 
-1 1:-0.40249 2:-0.913043 3:-1 4:-1 
-1 1:-0.832365 2:-0.73913 4:-0.999805 
-1 1:-0.832365 2:-0.826087 4:-1 
-1 1:-0.832365 2:-0.826087 4:-1 
-1 1:-0.843983 2:-0.73913 4:-0.998436 
-1 1:-0.843983 2:-0.913043 4:-0.998046 
-1 1:-0.86556 2:-0.652174 4:-1 
-1 1:-0.857261 2:-0.652174 4:-1 
-1 1:-0.86556 2:-0.652174 4:-1 
-1 1:-0.86888 2:-0.652174 4:-1 
-1 1:-0.963485 2:-0.73913 3:-1 4:-1 
-1 1:-0.795851 2:-0.913043 3:1 4:-0.999609 
-1 1:-0.925311 2:-0.304348 4:-1 
-1 1:-0.807469 2:-0.826087 4:-1 
-1 1:-0.817427 2:-0.652174 4:-1 
-1 1:-0.80083 2:-0.73913 4:-1 
-1 1:-0.925311 2:-0.304348 4:-1 
-1 1:-0.925311 2:-0.304348 4:-1 
-1 1:-0.913693 2:-0.73913 3:1 4:-0.999218 
-1 1:-0.860581 2:-0.826087 4:-0.999609 
-1 1:-0.80083 2:-0.73913 4:-1 
-1 1:-0.807469 2:-0.826087 4:-0.999414 
-1 1:-0.948548 2:-0.913043 3:1 4:-0.999805 
-1 1:-0.913693 2:-0.565217 3:1 4:-0.999218 
-1 1:-0.832365 2:-0.826087 4:-1 
-1 1:-0.832365 2:-0.73913 4:-1 
-1 1:-0.775934 2:-0.652174 4:-1 
-1 1:-0.807469 2:-0.565217 4:-0.999805 
-1 1:-0.902075 2:-0.130435 4:-0.999609 
-1 1:-0.873859 2:-1 3:-1 4:-0.999218 
-1 1:-0.855602 2:-0.652174 4:-1 
-1 1:-0.807469 2:-0.913043 3:1 4:-0.999609 
-1 1:-0.807469 2:-0.826087 4:-0.999805 
-1 1:-0.807469 2:-0.826087 4:-0.999805 
-1 1:-0.807469 2:-0.391304 4:-1 
-1 1:-0.807469 2:-0.826087 4:-0.999805 
-1 1:-0.807469 2:-0.391304 4:-1 
-1 1:-0.807469 2:-0.826087 4:-0.999805 
-1 1:-0.807469 2:-0.73913 3:1 4:-0.999218 
-1 1:-0.860581 2:-0.565217 3:1 4:-0.999609 
-1 1:-0.860581 2:-0.565217 3:1 4:-0.999609 
-1 1:-0.908714 2:-0.652174 4:-1 
-1 1:-0.832365 2:-0.652174 4:-1 
-1 1:-0.832365 2:-0.73913 3:-1 4:-1 
-1 1:-0.908714 2:-0.652174 4:-1 
-1 1:-0.948548 2:-0.73913 3:1 4:-0.999805 
-1 1:-0.805809 2:-0.913043 3:1 4:-0.999609 
-1 1:-0.775934 2:-0.652174 4:-1 
-1 1:-0.558506 2:-0.652174 4:-1 
-1 1:-0.810788 2:-0.73913 4:-0.899932 
-1 1:-0.908714 2:-0.652174 4:-1 
-1 1:-0.908714 2:-0.652174 4:-1 
-1 1:-0.908714 2:-0.652174 4:-1 
-1 1:-0.888797 2:-0.478261 4:-1 
-1 1:-0.888797 2:-0.826087 4:-1 
-1 1:-0.908714 2:-0.652174 4:-1 
-1 1:-0.40249 2:-0.73913 3:-1 4:-1 
-1 1:-0.819087 2:-0.652174 4:-1 
-1 1:-0.908714 2:-0.652174 4:-1 
-1 1:-0.819087 2:-0.652174 4:-1 
-1 1:-0.908714 2:-0.652174 4:-1 
-1 1:-0.902075 2:-0.826087 4:-1 
-1 1:-0.948548 2:-0.73913 4:-1 
-1 1:-0.870539 2:-0.826087 4:-1 
-1 1:-0.870539 2:-0.73913 3:-1 4:-1 
-1 1:-0.775934 2:-0.652174 4:-1 
-1 1:-0.902075 2:-0.826087 4:-1 
-1 1:-0.870539 2:-0.652174 4:-1 
-1 1:-0.832365 2:-0.652174 4:-1 
-1 1:-0.902075 2:-0.826087 4:-1 
-1 1:-0.948548 2:-0.73913 4:-1 
-1 1:-0.948548 2:-0.73913 4:-1 
-1 1:-0.845643 2:-0.826087 4:-1 
-1 1:-0.845643 2:-0.73913 3:-1 4:-1 
-1 1:-0.970124 2:-0.73913 4:-1 
-1 1:-0.948548 2:-0.73913 4:-1 
-1 1:-0.902075 2:-0.826087 4:-1 
-1 1:-0.845643 2:-0.826087 4:-1 
-1 1:-0.845643 2:-0.826087 4:-1 
-1 1:-0.845643 2:-0.826087 4:-1 
-1 1:-0.908714 2:-0.652174 4:-1 
-1 1:-0.93029 2:-0.652174 4:-1 
-1 1:-0.832365 2:-0.652174 4:-1 
-1 1:-0.948548 2:-0.73913 4:-1 
-1 1:-0.948548 2:-0.73913 4:-1 
-1 1:-0.918672 2:-0.73913 4:-1 
-1 1:-0.902075 2:-0.826087 4:-0.999218 
-1 1:-0.918672 2:-0.73913 4:-1 
-1 1:-0.908714 2:-0.652174 4:-1 
-1 1:-0.819087 2:-0.652174 4:-1 
-1 1:-0.819087 2:-0.652174 4:-1 
-1 1:-0.908714 2:-0.652174 4:-1 
-1 1:-0.819087 2:-0.652174 4:-1 
-1 1:-0.908714 2:-0.652174 4:-1 
-1 1:-0.291286 2:-0.565217 4:-0.999414 
-1 1:-0.291286 2:-0.565217 4:-0.999414 
-1 1:-0.774274 2:-0.652174 4:-1 
-1 1:-0.965145 2:-0.391304 4:-0.999609 
-1 1:-0.819087 2:-0.652174 3:-1 4:-0.999414 
-1 1:-0.372614 2:-0.913043 3:1 4:-0.999609 
-1 1:-0.372614 2:-0.304348 3:1 4:-0.999414 
-1 1:-0.291286 2:-0.565217 4:-0.999414 
-1 1:-0.291286 2:-0.565217 4:-0.999414 
-1 1:-0.291286 2:-0.565217 4:-0.999414 
-1 1:-0.790871 2:-0.73913 3:-0.75 4:-0.999414 
-1 1:-0.291286 2:-0.565217 4:-0.999414 
-1 1:-0.73444 2:-0.391304 4:-0.999414 
-1 1:-0.291286 2:-0.565217 4:-0.999414 
-1 1:-0.980083 2:-0.652174 4:-0.999805 
-1 1:-0.888797 2:-0.826087 4:-1 
-1 1:-0.877178 2:-0.391304 4:-0.999414 
-1 1:-0.790871 2:-0.391304 4:-0.999414 
-1 1:-0.291286 2:-0.565217 4:-0.999414 
-1 1:-0.66971 2:-0.565217 4:-0.999609 
-1 1:-0.372614 2:-0.913043 3:1 4:-0.999609 
-1 1:-0.634855 2:-0.391304 4:-0.999414 
-1 1:-0.902075 2:-0.73913 4:-0.999805 
-1 1:-0.634855 2:-0.652174 4:-1 
-1 1:-0.634855 2:-0.652174 4:-1 
-1 1:-0.634855 2:-0.652174 4:-1 
-1 1:-0.634855 2:-0.652174 4:-1 
-1 1:-0.93195 2:-0.826087 4:-0.999218 
-1 1:-0.291286 2:-0.73913 3:1 4:-0.999218 
-1 1:-0.634855 2:-0.73913 3:1 4:-0.999218 
-1 1:-0.634855 2:-0.565217 3:1 4:-0.999218 
-1 1:-0.696266 2:-0.565217 4:-0.999805 
-1 1:-0.291286 2:-0.73913 3:1 4:-0.999218 
-1 1:-0.951867 2:-0.652174 4:-1 
-1 1:-0.696266 2:-0.913043 4:-1 
-1 1:-0.696266 2:-0.913043 4:-1 
-1 1:-0.696266 2:-0.565217 4:-0.999805 
-1 1:-0.696266 2:-0.913043 4:-1 
-1 1:-0.696266 2:-0.913043 4:-1 
-1 1:-0.696266 2:-0.913043 4:-1 
-1 1:-0.877178 2:-0.73913 3:1 4:-0.999218 
-1 1:-0.73444 2:-0.565217 3:1 4:-0.999218 
-1 1:-0.696266 2:-0.913043 4:-1 
-1 1:-0.696266 2:-0.913043 4:-1 
-1 1:-0.696266 2:-0.304348 4:-0.999805 
-1 1:-0.696266 2:-0.565217 4:-0.999805 
-1 1:-0.696266 2:-0.913043 4:-1 
-1 1:-0.634855 2:-0.652174 4:-1 
-1 1:-0.696266 2:-0.565217 4:-0.999805 
-1 1:-0.912033 2:-0.391304 4:-0.999805 
-1 1:-0.696266 2:-0.304348 4:-0.999805 
-1 1:-0.790871 2:-0.565217 3:-1 4:-0.999609 
-1 1:-0.73444 2:-0.73913 3:-0.75 4:-0.999414 
-1 1:-0.912033 2:-0.391304 4:-0.999805 
-1 1:1 2:-0.826087 4:-0.999609 
-1 1:-0.696266 2:-0.565217 4:-0.999805 
-1 1:-0.887137 2:-0.913043 4:-0.999218 
-1 1:-0.887137 2:-0.913043 4:-0.999218 
-1 1:-0.634855 2:-0.391304 3:-1 4:-0.999414 
-1 1:-0.73444 2:-0.652174 4:-1 
-1 1:-0.73444 2:-0.652174 4:-1 
-1 1:-0.73444 2:-0.652174 4:-1 
-1 1:-0.73444 2:-0.652174 4:-1 
-1 1:-0.903734 2:-0.913043 4:-0.999414 
-1 1:-0.912033 2:-0.391304 4:-0.999414 
-1 1:-0.696266 2:-0.565217 4:-0.999805 
-1 1:-0.887137 2:-0.913043 4:-0.999218 
-1 1:-0.626556 2:-0.391304 4:-0.999414 
-1 1:-0.73444 2:-0.652174 4:-1 
-1 1:-0.372614 2:-0.565217 3:1 4:-0.999414 
-1 1:-0.917012 2:-0.73913 4:-1 
-1 1:1 2:-0.826087 4:-0.999609 
-1 1:1 2:-0.826087 4:-0.999609 
-1 1:-0.696266 2:-0.913043 4:-0.999218 
-1 1:-0.912033 2:-0.391304 4:-0.999414 
-1 1:1 2:-0.913043 3:-1 4:-0.999609 
-1 1:1 2:-0.913043 4:-0.999023 
-1 1:-0.291286 2:-0.913043 4:-1 
-1 1:-0.887137 2:-0.913043 4:-0.999218 
-1 1:-0.372614 2:-0.652174 3:1 4:-0.999414 
-1 1:-0.73444 2:-0.391304 3:-1 4:-0.999414 
-1 1:-0.66971 2:-0.913043 4:-0.999218 
-1 1:-0.696266 2:-0.913043 4:-0.999218 
-1 1:-0.902075 2:-0.913043 4:-0.999218 
-1 1:-0.696266 2:-0.913043 4:-0.999023 
-1 1:1 2:-0.826087 4:-0.998827 
-1 1:-0.790871 2:-0.478261 4:-0.999609 
-1 1:-0.910373 2:-0.565217 4:-1 
-1 1:-0.855602 2:-0.652174 4:-1 
-1 1:-0.902075 2:-0.73913 4:-0.999805 
-1 1:-0.832365 2:-0.652174 4:-1 
-1 1:-0.908714 2:-0.652174 4:-1 
-1 1:-0.819087 2:-0.652174 4:-1 
-1 1:-0.870539 2:-0.652174 3:-1 4:-0.996091 
-1 1:-0.870539 2:-0.826087 4:-1 
-1 1:-0.790871 2:-0.304348 3:1 4:-0.999218 
-1 1:-0.774274 2:-0.652174 4:-1 
-1 1:-0.372614 2:-0.73913 3:1 4:-0.999218 
-1 1:-0.913693 2:-0.217391 3:1 4:-0.999023 
-1 1:-0.73444 2:-0.391304 4:-0.999414 
-1 1:-0.626556 2:-0.391304 4:-0.999414 
-1 1:-0.819087 2:-0.652174 4:-1 
-1 1:-0.903734 2:-0.913043 4:-0.999805 
-1 1:-0.93195 2:-0.652174 4:-0.999609 
-1 1:-0.634855 2:-0.652174 4:-1 
-1 1:-0.372614 2:-0.73913 3:1 4:-0.999218 
-1 1:-0.819087 2:-0.652174 4:-1 
-1 1:-0.93195 2:-0.652174 4:-0.999609 
-1 1:-0.73444 2:-0.565217 3:-1 4:-0.999609 
-1 1:1 2:-0.565217 4:-0.999805 
-1 1:-0.888797 2:-0.478261 4:-1 
-1 1:-0.626556 2:-0.565217 3:1 4:-0.999218 
-1 1:-0.917012 2:-0.73913 3:1 4:-0.998827 
-1 1:-0.93361 2:-0.73913 3:1 4:-0.998827 
-1 1:-0.819087 2:-0.652174 4:-1 
-1 1:-0.93195 2:-0.826087 3:-1 4:-0.999218 
-1 1:-0.910373 2:-0.73913 4:-0.999805 
-1 1:-0.819087 2:-0.652174 4:-1 
-1 1:-0.634855 2:-0.652174 4:-1 
-1 1:-0.634855 2:-0.652174 4:-1 
-1 1:-0.372614 2:-0.304348 4:-1 
-1 1:-0.372614 2:-0.826087 4:-0.999609 
-1 1:-0.372614 2:-0.826087 4:-0.999609 
-1 1:-0.774274 2:-0.652174 3:-0.75 4:-1 
-1 1:-0.840664 2:-0.565217 4:-1 
1 1:-0.73444 2:-0.652174 4:-1 
1 1:-0.860581 2:-0.652174 4:-0.999218 
1 1:-0.372614 2:-0.826087 4:-0.999609 
1 1:-0.372614 2:-0.826087 4:-0.999609 
1 1:-0.790871 2:-0.130435 3:1 4:-0.999023 
1 1:-0.858921 2:-0.478261 4:-1 
1 1:-0.372614 2:-0.826087 4:-0.999609 
1 1:-0.372614 2:-0.826087 4:-0.999414 
1 1:-0.372614 2:-0.826087 4:-0.999609 
1 1:-0.372614 2:-0.826087 4:-0.999609 
1 1:-0.372614 2:-0.826087 4:-0.999609 
1 1:-0.372614 2:-0.826087 4:-0.999609 
1 1:-0.372614 2:-0.826087 4:-0.999414 
1 1:-0.372614 2:-0.826087 4:-0.999414 
1 1:-0.372614 2:-0.652174 4:-1 
1 1:-0.372614 2:-0.826087 4:-0.999023 
1 1:-0.372614 2:-0.826087 4:-0.999805 
1 1:-0.372614 2:-0.826087 4:-0.999023 
1 1:-0.372614 2:-0.652174 4:-0.999023 
1 1:-0.372614 2:-0.73913 4:-0.999414 
1 1:-0.372614 2:-0.652174 4:-1 
1 1:-0.908714 2:-0.73913 3:1 4:-0.999218 
1 1:-0.372614 2:-0.826087 4:-0.999609 
1 1:-0.93029 2:-0.652174 4:-1 
1 1:-0.372614 2:-0.913043 3:-1 4:-0.999609 
1 1:-0.888797 2:-0.826087 4:-1 
1 1:-0.634855 2:-0.652174 4:-1 
1 1:-0.372614 2:-0.826087 4:-0.999805 
1 1:-0.372614 2:-0.826087 4:-0.999805 
1 1:-0.372614 2:-0.826087 4:-0.999414 
1 1:-0.372614 2:-0.826087 4:-0.999414 
1 1:-0.372614 2:-0.826087 4:-0.999805 
1 1:-0.372614 2:-0.391304 4:-1 
1 1:-0.558506 2:-0.652174 4:-1 
1 1:-0.840664 2:-0.565217 4:-1 
1 1:-0.372614 2:-0.478261 4:-0.999609 
1 1:-0.372614 2:-0.826087 4:-0.999609 
1 1:-0.372614 2:-0.826087 4:-0.999609 
1 1:-0.66971 2:-0.652174 4:-0.999609 
1 1:-0.634855 2:-0.652174 4:-1 
1 1:-0.372614 2:-0.826087 4:-0.999218 
1 1:-0.634855 2:-0.652174 4:-1 
1 1:-0.372614 2:-0.826087 4:-0.999609 
1 1:-0.372614 2:-0.913043 4:-0.999805 
1 1:-0.372614 2:-0.913043 4:-0.999805 
1 1:-0.372614 2:-0.826087 4:-0.999609 
1 1:-0.634855 2:-0.304348 3:1 4:-0.999218 
1 1:-0.372614 2:-0.913043 4:-0.999805 
1 1:-0.73444 2:-0.652174 4:-1 
1 1:-0.93029 2:-0.652174 4:-1 
1 1:-0.372614 2:-0.304348 4:-1 
1 1:1 2:-0.913043 4:-0.999023 
1 1:-0.372614 2:-0.478261 4:-0.999414 
1 1:1 2:-0.913043 4:-0.999218 
1 1:-0.86556 2:-0.826087 4:-1 
1 1:-0.956846 2:-0.478261 4:-1 
1 1:-0.339419 2:-0.565217 4:-0.999414 
1 1:-0.339419 2:-0.565217 4:-0.999414 
1 1:-0.339419 2:-0.826087 4:-0.999609 
1 1:-0.93029 2:-0.478261 4:-0.999609 
1 1:-0.339419 2:-0.565217 4:-0.999414 
1 1:-0.339419 2:-0.565217 4:-0.999414 
1 1:-0.339419 2:-0.652174 4:-0.999609 
1 1:-0.339419 2:-0.652174 4:-0.999609 
1 1:-0.626556 2:-0.652174 4:-1 
1 1:-0.790871 2:-0.217391 3:1 4:-0.999218 
1 1:-0.339419 2:-0.565217 4:-0.999218 
1 1:-0.339419 2:-0.652174 3:1 4:-0.999414 
1 1:1 2:-0.913043 4:-0.999218 
1 1:-0.372614 2:-0.913043 4:-0.999805 
1 1:-0.93029 2:-0.652174 4:-1 
1 1:-0.503734 2:-0.391304 4:-0.996677 
1 1:-0.857261 2:-0.826087 4:-1 
1 1:-0.86556 2:-0.826087 4:-1 
1 1:-0.855602 2:-0.652174 4:-1 
1 1:-0.93029 2:-0.391304 4:-0.999609 
1 1:-0.339419 2:-0.478261 4:-0.999609 
1 1:-0.805809 2:-0.565217 3:1 4:-0.999414 
1 1:-0.805809 2:-0.73913 3:1 4:-0.999609 
1 1:-0.956846 2:-0.73913 3:1 4:-0.998436 
1 1:-0.956846 2:-0.73913 3:1 4:-0.998436 
1 1:-0.339419 2:-0.73913 4:-0.999218 
1 1:-0.339419 2:-0.217391 3:1 4:-0.999023 
1 1:-0.968465 2:-0.913043 3:1 4:-0.999609 
1 1:-0.855602 2:-0.652174 4:-1 
1 1:-0.855602 2:-0.652174 4:-1 
1 1:-0.86888 2:-0.913043 4:-0.999414 
1 1:-0.86888 2:-0.565217 4:-0.996091 
1 1:-0.86888 2:-0.913043 4:-1 
1 1:-0.86888 2:-0.913043 4:-0.999414 
1 1:-0.86888 2:-0.913043 4:-0.999414 
1 1:-0.86888 2:-0.913043 4:-0.999414 
1 1:-0.339419 2:-0.913043 3:1 4:-0.999023 
1 1:-0.843983 2:-0.478261 4:-0.998436 
1 1:-0.855602 2:-0.652174 4:-1 
1 1:-0.840664 2:-0.73913 4:-1 
1 1:-0.840664 2:-0.913043 4:-0.999414 
1 1:-0.855602 2:-0.652174 4:-1 
1 1:-0.926971 2:-0.73913 4:-0.999609 
1 1:-0.925311 2:-0.73913 3:1 4:-0.999609 
1 1:-0.926971 2:-0.565217 4:-0.999609 
1 1:-0.392531 2:-0.913043 4:-0.998046 
1 1:-0.888797 2:-0.73913 4:-0.998046 
1 1:-0.392531 2:-0.304348 4:-0.998046 
1 1:-0.53029 2:-0.391304 3:1 4:-0.999414 
1 1:-0.53029 2:-0.130435 4:-1 
1 1:-0.53029 2:-0.913043 3:1 4:-0.999609 
1 1:-0.843983 2:-0.913043 3:1 4:-0.999609 
1 1:-0.843983 2:-0.913043 3:1 4:-0.999609 
1 1:-0.840664 2:-0.304348 4:-1 
1 1:-0.843983 2:-0.73913 3:1 4:-0.999609 
1 1:-0.888797 2:-0.73913 4:0.985928 
1 1:-0.888797 2:0.217391 4:-0.998046 
1 1:-0.888797 2:-0.73913 4:0.985537 
1 1:-0.392531 2:-0.652174 4:-0.998046 
1 1:-0.392531 2:-0.652174 4:-0.998046 
1 1:-0.392531 2:-0.73913 4:-0.998046 
1 1:-0.392531 2:-0.478261 4:-0.998046 
1 1:-0.983402 2:-0.478261 4:-0.998046 
1 1:-0.840664 2:-0.565217 4:-0.993355 
1 1:-0.556846 2:-0.652174 4:-1 
1 1:-0.508714 2:-0.913043 4:-0.998046 
1 1:-0.392531 2:-0.652174 4:-0.998046 
1 1:-0.392531 2:-0.391304 4:-0.998046 
1 1:-0.392531 2:-0.913043 4:-0.998046 
1 1:-0.86888 2:-0.652174 4:-1 
1 1:-0.53029 2:-0.913043 3:1 4:-0.999414 
1 1:-0.888797 2:-0.73913 4:1 
1 1:-0.392531 2:-0.217391 4:-0.997068 
1 1:-0.392531 2:0.478261 4:-0.99785 
1 1:-0.392531 2:-0.304348 4:-0.998046 
1 1:-0.392531 2:-0.391304 4:-0.99785 
1 1:-0.392531 2:-0.913043 4:-0.998046 
1 1:-0.971784 2:-0.565217 4:-0.998046 
1 1:-0.392531 2:-0.304348 4:-0.99785 
1 1:-0.46888 2:-0.391304 4:-0.998046 
1 1:-0.46888 2:-0.73913 4:-0.998046 
1 1:-0.392531 2:-0.304348 4:-0.99785 
1 1:-0.556846 2:-0.652174 4:-1 
1 1:-0.53029 2:-0.826087 4:-1 
1 1:-0.843983 2:-0.913043 3:1 4:-0.999609 
1 1:-0.339419 2:-0.565217 4:-0.999414 
1 1:-0.392531 2:0.478261 4:-0.995309 
1 1:-0.53029 2:-0.652174 3:1 4:-0.999609 
1 1:-0.53029 2:-0.652174 4:-1 
1 1:-0.556846 2:-0.652174 4:-1 
1 1:-0.86556 2:-0.565217 3:1 4:-0.999218 
1 1:-0.339419 2:-0.217391 4:-0.999609 
1 1:-0.895436 2:-0.73913 3:1 4:-0.999609 
1 1:-0.339419 2:-0.565217 4:-0.999218 
1 1:-0.676349 2:-0.73913 3:1 4:-0.998046 
1 1:-0.855602 2:-0.652174 4:-1 
1 1:-0.556846 2:-0.652174 4:-1 
1 1:-0.855602 2:-0.652174 4:-1 
1 1:-0.556846 2:-0.652174 4:-1 
1 1:-0.66971 2:-0.826087 3:-1 4:-0.999609 
1 1:-0.556846 2:-0.652174 4:-1 
1 1:-0.53029 2:-0.652174 4:-1 
1 1:-0.53029 2:-0.913043 3:1 4:-0.999414 
1 1:-0.339419 2:-0.73913 4:-0.999609 
1 1:-0.53029 2:-0.913043 3:1 4:-0.999414 
1 1:-0.556846 2:-0.652174 4:-1 
1 1:-0.855602 2:-0.652174 4:-1 
1 1:-0.53029 2:-0.913043 3:1 4:-0.999414 
1 1:-0.508714 2:-0.652174 4:-0.919085 
1 1:-0.508714 2:-0.652174 4:-0.99785 
1 1:-0.508714 2:-0.913043 4:-0.998046 
1 1:-0.508714 2:-0.73913 4:-0.997655 
1 1:-0.508714 2:-0.478261 4:-0.997068 
1 1:-0.508714 2:-0.478261 4:-0.997264 
1 1:-0.508714 2:-0.73913 4:-0.997459 
1 1:-0.339419 2:-0.130435 4:-0.999609 
1 1:-0.53029 2:-0.913043 3:1 4:-0.999414 
1 1:-0.508714 2:-0.913043 4:-0.998046 
1 1:-0.508714 2:-0.478261 4:-0.996873 
1 1:-0.508714 2:-0.478261 4:-0.997068 
1 1:-0.508714 2:-0.73913 4:-0.997655 
1 1:-0.508714 2:-0.652174 4:-0.997459 
1 1:-0.508714 2:-0.73913 4:-0.997459 
1 1:-0.960166 2:-0.913043 3:-1 4:-0.999023 
1 1:-0.895436 2:-0.913043 4:-0.999414 
1 1:-0.53029 2:-0.913043 3:1 4:-0.999414 
1 1:-0.855602 2:-0.652174 4:-1 
1 1:-0.556846 2:-0.652174 4:-1 
1 1:-0.392531 2:-0.304348 4:-0.995114 
1 1:-0.392531 2:-0.73913 4:-0.270791 
1 1:-0.503734 2:-0.304348 4:-1 
1 1:-0.53029 2:-0.913043 3:1 4:-0.999414 
1 1:-0.53029 2:-0.913043 3:1 4:-0.999414 
1 1:-0.556846 2:-0.73913 3:1 4:-0.999218 
1 1:-0.339419 2:-0.913043 3:1 4:-0.999023 
1 1:-0.626556 2:-0.652174 4:-1 
1 1:-0.53029 2:-0.913043 3:1 4:-0.999414 
1 1:-0.339419 2:-0.73913 4:-0.999218 
1 1:-0.508714 2:-0.652174 4:-0.997459 
1 1:-0.392531 2:-0.304348 4:-0.996287 
1 1:-0.392531 2:-0.73913 4:0.986123 
1 1:-0.86556 2:-0.826087 4:-1 
1 1:-0.614938 2:-0.826087 4:-1 
1 1:-0.614938 2:-0.826087 4:-0.999414 
1 1:-0.614938 2:-0.913043 3:1 4:-0.999414 
1 1:-0.614938 2:-0.913043 3:1 4:-0.999609 
1 1:-0.136929 2:-0.652174 4:-0.999414 
1 1:-0.136929 2:-0.913043 3:1 4:-0.999609 
1 1:-0.508714 2:-0.73913 4:-0.997655 
1 1:-0.614938 2:-0.913043 3:1 4:-0.999609 
1 1:-0.53029 2:-0.913043 3:1 4:-0.999414 
1 1:-0.614938 2:-0.652174 4:-0.999414 
1 1:-0.614938 2:-0.652174 4:-0.999414 
1 1:-0.392531 2:-0.304348 4:0.998241 
1 1:-0.614938 2:-0.913043 3:-1 4:-1 
1 1:-0.53029 2:-0.913043 3:1 4:-0.999414 
1 1:-0.614938 2:-0.913043 3:1 4:-0.999609 
1 1:-0.614938 2:-0.913043 3:1 4:-0.999414 
1 1:-0.614938 2:-0.913043 3:1 4:-0.999609 
1 1:-0.508714 2:-0.652174 4:-0.997655 
1 1:-0.392531 2:-0.304348 4:0.998241 
1 1:-0.508714 2:-0.652174 4:-0.823317 
1 1:-0.339419 2:-0.73913 3:-1 4:-0.999609 
1 1:-0.918672 2:-0.652174 4:-0.999609 
1 1:-0.918672 2:-0.73913 3:1 4:-0.999218 
1 1:-0.840664 2:-0.73913 3:1 4:-0.999023 
1 1:-0.53029 2:-0.913043 3:1 4:-0.999414 
1 1:-0.53029 2:-0.913043 3:1 4:-0.999414 
1 1:-0.965145 2:-0.913043 3:1 4:-0.998827 
1 1:1 2:-0.913043 4:-0.999023 
1 1:-0.93527 2:-0.826087 4:-1 
1 1:-0.966805 2:-0.826087 4:-1 
1 1:-0.855602 2:-0.652174 4:-1 
1 1:-0.926971 2:-0.826087 4:-1 
1 1:-0.926971 2:-0.652174 4:-1 
1 1:-0.614938 2:-0.652174 3:1 4:-0.999609 
1 1:-0.93527 2:-0.73913 3:-0.75 4:-1 
1 1:-0.93527 2:-0.913043 4:-1 
1 1:-0.93527 2:-0.826087 4:-1 
1 1:-0.971784 2:-0.826087 4:-1 
1 1:-0.93527 2:-0.652174 4:-1 
1 1:-0.93527 2:-0.913043 4:-0.999805 
1 1:-0.93527 2:-0.913043 4:-0.999805 
1 1:-0.900415 2:-0.913043 4:-0.999805 
1 1:-0.973444 2:-0.304348 4:-0.999609 
1 1:-0.923651 2:-0.217391 4:-0.999805 
1 1:-0.923651 2:-0.304348 4:-1 
1 1:-0.339419 2:-0.478261 4:-0.999609 
1 1:-0.780913 2:-0.565217 4:-0.999414 
1 1:-0.923651 2:-0.73913 4:-0.999414 
1 1:-0.780913 2:-0.565217 4:-0.999414 
1 1:-0.392531 2:-0.913043 4:-0.999218 
1 1:-0.392531 2:-0.913043 4:-0.999218 
1 1:-0.339419 2:-0.652174 4:-0.999609 
1 1:-0.392531 2:-0.913043 4:-0.999218 
1 1:-0.53029 2:-0.913043 3:1 4:-0.999414 
1 1:-0.780913 2:-0.73913 4:-0.999218 
1 1:-0.53029 2:-0.913043 3:-1 4:-0.999218 
1 1:-0.613278 2:-0.826087 4:-1 
1 1:-0.613278 2:-0.826087 4:-1 
1 1:-0.895436 2:-0.73913 4:-1 
1 1:-0.339419 2:-0.565217 4:-0.999414 
1 1:-0.966805 2:-0.478261 4:-1 
1 1:-0.136929 2:-0.391304 3:1 4:-0.999609 
1 1:-0.339419 2:-0.391304 4:-0.999414 
1 1:-0.626556 2:-0.652174 4:-1 
1 1:-0.855602 2:-0.73913 3:1 4:-0.999609 
1 1:-0.751037 2:-0.652174 4:-0.999609 
1 1:-0.751037 2:-0.652174 4:-0.999609 
1 1:-0.751037 2:-0.913043 3:1 4:-0.998241 
1 1:-0.751037 2:-0.652174 4:-0.999609 
1 1:-0.626556 2:-0.652174 4:-1 
1 1:-0.923651 2:-0.826087 4:-1 
1 1:-0.339419 2:-0.652174 4:-0.999609 
1 1:-0.887137 2:-0.913043 4:-0.999218 
1 1:-0.925311 2:-0.826087 4:-1 
1 1:-0.614938 2:-0.478261 3:1 4:-0.999609 
1 1:-0.855602 2:-0.565217 3:1 4:-0.999609 
1 1:-0.86888 2:-0.913043 4:-0.999414 
1 1:1 2:-0.826087 4:-0.999805 
1 1:-0.840664 2:-0.565217 4:-1 
1 1:-0.780913 2:-0.391304 4:-0.999609 
1 1:-0.880498 2:-0.652174 4:-1 
1 1:-0.751037 2:-0.913043 3:1 4:-0.998241 
1 1:-0.751037 2:-0.0434783 4:-0.999609 
1 1:-0.966805 2:-0.913043 4:-0.998632 
1 1:-0.751037 2:-0.304348 4:-0.999609 
1 1:-0.751037 2:-0.913043 3:-1 4:-0.999609 
1 1:-0.858921 2:-0.73913 3:1 4:-0.999609 
1 1:-0.878838 2:-0.652174 4:-0.999414 
1 1:-0.956846 2:-0.391304 3:1 4:-0.997264 
1 1:-0.887137 2:-0.913043 4:-0.999414 
1 1:-0.751037 2:-0.478261 4:-0.999414 
1 1:-0.775934 2:-0.913043 3:1 4:-0.999414 
1 1:-0.878838 2:-0.478261 4:-0.999414 
1 1:-0.751037 2:-0.652174 4:-0.999609 
1 1:-0.925311 2:-0.652174 4:-1 
1 1:-0.925311 2:-0.652174 4:-1 
1 1:-0.946888 2:-0.73913 4:-0.999414 
1 1:-0.925311 2:-0.652174 4:-1 
1 1:-0.722822 2:-0.565217 4:-1 
1 1:-0.722822 2:-0.565217 4:-1 
1 1:-0.580083 2:-0.478261 3:1 4:-0.997264 
1 1:-0.943568 2:-0.565217 3:-1 4:-0.999414 
1 1:-0.580083 2:-0.391304 4:-1 
1 1:-0.923651 2:-0.652174 4:-1 
1 1:-0.751037 2:-0.652174 4:-0.999609 
1 1:-0.946888 2:-0.478261 4:-0.996873 
1 1:-0.751037 2:-0.0434783 4:-0.999609 
1 1:-0.751037 2:-0.913043 3:-1 4:-0.999609 
1 1:-0.888797 2:-0.913043 3:1 4:-0.999609 
1 1:-0.857261 2:-0.826087 4:-1 
1 1:-0.887137 2:-0.565217 3:1 4:-0.999218 
1 1:-0.580083 2:-0.652174 3:1 4:-0.999609 
1 1:-0.950207 2:-0.913043 4:-0.999414 
1 1:-0.832365 2:-0.73913 3:-1 4:-1 
1 1:-0.832365 2:-0.304348 3:-1 4:-1 
1 1:-0.832365 2:-0.73913 4:-0.999023 
1 1:-0.769295 2:-0.913043 4:-0.999414 
1 1:-0.832365 2:-0.73913 3:-1 4:-1 
1 1:-0.887137 2:-0.73913 4:-0.999218 
1 1:-0.769295 2:-0.913043 4:-0.999414 
1 1:-0.233195 2:-0.73913 3:-0.75 4:-0.999023 
1 1:-0.780913 2:-0.478261 3:1 4:-0.997264 
1 1:-0.233195 2:-0.652174 4:-0.998632 
1 1:-0.233195 2:-0.652174 4:-0.998632 
1 1:-0.233195 2:-0.73913 3:-1 4:-0.999023 
1 1:-0.878838 2:-0.73913 3:1 4:-0.997264 
1 1:-0.926971 2:-0.73913 3:1 4:-0.999609 
1 1:-0.926971 2:-0.73913 3:1 4:-0.999609 
1 1:-0.233195 2:-0.73913 3:1 4:-0.997068 
1 1:-0.233195 2:-0.73913 4:-0.999218 
1 1:-0.926971 2:-0.73913 3:1 4:-0.999609 
1 1:-0.233195 2:-0.73913 4:-0.999218 
1 1:-0.233195 2:-0.73913 3:1 4:-0.999414 
1 1:-0.926971 2:-0.73913 3:1 4:-0.997068 
1 1:-0.233195 2:-0.73913 4:-0.999218 
1 1:-0.93361 2:-0.73913 4:-0.948011 
1 1:-0.66805 2:-0.304348 4:-0.99785 
1 1:-0.233195 2:-0.73913 3:1 4:-0.999414 
1 1:-0.780913 2:-0.217391 3:1 4:-0.999609 
1 1:-0.233195 2:-0.478261 3:1 4:-0.997068 
1 1:-0.887137 2:-0.73913 3:-1 4:-0.998241 
1 1:-0.53527 2:-0.391304 4:-0.998046 
1 1:-0.233195 2:-0.913043 4:-0.999609 
1 1:-0.580083 2:-0.391304 4:-1 
1 1:-0.580083 2:-0.913043 3:1 4:-0.997264 
1 1:-0.93361 2:-0.73913 4:-0.946057 
1 1:-0.66805 2:-0.304348 4:-0.997655 
1 1:-0.751037 2:-0.652174 4:-0.999609 
1 1:-0.882158 2:-0.217391 3:-1 4:-1 
1 1:-0.946888 2:-0.73913 4:-0.999218 
1 1:-0.780913 2:-0.652174 4:-0.996287 
1 1:-0.878838 2:-0.913043 3:1 4:-0.999023 
1 1:-0.882158 2:-0.652174 4:-0.999218 
1 1:-0.888797 2:-0.478261 4:-0.999414 
1 1:-0.233195 2:-0.913043 4:-0.999609 
1 1:-0.882158 2:-0.73913 3:-1 4:-0.999609 
1 1:-0.580083 2:-0.391304 4:-1 
1 1:-0.882158 2:-0.565217 4:-0.997655 
1 1:-0.580083 2:-0.391304 4:-1 
1 1:-0.887137 2:-0.73913 4:-0.996287 
1 1:-0.887137 2:-0.73913 4:-0.996287 
1 1:-0.233195 2:-0.913043 4:-0.999609 
1 1:-0.882158 2:-0.73913 3:-0.75 4:-0.998046 
1 1:-0.233195 2:-0.913043 4:-0.999609 
1 1:-0.888797 2:-0.391304 4:-1 
1 1:-0.832365 2:-0.565217 4:-1 
1 1:-0.855602 2:-0.478261 3:1 4:-0.999609 
1 1:-0.888797 2:-0.565217 3:1 4:-0.999218 
1 1:-0.888797 2:-0.304348 3:1 4:-0.999609 
1 1:-0.888797 2:-0.73913 3:1 4:-0.999023 
1 1:-0.233195 2:-0.73913 3:1 4:-0.998241 
1 1:-0.722822 2:-0.565217 4:-1 
1 1:1 2:-0.565217 4:-0.999805 
1 1:-0.26639 2:-0.73913 3:-1 4:-0.999414 
1 1:-0.722822 2:-0.565217 4:-1 
1 1:-0.900415 2:-0.73913 3:1 4:-0.997459 
1 1:-0.722822 2:-0.73913 3:1 4:-0.998241 
1 1:-0.722822 2:-0.478261 3:1 4:-0.998632 
1 1:-0.722822 2:-0.478261 3:1 4:-0.998436 
1 1:-0.722822 2:-0.913043 3:1 4:-0.997655 
1 1:-0.676349 2:-0.565217 3:1 4:-0.999218 
1 1:-0.857261 2:-0.565217 3:1 4:-0.997459 
1 1:-0.857261 2:-0.652174 3:1 4:-0.997459 
1 1:-0.722822 2:-0.478261 3:1 4:-0.998046 
1 1:-0.722822 2:-0.73913 3:1 4:-0.99785 
1 1:-0.898755 2:-0.73913 3:1 4:-0.997068 
1 1:-0.845643 2:-0.652174 3:1 4:-0.997264 
1 1:-0.722822 2:-0.73913 4:-1 
1 1:-0.722822 2:-0.73913 3:1 4:-0.998241 
1 1:-0.233195 2:-0.913043 4:-0.999609 
1 1:-0.66805 2:0.304348 4:-0.880192 
1 1:-0.66805 2:-0.73913 4:-0.87941 
1 1:-0.66805 2:-0.478261 4:-0.879214 
1 1:-0.882158 2:-0.913043 4:-0.999218 
1 1:-0.780913 2:-0.73913 3:-1 4:-0.999609 
1 1:-0.233195 2:-0.217391 4:-0.997655 
1 1:-0.671369 2:-0.391304 3:1 4:-0.999218 
-1 1:-0.810788 2:-0.826087 4:-1 
-1 1:-0.810788 2:-0.826087 4:-1 
-1 1:-0.900415 2:-0.826087 3:-1 4:-1 
-1 1:-0.775934 2:-0.73913 4:-1 
-1 1:-0.873859 2:-0.913043 4:-0.999218 
-1 1:-0.873859 2:-0.652174 4:-1 
-1 1:-0.900415 2:-0.652174 4:-1 
-1 1:-0.873859 2:-0.913043 4:-0.999218 
-1 1:-0.908714 2:-0.652174 4:-1 
-1 1:-0.775934 2:-0.652174 4:-1 
-1 1:-0.775934 2:-0.73913 4:-1 
-1 1:-0.975104 2:-0.826087 3:-0.75 4:-1 
-1 1:-0.840664 2:-0.652174 4:-1 
-1 1:-0.810788 2:-0.826087 4:-1 
-1 1:-0.613278 2:-0.652174 4:-1 
-1 1:-0.775934 2:-0.73913 4:-1 
-1 1:-0.810788 2:-0.826087 4:-1 
-1 1:-0.613278 2:-0.652174 4:-1 
-1 1:-0.898755 2:-0.652174 4:-1 
-1 1:-0.855602 2:-0.652174 4:-1 
-1 1:-0.817427 2:-0.652174 4:-1 
-1 1:-0.676349 2:-0.478261 3:-1 4:-0.999414 
-1 1:-0.676349 2:-0.130435 3:1 4:-0.999023 
-1 1:-0.676349 2:-0.565217 3:1 4:-0.999805 
-1 1:-0.817427 2:-0.913043 3:-1 4:-1 
-1 1:-0.951867 2:-0.73913 3:1 4:-1 
-1 1:-0.805809 2:-0.565217 3:1 4:-0.999805 
-1 1:-0.902075 2:-0.130435 4:-0.999609 
-1 1:-0.676349 2:0.130435 3:-1 4:-0.999805 
-1 1:-0.832365 2:-0.73913 4:-0.999805 
-1 1:-0.817427 2:-0.652174 4:-1 
-1 1:-0.855602 2:-0.652174 4:-1 
-1 1:-0.774274 2:-0.73913 4:-1 
-1 1:-0.775934 2:-0.73913 4:-1 
-1 1:-0.86556 2:-0.652174 4:-1 
-1 1:-0.86556 2:-0.652174 4:-1 
-1 1:-0.857261 2:-0.652174 4:-1 
-1 1:-0.855602 2:-0.73913 3:-1 4:-1 
-1 1:-0.775934 2:-0.73913 4:-1 
-1 1:-0.774274 2:-0.73913 4:-1 
-1 1:-0.774274 2:-0.565217 4:-1 
-1 1:-0.774274 2:-0.73913 4:-1 
-1 1:-0.86888 2:-0.652174 4:-1 
-1 1:-0.613278 2:-0.565217 4:-1 
-1 1:-0.817427 2:-0.652174 4:-1 
-1 1:-0.775934 2:-0.652174 4:-1 
-1 1:-0.775934 2:-0.652174 4:-1 
-1 1:-0.676349 2:-0.217391 3:1 4:-0.999414 
-1 1:-0.775934 2:-0.73913 4:-1 
-1 1:-0.943568 2:-0.652174 4:-1 
-1 1:-0.80083 2:-0.73913 4:-1 
-1 1:-0.857261 2:-0.652174 4:-1 
-1 1:-0.832365 2:-0.913043 4:-0.999805 
-1 1:-0.613278 2:-0.652174 4:-1 
-1 1:-0.86556 2:-0.652174 4:-1 
-1 1:-0.86556 2:-0.652174 4:-1 
-1 1:-0.86888 2:-0.652174 4:-1 
-1 1:-0.963485 2:-0.73913 3:-1 4:-1 
-1 1:-0.893776 2:-0.391304 4:-1 
-1 1:-0.613278 2:-0.73913 4:-1 
-1 1:-0.873859 2:-0.826087 4:-0.999023 
-1 1:-0.613278 2:-0.652174 4:-1 
-1 1:-0.873859 2:-0.913043 3:1 4:-0.998827 
-1 1:-0.946888 2:-0.652174 4:-1 
-1 1:-0.913693 2:-0.73913 3:1 4:-0.999023 
-1 1:-0.853942 2:-0.73913 3:1 4:-0.999218 
-1 1:-0.853942 2:-0.913043 3:1 4:-0.999414 
-1 1:-0.853942 2:-0.73913 3:1 4:-0.999414 
-1 1:-0.613278 2:-0.130435 4:-1 
-1 1:-0.817427 2:-0.826087 3:-0.75 4:-1 
-1 1:-0.873859 2:-0.652174 4:-1 
-1 1:-0.832365 2:-0.73913 4:-1 
-1 1:-0.946888 2:-0.73913 3:1 4:-0.999609 
-1 1:-0.80083 2:-0.73913 4:-1 
-1 1:-0.908714 2:-0.73913 3:1 4:-0.999218 
-1 1:-0.902075 2:-0.130435 4:-0.999609 
-1 1:-0.832365 2:-0.826087 4:-1 
-1 1:-0.795851 2:-0.913043 3:1 4:-0.999609 
-1 1:-0.807469 2:-0.913043 3:1 4:-0.999609 
-1 1:-0.817427 2:-0.913043 3:-1 4:-1 
-1 1:-0.973444 2:-0.826087 4:-0.999609 
-1 1:-0.636515 2:-0.73913 3:-1 4:-1 
-1 1:-0.636515 2:-0.913043 3:-1 4:-1 
-1 1:-0.80083 2:-0.652174 4:-1 
-1 1:-0.832365 2:-0.826087 4:-1 
-1 1:-0.913693 2:-0.565217 3:1 4:-0.999218 
-1 1:-0.913693 2:-0.73913 3:1 4:-0.999218 
-1 1:-0.873859 2:-1 3:-1 4:-0.999218 
-1 1:-0.948548 2:-0.913043 3:1 4:-0.999805 
-1 1:-0.860581 2:-0.826087 4:-0.999609 
-1 1:-0.925311 2:-0.304348 4:-1 
-1 1:-0.807469 2:-0.826087 4:-0.999414 
-1 1:-0.807469 2:-0.73913 3:1 4:-0.999218 
-1 1:-0.943568 2:-0.652174 4:-1 
-1 1:-0.943568 2:-0.565217 4:-0.999805 
-1 1:-0.775934 2:-0.652174 4:-1 
-1 1:-0.926971 2:-0.826087 4:-0.998436 
-1 1:-0.843983 2:-0.565217 4:-0.998046 
-1 1:-0.843983 2:-0.913043 4:-0.998046 
-1 1:-0.843983 2:-0.565217 4:-0.998046 
-1 1:-0.817427 2:-0.652174 4:-1 
-1 1:-0.832365 2:-0.826087 4:-1 
-1 1:-0.843983 2:-0.73913 4:-0.998046 
-1 1:-0.843983 2:-0.565217 4:-0.998046 
-1 1:-0.843983 2:-0.565217 4:-0.998241 
-1 1:-0.843983 2:-0.73913 4:-0.998046 
-1 1:-0.926971 2:-0.73913 4:-0.998436 
-1 1:-0.775934 2:-0.652174 4:-1 
-1 1:-0.843983 2:-0.73913 4:-0.998436 
-1 1:-0.925311 2:-0.304348 4:-1 
-1 1:-0.80083 2:-0.73913 4:-1 
-1 1:-0.832365 2:-0.652174 4:-1 
-1 1:-0.80083 2:-0.73913 4:-1 
-1 1:-0.80083 2:-0.73913 4:-1 
-1 1:-0.908714 2:-0.73913 3:1 4:-0.999218 
-1 1:-0.843983 2:-0.913043 4:-0.998046 
-1 1:-0.775934 2:-0.652174 4:-1 
-1 1:-0.855602 2:-0.652174 4:-1 
-1 1:-0.925311 2:-0.304348 4:-1 
-1 1:-0.832365 2:-0.652174 4:-1 
-1 1:-0.774274 2:-0.652174 4:-1 
-1 1:-0.832365 2:-0.73913 3:-1 4:-1 
-1 1:-0.774274 2:-0.652174 4:-1 
-1 1:-0.973444 2:-0.73913 4:-1 
-1 1:-0.832365 2:-0.652174 4:-1 
-1 1:-0.908714 2:-0.652174 4:-1 
-1 1:-0.908714 2:-0.652174 4:-1 
-1 1:-0.908714 2:-0.652174 4:-1 
-1 1:-0.908714 2:-0.652174 4:-1 
-1 1:-0.908714 2:-0.652174 4:-1 
-1 1:-0.908714 2:-0.652174 4:-1 
-1 1:-0.908714 2:-0.652174 4:-1 
-1 1:-0.908714 2:-0.652174 4:-1 
-1 1:-0.696266 2:-0.565217 4:-0.999805 
-1 1:-0.951867 2:-0.652174 4:-1 
-1 1:-0.696266 2:-0.913043 4:-1 
-1 1:-0.696266 2:-0.913043 4:-1 
-1 1:-0.696266 2:-0.913043 4:-1 
-1 1:-0.696266 2:-0.565217 4:-0.999805 
-1 1:-0.696266 2:-0.565217 4:-0.999805 
-1 1:-0.696266 2:-0.304348 4:-0.999805 
-1 1:-0.696266 2:-0.913043 4:-1 
-1 1:-0.696266 2:-0.913043 4:-1 
-1 1:-0.696266 2:-0.913043 4:-1 
-1 1:-0.696266 2:-0.913043 4:-1 
-1 1:-0.912033 2:-0.391304 4:-0.999805 
-1 1:-0.912033 2:-0.391304 4:-0.999805 
-1 1:-0.696266 2:-0.565217 4:-0.999805 
-1 1:-0.696266 2:-0.913043 4:-1 
-1 1:-0.902075 2:-0.913043 4:-0.999218 
-1 1:-0.887137 2:-0.913043 4:-0.999218 
-1 1:-0.887137 2:-0.913043 4:-0.999218 
-1 1:-0.696266 2:-0.913043 4:-0.999218 
-1 1:1 2:-0.826087 4:-0.999609 
-1 1:-0.696266 2:-0.304348 4:-0.999805 
-1 1:-0.696266 2:-0.565217 4:-0.999805 
-1 1:-0.696266 2:-0.565217 4:-0.999805 
-1 1:1 2:-0.826087 4:-0.999609 
-1 1:-0.887137 2:-0.913043 4:-0.999218 
-1 1:-0.912033 2:-0.391304 4:-0.999414 
-1 1:-0.291286 2:-0.565217 4:-0.999414 
-1 1:-0.696266 2:-0.913043 4:-0.999218 
-1 1:-0.696266 2:-0.913043 4:-0.999023 
-1 1:-0.291286 2:-0.565217 4:-0.999414 
-1 1:-0.291286 2:-0.565217 4:-0.999414 
-1 1:-0.887137 2:-0.913043 4:-0.999218 
-1 1:1 2:-0.826087 4:-0.999609 
-1 1:-0.912033 2:-0.391304 4:-0.999414 
-1 1:-0.291286 2:-0.565217 4:-0.999414 
-1 1:-0.372614 2:-0.913043 3:1 4:-0.999609 
-1 1:-0.819087 2:-0.652174 4:-1 
-1 1:-0.908714 2:-0.652174 4:-1 
-1 1:-0.372614 2:-0.304348 3:1 4:-0.999414 
-1 1:-0.819087 2:-0.652174 4:-1 
-1 1:-0.819087 2:-0.652174 4:-1 
-1 1:-0.908714 2:-0.652174 4:-1 
-1 1:-0.908714 2:-0.652174 4:-1 
-1 1:-0.819087 2:-0.652174 4:-1 
-1 1:1 2:-0.913043 3:-1 4:-0.999609 
-1 1:1 2:-0.913043 4:-0.999023 
-1 1:-0.908714 2:-0.652174 4:-1 
-1 1:-0.819087 2:-0.652174 4:-1 
-1 1:-0.291286 2:-0.73913 3:1 4:-0.999218 
-1 1:-0.291286 2:-0.565217 4:-0.999414 
-1 1:-0.291286 2:-0.565217 4:-0.999414 
-1 1:-0.790871 2:-0.391304 4:-0.999414 
-1 1:-0.805809 2:-0.913043 3:1 4:-0.999609 
-1 1:-0.948548 2:-0.73913 3:1 4:-0.999805 
-1 1:-0.790871 2:-0.73913 3:-0.75 4:-0.999414 
-1 1:-0.965145 2:-0.391304 4:-0.999609 
-1 1:-0.877178 2:-0.391304 4:-0.999414 
-1 1:-0.73444 2:-0.391304 4:-0.999414 
-1 1:-0.372614 2:-0.913043 3:1 4:-0.999609 
-1 1:-0.291286 2:-0.565217 4:-0.999414 
-1 1:-0.790871 2:-0.565217 3:-1 4:-0.999609 
-1 1:-0.819087 2:-0.652174 3:-1 4:-0.999023 
-1 1:-0.66971 2:-0.565217 4:-0.999609 
-1 1:-0.291286 2:-0.565217 4:-0.999414 
-1 1:-0.634855 2:-0.73913 3:1 4:-0.999218 
-1 1:-0.634855 2:-0.565217 3:1 4:-0.999218 
-1 1:-0.372614 2:-0.565217 3:1 4:-0.999414 
-1 1:-0.626556 2:-0.391304 4:-0.999414 
-1 1:-0.73444 2:-0.565217 3:1 4:-0.999218 
-1 1:-0.73444 2:-0.652174 4:-1 
-1 1:-0.73444 2:-0.652174 4:-1 
-1 1:-0.291286 2:-0.73913 3:1 4:-0.999218 
-1 1:-0.73444 2:-0.652174 4:-1 
-1 1:-0.73444 2:-0.652174 4:-1 
-1 1:-0.634855 2:-0.391304 4:-0.999414 
-1 1:-0.634855 2:-0.652174 4:-1 
-1 1:-0.372614 2:-0.652174 3:1 4:-0.999414 
-1 1:-0.634855 2:-0.652174 4:-1 
-1 1:-0.634855 2:-0.652174 4:-1 
-1 1:-0.634855 2:-0.652174 4:-1 
-1 1:-0.634855 2:-0.652174 4:-1 
-1 1:-0.819087 2:-0.652174 4:-1 
-1 1:-0.626556 2:-0.565217 3:1 4:-0.999218 
-1 1:-0.73444 2:-0.652174 4:-1 
-1 1:-0.73444 2:-0.73913 3:-0.75 4:-0.999414 
-1 1:-0.877178 2:-0.73913 3:1 4:-0.999218 
-1 1:-0.819087 2:-0.652174 4:-1 
-1 1:-0.858921 2:-0.478261 4:-1 
-1 1:-0.66971 2:-0.913043 4:-0.999218 
-1 1:-0.790871 2:-0.304348 3:1 4:-0.999218 
-1 1:-0.291286 2:-0.913043 4:-1 
-1 1:-0.626556 2:-0.391304 4:-0.999414 
-1 1:-0.790871 2:-0.478261 4:-0.999609 
1 1:-0.908714 2:-0.652174 4:-1 
1 1:-0.819087 2:-0.652174 4:-1 
1 1:-0.819087 2:-0.652174 4:-1 
1 1:-0.503734 2:-0.391304 4:-0.999805 
1 1:-0.73444 2:-0.391304 4:-0.999414 
1 1:-0.634855 2:-0.652174 4:-1 
1 1:-0.902075 2:-0.826087 4:-0.999218 
1 1:-0.66971 2:-0.652174 4:-0.999609 
1 1:-0.774274 2:-0.652174 4:-1 
1 1:-0.902075 2:-0.826087 4:-1 
1 1:-0.902075 2:-0.826087 4:-1 
1 1:-0.845643 2:-0.826087 4:-1 
1 1:-0.845643 2:-0.73913 3:-1 4:-1 
1 1:-0.902075 2:-0.652174 4:-0.999609 
1 1:-0.845643 2:-0.826087 4:-1 
1 1:-0.845643 2:-0.826087 4:-1 
1 1:-0.845643 2:-0.826087 4:-1 
1 1:-0.970124 2:-0.73913 4:-1 
1 1:1 2:-0.565217 4:-0.999805 
1 1:-0.860581 2:-0.565217 3:1 4:-0.999609 
1 1:-0.926971 2:-0.826087 4:-1 
1 1:-0.926971 2:-0.652174 4:-1 
1 1:-0.970124 2:-0.73913 4:-1 
1 1:1 2:-0.826087 4:-0.998827 
1 1:-0.93029 2:-0.652174 4:-1 
1 1:-0.903734 2:-0.913043 4:-0.999414 
1 1:-0.903734 2:-0.913043 4:-0.999805 
1 1:-0.902075 2:-0.826087 4:-1 
1 1:-0.870539 2:-0.826087 4:-1 
1 1:-0.948548 2:-0.73913 4:-1 
1 1:-0.870539 2:-0.73913 3:-1 4:-1 
1 1:-0.948548 2:-0.73913 4:-1 
1 1:-0.948548 2:-0.73913 4:-1 
1 1:-0.948548 2:-0.73913 4:-1 
1 1:-0.870539 2:-0.652174 4:-1 
1 1:-0.902075 2:-0.826087 4:-1 
1 1:-0.948548 2:-0.73913 4:-1 
1 1:-0.948548 2:-0.73913 4:-1 
1 1:-0.918672 2:-0.73913 4:-1 
1 1:-0.93029 2:-0.652174 4:-1 
1 1:-0.918672 2:-0.73913 4:-1 
1 1:-0.372614 2:-0.73913 3:1 4:-0.999218 
1 1:-0.902075 2:-0.652174 4:-0.999609 
1 1:-0.805809 2:-0.73913 3:1 4:-0.999609 
1 1:-0.913693 2:-0.217391 3:1 4:-0.999023 
1 1:-0.93195 2:-0.826087 4:-0.999218 
1 1:-0.870539 2:-0.652174 3:-1 4:-0.996091 
1 1:-0.917012 2:-0.73913 4:-1 
1 1:-0.870539 2:-0.826087 4:-1 
1 1:-0.634855 2:-0.652174 4:-1 
1 1:-0.372614 2:-0.73913 3:1 4:-0.999218 
1 1:-0.819087 2:-0.652174 4:-1 
1 1:-0.790871 2:-0.130435 3:1 4:-0.999023 
1 1:-0.860581 2:-0.565217 3:1 4:-0.999609 
1 1:-0.86556 2:-0.826087 4:-1 
1 1:-0.93029 2:-0.478261 4:-0.999609 
1 1:-0.339419 2:-0.565217 4:-0.999414 
1 1:-0.956846 2:-0.478261 4:-1 
1 1:-0.339419 2:-0.565217 4:-0.999414 
1 1:-0.339419 2:-0.565217 4:-0.999414 
1 1:-0.339419 2:-0.652174 4:-0.999609 
1 1:-0.339419 2:-0.826087 4:-0.999609 
1 1:-0.339419 2:-0.565217 4:-0.999414 
1 1:-0.372614 2:-0.826087 4:-0.999609 
1 1:-0.339419 2:-0.652174 4:-0.999609 
1 1:-0.339419 2:-0.565217 4:-0.999218 
1 1:-0.339419 2:-0.652174 3:1 4:-0.999414 
1 1:1 2:-0.913043 4:-0.999023 
1 1:-0.372614 2:-0.826087 4:-0.999609 
1 1:-0.372614 2:-0.826087 4:-0.999805 
1 1:-0.372614 2:-0.826087 4:-0.999805 
1 1:-0.372614 2:-0.826087 4:-0.999805 
1 1:-0.93195 2:-0.652174 4:-0.999609 
1 1:-0.372614 2:-0.826087 4:-0.999609 
1 1:-0.372614 2:-0.826087 4:-0.999609 
1 1:-0.93195 2:-0.652174 4:-0.999609 
1 1:-0.93029 2:-0.391304 4:-0.999609 
1 1:-0.339419 2:-0.478261 4:-0.999609 
1 1:-0.372614 2:-0.826087 4:-0.999609 
1 1:1 2:-0.913043 4:-0.999218 
1 1:-0.917012 2:-0.73913 3:1 4:-0.998827 
1 1:-0.372614 2:-0.826087 4:-0.999609 
1 1:-0.93195 2:-0.826087 3:-1 4:-0.999218 
1 1:-0.372614 2:-0.826087 4:-0.999609 
1 1:-0.339419 2:-0.913043 3:1 4:-0.999023 
1 1:-0.93361 2:-0.73913 3:1 4:-0.998827 
1 1:-0.339419 2:-0.73913 4:-0.999218 
1 1:-0.960166 2:-0.913043 3:-1 4:-0.999023 
1 1:-0.956846 2:-0.73913 3:1 4:-0.998436 
1 1:-0.956846 2:-0.73913 3:1 4:-0.998436 
1 1:-0.339419 2:-0.217391 3:1 4:-0.999023 
1 1:-0.339419 2:-0.217391 4:-0.999609 
1 1:-0.339419 2:-0.565217 4:-0.999218 
1 1:-0.339419 2:-0.73913 4:-0.999218 
1 1:-0.339419 2:-0.913043 3:1 4:-0.999023 
1 1:-0.339419 2:-0.73913 4:-0.999609 
1 1:-0.372614 2:-0.826087 4:-0.999609 
1 1:-0.339419 2:-0.565217 4:-0.999414 
1 1:-0.372614 2:-0.826087 4:-0.999414 
1 1:-0.372614 2:-0.826087 4:-0.999414 
1 1:-0.339419 2:-0.73913 4:-0.999609 
1 1:-0.339419 2:-0.130435 4:-0.999609 
1 1:-0.634855 2:-0.652174 4:-1 
1 1:-0.372614 2:-0.913043 3:-1 4:-0.999609 
1 1:-0.372614 2:-0.391304 4:-1 
1 1:-0.73444 2:-0.652174 4:-1 
1 1:-0.626556 2:-0.652174 4:-1 
1 1:-0.339419 2:-0.391304 4:-0.999414 
1 1:1 2:-0.913043 4:-0.999218 
1 1:-0.66971 2:-0.826087 3:-1 4:-0.999609 
1 1:-0.923651 2:-0.217391 4:-0.999805 
1 1:-0.339419 2:-0.652174 4:-0.999609 
1 1:-0.339419 2:-0.478261 4:-0.999609 
1 1:-0.923651 2:-0.304348 4:-1 
1 1:-0.780913 2:-0.565217 4:-0.999414 
1 1:-0.923651 2:-0.73913 4:-0.999414 
1 1:-0.780913 2:-0.565217 4:-0.999414 
1 1:-0.780913 2:-0.73913 4:-0.999218 
1 1:-0.339419 2:-0.73913 3:-1 4:-0.999609 
1 1:-0.93527 2:-0.826087 4:-1 
1 1:-0.40249 2:-0.913043 3:-1 4:-1 
1 1:-0.93527 2:-0.652174 4:-1 
1 1:-0.339419 2:-0.652174 4:-0.999609 
1 1:-0.93527 2:-0.913043 4:-0.999805 
1 1:-0.805809 2:-0.565217 3:1 4:-0.999023 
1 1:-0.780913 2:-0.391304 4:-0.999609 
1 1:-0.626556 2:-0.652174 4:-1 
1 1:-0.900415 2:-0.913043 4:-0.999805 
1 1:-0.857261 2:-0.826087 4:-1 
1 1:-0.86556 2:-0.826087 4:-1 
1 1:-0.40249 2:-0.73913 3:-1 4:-1 
1 1:-0.634855 2:-0.652174 4:-1 
1 1:-0.805809 2:-0.73913 3:1 4:-0.998632 
1 1:-0.790871 2:-0.217391 3:1 4:-0.999218 
1 1:-0.780913 2:-0.73913 3:-1 4:-0.999609 
1 1:-0.810788 2:-0.73913 4:-0.899932 
1 1:-0.626556 2:-0.652174 4:-1 
1 1:-0.634855 2:-0.652174 4:-1 
1 1:-0.634855 2:-0.652174 4:-1 
1 1:-0.626556 2:-0.652174 4:-1 
1 1:-0.751037 2:-0.913043 3:1 4:-0.998241 
1 1:-0.751037 2:-0.652174 4:-0.999609 
1 1:-0.751037 2:-0.652174 4:-0.999609 
1 1:-0.676349 2:-0.73913 3:1 4:-0.99785 
1 1:-0.751037 2:-0.652174 4:-0.999609 
1 1:-0.634855 2:-0.304348 3:1 4:-0.999218 
1 1:-0.751037 2:-0.913043 3:1 4:-0.998241 
1 1:-0.860581 2:-0.652174 4:-0.999218 
1 1:-0.40249 2:-0.826087 4:-1 
1 1:-0.774274 2:-0.652174 4:-1 
1 1:-0.893776 2:-0.652174 4:-1 
1 1:-0.774274 2:-0.73913 4:-1 
1 1:-0.774274 2:-0.652174 4:-1 
1 1:-0.751037 2:-0.652174 4:-0.999609 
1 1:-0.774274 2:-0.73913 4:-1 
1 1:-0.893776 2:-0.652174 4:-1 
1 1:-0.893776 2:-0.652174 4:-1 
1 1:-0.893776 2:-0.652174 4:-1 
1 1:-0.888797 2:-0.478261 4:-1 
1 1:-0.893776 2:-0.652174 4:-1 
1 1:-0.751037 2:-0.652174 4:-0.999609 
1 1:-0.751037 2:-0.913043 3:-1 4:-0.999609 
1 1:-0.893776 2:-0.652174 4:-1 
1 1:-0.751037 2:-0.478261 4:-0.999414 
1 1:-0.580083 2:-0.478261 3:1 4:-0.997264 
1 1:-0.93527 2:-0.826087 4:-1 
1 1:-0.580083 2:-0.652174 3:1 4:-0.999609 
1 1:-0.893776 2:-0.652174 4:-1 
1 1:-0.93527 2:-0.73913 3:-0.75 4:-1 
1 1:-0.93527 2:-0.913043 4:-1 
1 1:-0.93527 2:-0.913043 4:-1 
1 1:-0.775934 2:-0.73913 3:1 4:-0.999218 
1 1:-0.807469 2:-0.826087 4:-1 
1 1:-0.807469 2:-0.565217 4:-0.999805 
1 1:-0.807469 2:-0.391304 4:-1 
1 1:-0.807469 2:-0.73913 3:1 4:-0.998827 
1 1:-0.893776 2:-0.652174 4:-1 
1 1:-0.807469 2:-0.826087 4:-0.999805 
1 1:-0.807469 2:-0.826087 4:-0.999805 
1 1:-0.807469 2:-0.826087 4:-0.999805 
1 1:-0.807469 2:-0.826087 4:-0.999805 
1 1:-0.807469 2:-0.391304 4:-1 
1 1:-0.807469 2:-0.73913 3:1 4:-0.999023 
1 1:-0.613278 2:-0.130435 4:-1 
1 1:-0.751037 2:-0.0434783 4:-0.999609 
1 1:-0.943568 2:-0.565217 3:-1 4:-0.999414 
1 1:-0.966805 2:-0.913043 4:-0.998632 
1 1:-0.751037 2:-0.304348 4:-0.999609 
1 1:-0.878838 2:-0.478261 4:-0.999414 
1 1:-0.775934 2:-0.913043 3:1 4:-0.999414 
1 1:-0.956846 2:-0.391304 3:1 4:-0.997264 
1 1:-0.93029 2:-0.652174 4:-1 
1 1:-0.888797 2:-0.565217 3:1 4:-0.999218 
1 1:-0.888797 2:-0.304348 3:1 4:-0.999609 
1 1:-0.858921 2:-0.73913 3:1 4:-0.999609 
1 1:-0.888797 2:-0.73913 3:1 4:-0.999023 
1 1:-0.887137 2:-0.913043 4:-0.999414 
1 1:-0.878838 2:-0.652174 4:-0.999414 
1 1:-0.887137 2:-0.565217 3:1 4:-0.999218 
1 1:-0.887137 2:-0.73913 4:-0.999218 
1 1:-0.580083 2:-0.391304 4:-1 
1 1:-0.580083 2:-0.391304 4:-1 
1 1:-0.93029 2:-0.652174 4:-1 
1 1:-0.946888 2:-0.73913 4:-0.999414 
1 1:-0.878838 2:-0.73913 3:1 4:-0.999609 
1 1:-0.580083 2:-0.913043 3:1 4:-0.999609 
1 1:-0.580083 2:-0.391304 4:-1 
1 1:-0.751037 2:-0.0434783 4:-0.999609 
1 1:-0.751037 2:-0.913043 3:-1 4:-0.999609 
1 1:-0.751037 2:-0.652174 4:-0.999609 
1 1:-0.888797 2:-0.913043 3:1 4:-0.999609 
1 1:-0.946888 2:-0.478261 4:-0.998827 
1 1:-0.40249 2:-0.826087 4:-1 
1 1:-0.887137 2:-0.652174 4:-1 
1 1:-0.887137 2:-0.652174 4:-0.999805 
1 1:-0.887137 2:-0.73913 3:1 4:-0.999609 
1 1:-0.751037 2:-0.478261 4:-0.999609 
1 1:-0.946888 2:-0.73913 4:-0.999218 
1 1:1 2:-0.913043 4:-0.999414 
1 1:-0.887137 2:-0.913043 4:-0.999805 
1 1:-0.73444 2:-0.652174 4:-1 
1 1:-0.372614 2:-0.826087 4:-0.999609 
1 1:-0.372614 2:-0.826087 4:-0.999414 
1 1:-0.372614 2:-0.73913 4:-0.999414 
1 1:-0.372614 2:-0.826087 4:-0.999414 
1 1:-0.372614 2:-0.826087 4:-0.999414 
1 1:-0.372614 2:-0.826087 4:-0.999414 
1 1:-0.372614 2:-0.652174 4:-0.999023 
1 1:-0.372614 2:-0.652174 4:-1 
1 1:-0.372614 2:-0.652174 4:-1 
1 1:-0.923651 2:-0.826087 4:-1 
1 1:-0.769295 2:-0.913043 4:-0.999414 
1 1:-0.780913 2:-0.478261 3:1 4:-0.997264 
1 1:-0.233195 2:-0.73913 3:-0.75 4:-0.999023 
1 1:-0.926971 2:-0.73913 3:1 4:-0.999609 
1 1:-0.926971 2:-0.73913 3:1 4:-0.999609 
1 1:-0.926971 2:-0.73913 3:1 4:-0.999609 
1 1:-0.233195 2:-0.652174 4:-0.998241 
1 1:-0.233195 2:-0.73913 3:-1 4:-0.999023 
1 1:-0.233195 2:-0.652174 4:-0.998632 
1 1:-0.233195 2:-0.73913 3:1 4:-0.997068 
1 1:-0.233195 2:-0.73913 4:-0.999218 
1 1:-0.233195 2:-0.73913 3:1 4:-0.999414 
1 1:-0.233195 2:-0.913043 4:-0.999609 
1 1:-0.233195 2:-0.73913 4:-0.999218 
1 1:-0.372614 2:-0.826087 4:-0.999023 
1 1:-0.233195 2:-0.73913 4:-0.999218 
1 1:-0.926971 2:-0.73913 3:1 4:-0.999414 
1 1:-0.923651 2:-0.652174 4:-1 
1 1:-0.950207 2:-0.913043 4:-0.999414 
1 1:-0.832365 2:-0.73913 4:-0.999023 
1 1:-0.832365 2:-0.73913 3:-1 4:-1 
1 1:-0.832365 2:-0.304348 3:-1 4:-1 
1 1:-0.233195 2:-0.913043 4:-0.999609 
1 1:-0.832365 2:-0.73913 3:-1 4:-1 
1 1:-0.233195 2:-0.913043 4:-0.999609 
1 1:-0.233195 2:-0.913043 4:-0.999609 
1 1:-0.971784 2:-0.826087 4:-1 
1 1:-0.53527 2:-0.391304 4:-0.997264 
1 1:-0.372614 2:-0.826087 4:-0.999023 
1 1:-0.233195 2:-0.478261 3:1 4:-0.999023 
1 1:-0.233195 2:-0.913043 4:-0.999609 
1 1:-0.233195 2:-0.913043 4:-0.999609 
1 1:-0.613278 2:-0.826087 4:-1 
1 1:-0.40249 2:-0.826087 4:-1 
-1 1:-0.830705 2:-0.73913 4:-1 
-1 1:-0.830705 2:-0.73913 4:-1 
-1 1:-0.830705 2:-0.73913 4:-1 
-1 1:-0.898755 2:-0.391304 4:-1 
-1 1:-0.571784 2:-0.391304 4:-1 
-1 1:-0.963485 2:-0.391304 4:-1 
-1 1:-0.744398 2:-0.652174 4:-1 
-1 1:-0.744398 2:-0.652174 4:-1 
-1 1:-0.744398 2:-0.652174 4:-1 
-1 1:-0.744398 2:-0.652174 4:-1 
-1 1:-0.830705 2:-0.73913 4:-1 
-1 1:-0.898755 2:-0.130435 4:-1 
-1 1:-0.898755 2:-0.391304 4:-1 
-1 1:-0.898755 2:-0.391304 4:-1 
-1 1:-0.744398 2:-0.652174 4:-1 
-1 1:-0.744398 2:-0.652174 4:-1 
-1 1:-0.830705 2:-0.73913 4:-1 
-1 1:-0.898755 2:-0.391304 4:-1 
-1 1:-0.898755 2:-0.391304 4:-1 
-1 1:-0.737759 2:-0.391304 4:-1 
-1 1:-0.830705 2:-0.73913 4:-1 
-1 1:-0.744398 2:-0.652174 4:-1 
-1 1:-0.830705 2:-0.652174 4:-1 
-1 1:-0.744398 2:-0.652174 4:-1 
-1 1:-0.744398 2:-0.652174 4:-1 
-1 1:-0.571784 2:-0.304348 4:-1 
-1 1:-0.898755 2:-0.304348 4:-1 
-1 1:-0.898755 2:-0.391304 4:-1 
-1 1:-0.571784 2:-0.391304 4:-1 
-1 1:-0.571784 2:-0.304348 4:-1 
-1 1:-0.686307 2:-0.391304 4:-1 
-1 1:0.410788 2:-0.391304 4:-1 
-1 1:-0.571784 2:-0.391304 4:-1 
-1 1:-0.726141 2:-0.913043 4:-1 
-1 1:-0.875519 2:-0.73913 4:-1 
-1 1:-0.744398 2:-0.652174 4:-1 
-1 1:-0.744398 2:-0.652174 4:-1 
-1 1:-0.744398 2:-0.652174 4:-1 
-1 1:-0.875519 2:-0.73913 4:-1 
-1 1:-0.726141 2:-0.913043 4:-1 
-1 1:-0.744398 2:-0.652174 4:-1 
-1 1:-0.744398 2:-0.652174 4:-1 
-1 1:-0.744398 2:-0.652174 4:-1 
-1 1:-0.726141 2:-0.913043 4:-1 
-1 1:-0.875519 2:-0.73913 4:-1 
-1 1:-0.686307 2:-0.73913 4:-0.999805 
-1 1:-0.686307 2:-0.391304 4:-1 
-1 1:-0.623237 2:-0.913043 4:-1 
-1 1:-0.623237 2:-0.913043 4:-1 
-1 1:-0.623237 2:-0.913043 4:-1 
-1 1:-0.623237 2:-0.913043 4:-1 
-1 1:-0.623237 2:-0.913043 4:-1 
-1 1:-0.726141 2:-0.913043 4:-1 
-1 1:-0.623237 2:-0.913043 4:-1 
-1 1:0.410788 2:-0.391304 4:-1 
-1 1:-0.686307 2:-0.391304 4:-1 
-1 1:-0.686307 2:-0.391304 4:-1 
-1 1:0.410788 2:-0.391304 4:-1 
-1 1:-0.834025 2:-0.73913 4:-1 
-1 1:-0.875519 2:-0.73913 4:-1 
-1 1:-0.785892 2:-0.913043 4:-1 
-1 1:-0.875519 2:-0.73913 4:-1 
-1 1:-0.875519 2:-0.73913 4:-1 
-1 1:-0.875519 2:-0.73913 4:-1 
-1 1:-0.686307 2:-0.73913 4:-0.999805 
-1 1:-0.686307 2:-0.565217 4:-0.999805 
-1 1:-0.875519 2:-0.73913 4:-1 
-1 1:-0.875519 2:-0.652174 4:-1 
-1 1:-0.875519 2:-0.73913 4:-1 
-1 1:-0.875519 2:-0.73913 4:-1 
-1 1:-0.737759 2:-0.391304 4:-1 
-1 1:-0.623237 2:-0.913043 4:-1 
-1 1:-0.785892 2:-0.913043 4:-1 
-1 1:-0.726141 2:-0.913043 4:-1 
-1 1:-0.842324 2:-0.391304 4:-1 
-1 1:-0.850622 2:-0.73913 4:-1 
-1 1:-0.850622 2:-0.73913 4:-1 
-1 1:-0.850622 2:-0.652174 4:-1 
-1 1:-0.0207469 2:-0.913043 4:-1 
-1 1:-0.0207469 2:-0.913043 4:-1 
-1 1:-0.623237 2:-0.913043 4:-1 
-1 1:-0.623237 2:-0.913043 4:-1 
-1 1:-0.623237 2:-0.913043 4:-1 
-1 1:-0.744398 2:-0.652174 4:-1 
-1 1:-0.830705 2:-0.73913 4:-1 
-1 1:-0.0207469 2:-0.913043 4:-1 
-1 1:-0.686307 2:-0.73913 4:-0.999805 
-1 1:-0.0207469 2:-0.913043 4:-1 
-1 1:-0.623237 2:-0.913043 4:-1 
-1 1:-0.623237 2:-0.913043 4:-1 
-1 1:-0.875519 2:-0.73913 4:-1 
-1 1:-0.623237 2:-0.913043 4:-1 
-1 1:-0.623237 2:-0.913043 4:-1 
-1 1:-0.726141 2:-0.913043 4:-1 
-1 1:-0.686307 2:-0.565217 4:-0.999805 
-1 1:-0.686307 2:-0.913043 4:-0.999414 
-1 1:-0.623237 2:-0.913043 4:-1 
-1 1:-0.623237 2:-0.913043 4:-1 
-1 1:-0.686307 2:-0.913043 4:-0.999414 
-1 1:-0.686307 2:-0.826087 4:-1 
-1 1:-0.686307 2:-0.391304 4:-1 
-1 1:-0.726141 2:-0.913043 4:-1 
-1 1:-0.726141 2:-0.913043 4:-1 
-1 1:-0.834025 2:-0.652174 4:-1 
-1 1:-0.834025 2:-0.73913 4:-1 
-1 1:-0.0207469 2:-0.913043 4:-1 
-1 1:-0.0207469 2:-0.913043 4:-1 
-1 1:-0.0207469 2:-0.913043 4:-1 
-1 1:-0.0207469 2:-0.913043 4:-1 
-1 1:-0.0207469 2:-0.913043 4:-1 
-1 1:-0.0207469 2:-0.913043 4:-1 
-1 1:-0.785892 2:-0.913043 4:-1 
-1 1:-0.744398 2:-0.652174 4:-1 
-1 1:-0.623237 2:-0.913043 4:-1 
-1 1:-0.0207469 2:-0.913043 4:-1 
-1 1:-0.623237 2:-0.913043 4:-1 
-1 1:-0.875519 2:-0.73913 4:-1 
-1 1:-0.850622 2:-0.73913 4:-1 
-1 1:-0.830705 2:-0.73913 4:-1 
-1 1:-0.830705 2:-0.565217 4:-1 
-1 1:-0.850622 2:-0.73913 4:-1 
-1 1:-0.850622 2:-0.73913 4:-1 
-1 1:-0.850622 2:-0.73913 4:-1 
-1 1:-0.0207469 2:-0.913043 4:-1 
-1 1:-0.875519 2:-0.73913 4:-1 
-1 1:-0.744398 2:-0.652174 4:-1 
-1 1:-0.744398 2:-0.652174 4:-1 
-1 1:-0.804149 2:-0.826087 4:-0.999414 
-1 1:-0.804149 2:-0.913043 4:-0.999609 
-1 1:-0.0207469 2:-0.913043 4:-1 
-1 1:-0.850622 2:-0.73913 4:-1 
-1 1:-0.850622 2:-0.73913 4:-1 
-1 1:-0.785892 2:-0.913043 4:-1 
-1 1:-0.850622 2:-0.73913 4:-1 
-1 1:0.410788 2:-0.391304 4:-1 
-1 1:0.410788 2:-0.391304 4:-1 
-1 1:-0.651452 2:-0.391304 4:-1 
-1 1:-0.623237 2:-0.565217 3:1 4:-0.999805 
-1 1:-0.623237 2:-0.913043 3:-1 4:-0.999609 
-1 1:-0.623237 2:-0.913043 3:-1 4:-0.999609 
-1 1:-0.0207469 2:-0.913043 4:-1 
-1 1:-0.744398 2:-0.652174 4:-1 
-1 1:-0.850622 2:-0.73913 4:-1 
-1 1:-0.875519 2:-0.73913 4:-1 
-1 1:-0.744398 2:-0.652174 4:-1 
-1 1:-0.623237 2:-0.913043 4:-1 
-1 1:-0.834025 2:-0.73913 4:-1 
-1 1:-0.834025 2:-0.73913 4:-1 
-1 1:-0.898755 2:-0.391304 4:-1 
-1 1:-0.898755 2:-0.304348 4:-1 
-1 1:-0.571784 2:-0.304348 4:-1 
-1 1:-0.912033 2:-0.913043 4:-1 
-1 1:-0.785892 2:-0.73913 4:-1 
-1 1:-0.842324 2:-0.391304 4:-1 
-1 1:-0.623237 2:-0.913043 4:-1 
-1 1:-0.676349 2:-0.913043 4:-1 
-1 1:-0.744398 2:-0.652174 4:-1 
-1 1:-0.686307 2:-0.391304 4:-1 
-1 1:-0.834025 2:-0.73913 4:-1 
-1 1:-0.804149 2:-0.913043 4:-1 
-1 1:-0.804149 2:-0.826087 4:-0.999805 
-1 1:-0.804149 2:-0.913043 4:-1 
-1 1:-0.804149 2:-0.826087 4:-0.999805 
-1 1:-0.804149 2:-0.913043 4:-1 
-1 1:-0.744398 2:-0.652174 4:-1 
-1 1:-0.434025 2:-0.913043 4:-1 
-1 1:-0.850622 2:-0.73913 4:-1 
-1 1:-0.850622 2:-0.73913 4:-1 
-1 1:-0.850622 2:-0.73913 4:-1 
-1 1:-0.0207469 2:-0.913043 4:-1 
-1 1:-0.0207469 2:-0.913043 4:-1 
-1 1:-0.0207469 2:-0.913043 4:-1 
-1 1:-0.0207469 2:-0.913043 4:-1 
-1 1:0.410788 2:-0.391304 4:-1 
-1 1:-0.546888 2:-0.0434783 4:-1 
-1 1:-0.651452 2:-0.391304 4:-1 
-1 1:-0.787552 2:-0.391304 4:-1 
-1 1:-0.546888 2:-0.913043 4:-1 
-1 1:-0.546888 2:-0.913043 4:-1 
-1 1:-0.787552 2:-0.391304 4:-1 
-1 1:-0.0207469 2:-0.913043 4:-1 
-1 1:-0.0207469 2:-0.913043 4:-1 
-1 1:-0.0207469 2:-0.913043 4:-1 
-1 1:-0.546888 2:-0.391304 4:-1 
-1 1:-0.551867 2:-0.73913 4:-1 
-1 1:-0.850622 2:-0.73913 4:-1 
-1 1:-0.0207469 2:-0.913043 4:-1 
-1 1:-0.546888 2:-0.913043 4:-1 
-1 1:-0.546888 2:-0.391304 4:-1 
-1 1:-0.787552 2:-0.73913 4:-1 
-1 1:-0.546888 2:-0.913043 4:-1 
-1 1:-0.546888 2:-0.913043 4:-1 
-1 1:-0.0207469 2:-0.913043 4:-1 
-1 1:-0.686307 2:-0.73913 4:-0.999805 
-1 1:-0.434025 2:-0.913043 4:-1 
-1 1:-0.785892 2:-0.913043 4:-1 
-1 1:-0.0207469 2:-0.913043 4:-1 
-1 1:-0.787552 2:-0.391304 4:-1 
-1 1:-0.551867 2:-0.73913 4:-1 
-1 1:-0.546888 2:-0.913043 4:-1 
-1 1:-0.787552 2:-0.73913 4:-1 
-1 1:-0.787552 2:-0.304348 4:-1 
-1 1:-0.546888 2:-0.913043 4:-1 
-1 1:-0.787552 2:-0.73913 4:-1 
-1 1:-0.787552 2:-0.73913 4:-1 
-1 1:-0.551867 2:-0.73913 4:-1 
-1 1:-0.546888 2:-0.391304 4:-1 
-1 1:-0.785892 2:-0.391304 4:-1 
-1 1:-0.571784 2:-0.304348 4:-1 
-1 1:-0.898755 2:-0.304348 4:-1 
-1 1:-0.0207469 2:-0.913043 4:-1 
-1 1:-0.0207469 2:-0.913043 4:-1 
-1 1:-0.551867 2:-0.73913 4:-1 
-1 1:-0.434025 2:-0.913043 4:-1 
-1 1:-0.0207469 2:-0.913043 4:-1 
-1 1:-0.551867 2:-0.73913 4:-1 
-1 1:-0.434025 2:-0.913043 4:-1 
-1 1:-0.546888 2:-0.913043 4:-1 
-1 1:-0.0207469 2:-0.913043 4:-1 
-1 1:-0.551867 2:-0.73913 4:-1 
-1 1:-0.726141 2:-0.913043 3:-1 4:-1 
-1 1:-0.623237 2:-0.565217 4:-1 
-1 1:-0.434025 2:-0.913043 4:-1 
-1 1:-0.785892 2:-0.913043 4:-1 
-1 1:-0.434025 2:-0.913043 4:-1 
-1 1:-0.434025 2:-0.391304 4:-1 
-1 1:-0.787552 2:-0.304348 4:-1 
-1 1:-0.651452 2:-0.391304 4:-1 
-1 1:-0.651452 2:-0.391304 4:-1 
-1 1:-0.551867 2:-0.73913 4:-1 
-1 1:-0.686307 2:-0.652174 4:-1 
-1 1:-0.651452 2:-0.391304 4:-1 
-1 1:-0.785892 2:-0.913043 4:-1 
-1 1:-0.726141 2:-0.913043 4:-1 
-1 1:-0.0207469 2:-0.391304 4:-1 
-1 1:-0.850622 2:-0.73913 4:-1 
-1 1:-0.0207469 2:-0.913043 4:-1 
-1 1:-0.651452 2:-0.913043 3:-1 4:-1 
-1 1:0.410788 2:-0.913043 3:-1 4:-1 
-1 1:-0.0207469 2:-0.913043 4:-1 
-1 1:-0.0207469 2:-0.913043 4:-1 
-1 1:-0.0207469 2:-0.913043 4:-1 
-1 1:-0.0207469 2:-0.913043 4:-1 
-1 1:-0.0207469 2:-0.913043 4:-1 
-1 1:-0.551867 2:-0.73913 4:-1 
-1 1:-0.742739 2:-0.73913 4:-1 
-1 1:-0.726141 2:-0.913043 4:-1 
-1 1:-0.623237 2:-0.565217 3:1 4:-0.999805 
-1 1:-0.948548 2:-0.565217 3:-1 4:-1 
-1 1:-0.0207469 2:-0.391304 4:-1 
-1 1:-0.546888 2:-0.913043 4:-1 
-1 1:-0.434025 2:-0.913043 4:-1 
-1 1:-0.726141 2:-0.913043 4:-1 
-1 1:-0.726141 2:-0.913043 4:-1 
-1 1:-0.726141 2:-0.913043 4:-1 
-1 1:0.410788 2:-0.391304 4:-1 
-1 1:-0.434025 2:-0.391304 4:-1 
-1 1:-0.804149 2:-0.913043 4:-0.999609 
-1 1:-0.434025 2:-0.913043 4:-1 
-1 1:-0.551867 2:-0.73913 4:-1 
-1 1:-0.875519 2:-0.73913 4:-1 
-1 1:-0.726141 2:-0.913043 4:-1 
-1 1:-0.772614 2:-0.391304 4:-1 
-1 1:-0.744398 2:-0.652174 4:-1 
-1 1:-0.623237 2:-0.913043 4:-0.999414 
-1 1:-0.0207469 2:-0.913043 4:-1 
-1 1:-0.0207469 2:-0.913043 4:-1 
-1 1:-0.0207469 2:-0.913043 4:-1 
-1 1:-0.0207469 2:-0.913043 4:-1 
-1 1:-0.0207469 2:-0.391304 4:-1 
-1 1:-0.0207469 2:-0.913043 4:-1 
-1 1:-0.686307 2:-0.73913 4:-0.999805 
-1 1:-0.883817 2:-0.652174 4:-1 
-1 1:-0.744398 2:-0.652174 4:-1 
-1 1:-0.571784 2:-0.304348 4:-1 
-1 1:-0.744398 2:-0.652174 4:-1 
-1 1:-0.434025 2:-0.913043 4:-1 
-1 1:-0.983402 2:-0.73913 4:-1 
-1 1:-0.742739 2:-0.73913 4:-1 
-1 1:-0.686307 2:-0.304348 4:-1 
-1 1:-0.905394 2:-0.73913 4:-1 
-1 1:-0.772614 2:-0.391304 4:-1 
-1 1:-0.772614 2:-0.391304 4:-1 
-1 1:-0.434025 2:-0.391304 4:-1 
-1 1:-0.785892 2:-0.913043 4:-1 
-1 1:-0.737759 2:-0.391304 4:-1 
-1 1:-0.737759 2:-0.391304 4:-1 
-1 1:-0.917012 2:-0.913043 4:-0.999414 
-1 1:-0.744398 2:-0.652174 4:-1 
-1 1:-0.744398 2:-0.652174 4:-1 
-1 1:-0.33444 2:-0.913043 3:-1 4:-1 
-1 1:-0.623237 2:-0.913043 4:-1 
-1 1:-0.804149 2:-0.913043 4:-0.999609 
-1 1:-0.804149 2:-0.826087 4:-0.999414 
-1 1:-0.973444 2:-0.478261 4:-1 
-1 1:-0.686307 2:-0.913043 4:-0.999414 
-1 1:-0.686307 2:-0.565217 4:-0.999805 
-1 1:-0.546888 2:-0.913043 4:-1 
-1 1:-0.546888 2:-0.913043 4:-0.999414 
-1 1:-0.0207469 2:-0.913043 4:-1 
-1 1:-0.744398 2:-0.652174 4:-1 
-1 1:-0.744398 2:-0.652174 4:-1 
-1 1:-0.623237 2:-0.565217 4:-1 
-1 1:-0.623237 2:-0.913043 4:-1 
-1 1:-0.787552 2:-0.304348 4:-1 
-1 1:-0.787552 2:-0.304348 4:-1 
-1 1:-0.551867 2:-0.73913 4:-1 
-1 1:-0.726141 2:-0.913043 4:-1 
-1 1:-0.726141 2:-0.913043 4:-1 
-1 1:-0.726141 2:-0.913043 4:-1 
-1 1:-0.726141 2:-0.913043 4:-0.999414 
-1 1:-0.726141 2:-0.913043 4:-1 
-1 1:-0.726141 2:-0.913043 4:-1 
-1 1:-0.726141 2:-0.913043 4:-1 
-1 1:-0.726141 2:-0.913043 4:-1 
-1 1:-0.726141 2:-0.391304 4:-1 
-1 1:-0.146888 2:-0.304348 4:-1 
-1 1:-0.623237 2:-0.913043 4:-0.999218 
-1 1:-0.686307 2:-0.913043 4:-0.999023 
-1 1:-0.726141 2:-0.913043 4:-0.999023 
-1 1:-0.551867 2:-0.73913 4:-1 
-1 1:-0.0207469 2:-0.913043 4:-1 
-1 1:-0.0207469 2:-0.913043 4:-0.998241 
-1 1:-0.0207469 2:-0.913043 4:-1 
-1 1:-0.0207469 2:-0.913043 4:-1 
-1 1:-0.0207469 2:-0.913043 4:-1 
-1 1:-0.0207469 2:-0.913043 4:-1 
-1 1:-0.546888 2:-0.304348 4:-1 
-1 1:-0.546888 2:-0.304348 4:-1 
-1 1:-0.551867 2:-0.652174 4:-1 
-1 1:-0.551867 2:-0.73913 4:-1 
-1 1:-0.850622 2:-0.73913 4:-1 
-1 1:-0.686307 2:-0.913043 4:-0.999218 
-1 1:-0.850622 2:-0.73913 4:-1 
-1 1:-0.0207469 2:-0.913043 4:-1 
-1 1:-0.551867 2:-0.652174 4:-1 
-1 1:-0.686307 2:-0.652174 4:-1 
-1 1:-0.787552 2:-0.652174 4:-1 
-1 1:-0.551867 2:-0.73913 4:-1 
-1 1:-0.623237 2:-0.913043 4:-1 
-1 1:-0.623237 2:-0.913043 4:-1 
-1 1:-0.623237 2:-0.913043 4:-1 
-1 1:-0.623237 2:-0.913043 4:-1 
-1 1:-0.623237 2:-0.913043 4:-1 
-1 1:-0.99668 2:-0.391304 4:-1 
-1 1:-0.686307 2:-0.913043 4:-0.999023 
-1 1:-0.742739 2:-0.826087 4:-1 
-1 1:-0.0207469 2:-0.913043 4:-1 
-1 1:-0.0207469 2:-0.913043 4:-0.999414 
-1 1:-0.0207469 2:-0.913043 4:-0.998241 
-1 1:-0.551867 2:-0.652174 4:-1 
-1 1:-0.623237 2:-0.913043 4:-1 
-1 1:-0.623237 2:-0.391304 4:-1 
-1 1:-0.651452 2:-0.304348 4:-1 
-1 1:0.410788 2:-0.304348 4:-1 
-1 1:-0.686307 2:-0.913043 4:-0.999218 
-1 1:-0.686307 2:-0.913043 4:-0.999218 
-1 1:-0.623237 2:-0.217391 4:-1 
-1 1:-0.814108 2:-0.913043 4:-0.999805 
-1 1:-0.883817 2:-0.652174 4:-1 
-1 1:-0.0207469 2:-0.913043 4:-1 
-1 1:-0.0207469 2:-0.913043 4:-1 
-1 1:-0.686307 2:-0.913043 4:-0.999218 
-1 1:-0.0207469 2:-0.913043 4:-0.999414 
-1 1:-0.0207469 2:-0.913043 4:-1 
-1 1:-0.0207469 2:-0.913043 4:-1 
-1 1:-0.0207469 2:-0.913043 4:-1 
-1 1:-0.0207469 2:-0.913043 4:-0.998241 
-1 1:-0.676349 2:-0.391304 4:-1 
-1 1:-0.0207469 2:-0.913043 4:-1 
-1 1:-0.842324 2:-0.391304 4:-1 
-1 1:-0.434025 2:-0.391304 4:-1 
-1 1:-0.742739 2:-0.826087 4:-1 
-1 1:-0.0207469 2:-0.913043 4:-0.998241 
-1 1:-0.623237 2:-0.913043 4:-1 
-1 1:-0.623237 2:-0.913043 4:-1 
-1 1:-0.623237 2:-0.913043 4:-1 
-1 1:-0.0207469 2:-0.913043 4:-1 
-1 1:-0.0207469 2:-0.913043 4:-0.999218 
-1 1:-0.434025 2:-0.913043 4:-1 
-1 1:-0.0207469 2:-0.913043 4:-0.999218 
-1 1:-0.905394 2:-0.304348 4:-1 
-1 1:-0.742739 2:-0.391304 4:-1 
-1 1:-0.814108 2:-0.913043 4:-1 
-1 1:-0.434025 2:-0.913043 4:-0.999414 
-1 1:-0.772614 2:-0.391304 4:-1 
-1 1:-0.898755 2:-0.304348 4:-1 
-1 1:-0.0207469 2:-0.913043 4:-0.999218 
-1 1:-0.852282 2:-0.73913 4:-1 
-1 1:-0.623237 2:-0.217391 4:-1 
-1 1:-0.434025 2:-0.913043 4:-0.999218 
-1 1:-0.917012 2:-0.913043 4:-0.999218 
-1 1:-0.852282 2:-0.304348 4:-1 
-1 1:-0.676349 2:-0.391304 4:-1 
-1 1:-0.434025 2:-0.130435 4:-1 
-1 1:-0.434025 2:-0.913043 4:-1 
-1 1:-0.434025 2:-0.913043 4:-0.999218 
-1 1:-0.434025 2:-0.913043 4:-0.999218 
-1 1:-0.0207469 2:-0.304348 4:-1 
-1 1:-0.819087 2:-0.478261 4:-1 
-1 1:-0.744398 2:-0.652174 4:-1 
-1 1:-0.434025 2:-0.304348 4:-1 
-1 1:-0.623237 2:-0.913043 4:-0.999218 
-1 1:-0.726141 2:-0.913043 4:-0.999218 
-1 1:-0.744398 2:-0.652174 4:-1 
-1 1:-0.623237 2:-0.391304 4:-1 
-1 1:-0.842324 2:-0.913043 3:-1 4:-1 
-1 1:-0.726141 2:-0.913043 4:-0.999218 
-1 1:-0.0207469 2:-0.652174 4:-0.999023 
-1 1:-0.0207469 2:-0.913043 4:-0.999218 
-1 1:-0.0207469 2:-0.913043 4:-1 
-1 1:-0.0207469 2:-0.913043 4:-0.998241 
-1 1:-0.744398 2:-0.652174 4:-1 
-1 1:-0.809129 2:-0.391304 4:-1 
-1 1:-0.623237 2:-0.391304 4:-1 
-1 1:-0.742739 2:-0.304348 4:-1 
-1 1:-0.819087 2:-0.478261 4:-1 
-1 1:-0.744398 2:-0.652174 4:-1 
-1 1:-0.623237 2:-0.391304 4:-1 
-1 1:-0.900415 2:0.0434783 3:1 4:-1 
-1 1:-0.787552 2:-0.304348 4:-1 
-1 1:0.410788 2:-0.304348 4:-1 
-1 1:-0.744398 2:-0.652174 4:-1 
-1 1:-0.623237 2:-0.391304 4:-1 
-1 1:-0.623237 2:-0.391304 4:-1 
-1 1:-0.651452 2:-0.391304 4:-1 
-1 1:-0.772614 2:-0.0434783 4:-1 
-1 1:-0.0207469 2:-0.913043 4:-0.999023 
-1 1:-0.434025 2:-0.391304 4:-1 
-1 1:-0.744398 2:-0.652174 4:-1 
-1 1:-0.686307 2:-0.304348 4:-1 
-1 1:-0.623237 2:-0.913043 4:-0.999609 
-1 1:-0.389212 2:-0.391304 4:-1 
-1 1:-0.502075 2:-0.652174 4:-1 
-1 1:-0.502075 2:-0.73913 4:-1 
-1 1:-0.898755 2:-0.391304 4:-1 
-1 1:-0.898755 2:-0.304348 4:-1 
-1 1:-0.898755 2:-0.304348 4:-1 
-1 1:-0.389212 2:-0.913043 4:-1 
-1 1:-0.389212 2:-0.913043 4:-1 
-1 1:-0.389212 2:-0.913043 4:-1 
-1 1:-0.686307 2:-0.652174 4:-1 
-1 1:-0.389212 2:-0.913043 4:-1 
-1 1:-0.502075 2:-0.73913 4:-1 
-1 1:-0.502075 2:-0.73913 4:-1 
-1 1:-0.502075 2:-0.73913 4:-1 
-1 1:-0.389212 2:-0.913043 4:-1 
-1 1:-0.389212 2:-0.913043 4:-1 
-1 1:-0.389212 2:-0.913043 4:-1 
-1 1:-0.389212 2:-0.391304 4:-1 
-1 1:-0.389212 2:-0.913043 4:-1 
-1 1:-0.389212 2:-0.913043 4:-1 
-1 1:-0.389212 2:-0.913043 4:-1 
-1 1:-0.502075 2:-0.73913 4:-1 
-1 1:-0.389212 2:-0.913043 4:-1 
-1 1:-0.389212 2:-0.913043 4:-1 
-1 1:-0.389212 2:-0.913043 4:-1 
-1 1:-0.389212 2:-0.913043 4:-1 
-1 1:-0.389212 2:-0.913043 4:-1 
-1 1:-0.389212 2:-0.391304 4:-1 
-1 1:-0.502075 2:-0.73913 4:-1 
-1 1:-0.502075 2:-0.73913 4:-1 
-1 1:-0.434025 2:-0.391304 4:-1 
-1 1:-0.389212 2:-0.913043 4:-1 
-1 1:-0.502075 2:-0.652174 4:-1 
-1 1:-0.502075 2:-0.652174 4:-1 
-1 1:-0.502075 2:-0.73913 4:-1 
-1 1:-0.502075 2:-0.73913 4:-1 
-1 1:-0.502075 2:-0.73913 4:-1 
-1 1:-0.389212 2:-0.913043 4:-1 
-1 1:-0.389212 2:-0.391304 4:-1 
-1 1:-0.883817 2:-0.652174 4:-1 
-1 1:-0.434025 2:-0.391304 4:-1 
-1 1:-0.389212 2:-0.913043 4:-1 
-1 1:-0.146888 2:-0.913043 4:-0.999609 
