svm_type epsilon_svr
kernel_type rbf
gamma 0.25
nr_class 2
total_sv 580
rho -220.44730114191771
SV
-1 1:-0.913043 2:-0.565217 3:-1 4:-0.111111 
-1 1:-0.811594 2:-0.73913 4:-0.555556 
-1 1:-0.905797 2:-0.913043 4:-0.111111 
-1 1:-0.963768 2:-0.478261 4:-0.555556 
-1 1:-0.811594 2:-0.130435 3:1 4:-0.111111 
-1 1:-0.557971 2:-0.913043 3:-0.96875 4:-0.333333 
-1 1:-0.557971 2:-0.913043 3:-0.96875 4:-0.333333 
-1 1:-0.557971 2:-0.913043 3:-0.96875 4:-0.333333 
-1 1:-0.876812 2:-0.565217 4:-0.777778 
-1 1:-0.811594 2:-0.73913 4:-0.777778 
-1 1:-0.811594 2:-0.73913 4:-0.777778 
-1 1:-0.833333 2:-0.913043 4:-0.777778 
-1 1:-0.963768 2:-0.913043 4:-0.777778 
-1 1:0.818841 2:-0.565217 4:-0.777778 
-1 1:-0.963768 2:-0.913043 4:-0.555556 
-1 1:-0.927536 2:-0.913043 4:-1 
-1 1:-0.724638 2:-0.913043 4:-1 
-1 1:-0.956522 2:-0.565217 3:1 4:-0.777778 
-1 1:-0.898551 2:-0.913043 4:-1 
-1 1:-0.623188 2:-0.913043 4:-0.777778 
-1 1:-0.927536 2:-0.913043 4:-1 
-1 1:-0.963768 2:-0.73913 3:1 4:0.111111 
-1 1:-0.833333 2:-0.913043 4:-0.555556 
-1 1:-0.855072 2:-0.73913 4:-0.777778 
-1 1:-0.963768 2:-0.913043 4:-0.777778 
-1 1:0.123188 2:-0.913043 3:1 4:-0.777778 
-1 1:0.818841 2:-0.913043 3:1 4:-0.777778 
-1 1:-0.811594 2:-0.73913 3:1 4:0.111111 
-1 1:0.818841 2:-0.73913 4:-0.777778 
-1 1:-0.608696 2:-0.913043 3:1 4:-0.777778 
-1 1:-0.898551 2:-0.565217 4:-0.555556 
-1 1:-0.971014 2:-0.565217 4:0.111111 
-1 1:-0.804348 2:-0.565217 4:-0.555556 
-1 1:-0.905797 2:-0.565217 4:-0.111111 
-1 1:-0.811594 2:-0.73913 3:1 4:0.111111 
-1 1:-0.724638 2:-0.826087 4:-1 
-1 1:-0.623188 2:-1 3:-1 4:-0.777778 
-1 1:-0.833333 2:-0.913043 4:-0.777778 
-1 1:-0.833333 2:-0.913043 4:-0.555556 
-1 1:-0.811594 2:-0.73913 4:-0.555556 
-1 1:-0.833333 2:-0.913043 4:-0.777778 
-1 1:-0.833333 2:-0.73913 3:1 4:0.111111 
-1 1:-0.818841 2:-0.565217 3:1 4:0.111111 
-1 1:-0.811594 2:-0.73913 4:-0.555556 
-1 1:-0.963768 2:-0.73913 3:1 4:0.111111 
-1 1:-0.550725 2:-0.73913 4:-0.111111 
-1 1:-0.811594 2:-0.913043 4:-0.333333 
-1 1:-0.963768 2:-0.565217 4:-0.555556 
-1 1:-0.913043 2:-0.913043 4:-0.333333 
-1 1:-1 2:-0.73913 4:-0.555556 
-1 1:-0.978261 2:-0.73913 4:-0.333333 
-1 1:-0.963768 2:-0.478261 4:-0.777778 
-1 1:-0.557971 2:-0.913043 3:-0.96875 4:-0.555556 
-1 1:-0.695652 2:-0.73913 4:-0.333333 
-1 1:-0.985507 2:-0.652174 3:1 4:0.777778 
-1 1:-0.811594 2:-0.73913 4:-0.555556 
-1 1:-0.833333 2:-0.913043 4:-0.555556 
-1 1:-0.557971 2:-0.913043 3:-0.96875 4:-0.555556 
-1 1:-0.550725 2:-0.217391 4:-0.555556 
-1 1:-0.811594 2:-0.913043 4:-0.333333 
-1 1:-0.891304 2:-0.652174 3:-1 4:-0.777778 
-1 1:-0.891304 2:-0.73913 4:-0.555556 
-1 1:-0.913043 2:-0.913043 4:-0.333333 
-1 1:-0.891304 2:-0.217391 4:-0.333333 
-1 1:-0.811594 2:-0.73913 4:-0.777778 
-1 1:-0.833333 2:-0.913043 4:-0.777778 
-1 1:-0.811594 2:-0.73913 3:1 4:0.111111 
-1 1:-0.855072 2:-0.73913 4:-0.777778 
-1 1:-0.804348 2:-0.73913 4:-0.111111 
-1 1:-0.963768 2:-0.913043 4:-0.555556 
-1 1:-0.963768 2:-0.478261 4:-0.555556 
-1 1:-0.891304 2:-0.652174 3:-1 4:-0.777778 
-1 1:-0.557971 2:-0.913043 3:-0.96875 4:-0.555556 
-1 1:-0.811594 2:-0.73913 4:-0.333333 
-1 1:-0.891304 2:-0.913043 4:0.111111 
-1 1:-0.963768 2:-0.913043 4:-0.555556 
-1 1:-0.963768 2:-0.913043 4:-0.555556 
-1 1:-0.971014 2:-0.913043 4:-0.777778 
-1 1:-0.862319 2:-0.73913 4:-0.333333 
-1 1:-0.710145 2:-0.73913 4:-0.333333 
-1 1:-0.775362 2:-0.478261 4:-0.111111 
-1 1:-0.956522 2:-0.652174 4:-0.555556 
-1 1:-0.855072 2:-0.73913 4:-0.555556 
-1 1:-0.775362 2:-0.73913 4:-0.555556 
-1 1:-0.963768 2:-0.913043 4:-0.777778 
-1 1:-0.949275 2:-0.73913 4:-0.555556 
-1 1:-0.557971 2:-0.913043 3:-0.96875 4:-0.111111 
-1 1:-0.557971 2:-0.913043 3:-0.96875 4:-0.111111 
-1 1:-0.557971 2:-0.913043 3:-0.96875 4:-0.111111 
1 1:-0.557971 2:-0.913043 3:-0.96875 4:0.111111 
1 1:-0.557971 2:-0.913043 3:-0.96875 4:0.111111 
1 1:-0.702899 2:-0.565217 4:-0.111111 
1 1:-0.557971 2:-0.913043 3:-0.96875 4:0.111111 
0.62168172364557828 1:-0.811594 2:-0.73913 3:1 4:0.111111 
1 1:-0.963768 2:-0.73913 3:1 4:0.111111 
1 1:-0.876812 2:-0.565217 4:-0.555556 
1 1:-0.833333 2:-0.913043 4:-0.555556 
1 1:-0.811594 2:-0.73913 4:-0.777778 
1 1:-0.818841 2:-0.913043 4:-0.777778 
1 1:-0.57971 2:-0.478261 3:1 4:0.111111 
1 1:-0.855072 2:-0.73913 4:-0.777778 
1 1:-0.855072 2:-0.73913 4:-0.777778 
1 1:-0.891304 2:-0.652174 3:-1 4:-0.555556 
1 1:0.818841 2:-0.73913 4:-0.555556 
1 1:0.818841 2:-0.565217 4:-0.555556 
1 1:-0.891304 2:-0.652174 3:-1 4:-0.555556 
1 1:-0.833333 2:-0.73913 3:1 4:0.111111 
1 1:-0.833333 2:-0.913043 4:-0.777778 
1 1:-0.833333 2:-0.913043 4:-0.777778 
1 1:-0.833333 2:-0.913043 4:-0.777778 
1 1:-0.811594 2:-0.73913 3:1 4:0.111111 
1 1:-0.833333 2:-0.913043 4:-0.555556 
1 1:-0.811594 2:-0.73913 4:-0.333333 
1 1:-0.927536 2:-0.652174 3:-1 4:-0.777778 
1 1:-0.811594 2:-0.73913 4:-0.777778 
1 1:-0.949275 2:-0.73913 4:-0.555556 
1 1:-0.862319 2:-0.652174 3:-1 4:-0.777778 
1 1:-0.847826 2:-0.73913 3:1 4:0.111111 
1 1:-0.956522 2:-0.652174 3:-1 4:-0.555556 
1 1:-0.862319 2:-0.652174 3:-1 4:-0.777778 
1 1:-0.797101 2:-0.73913 3:1 4:0.111111 
1 1:-0.797101 2:-0.73913 4:-0.555556 
1 1:-0.891304 2:-0.652174 3:-1 4:-0.777778 
1 1:-0.833333 2:-0.913043 4:-0.555556 
1 1:-0.963768 2:-0.73913 3:1 4:0.111111 
1 1:-0.811594 2:-0.73913 4:-0.555556 
1 1:-0.847826 2:-0.565217 4:-0.555556 
1 1:-0.811594 2:-0.73913 4:-0.777778 
1 1:-0.811594 2:-0.73913 4:-0.555556 
1 1:-0.811594 2:-0.73913 4:-0.555556 
1 1:-0.963768 2:-0.391304 4:-0.333333 
1 1:-0.811594 2:-0.73913 4:-0.555556 
1 1:-0.833333 2:-0.913043 4:-0.555556 
1 1:-0.811594 2:-0.73913 4:-0.777778 
1 1:-0.811594 2:-0.73913 4:-0.555556 
1 1:-0.862319 2:-0.565217 3:1 4:0.111111 
1 1:-0.978261 2:-0.73913 3:1 4:0.111111 
1 1:-0.963768 2:-0.73913 3:1 4:0.111111 
1 1:-0.963768 2:-0.73913 3:1 4:0.111111 
1 1:-0.963768 2:-0.913043 4:-0.555556 
1 1:-0.833333 2:-0.913043 4:-0.777778 
1 1:-0.963768 2:-0.913043 4:-0.777778 
1 1:-0.913043 2:-0.565217 3:-1 4:-0.777778 
1 1:-0.833333 2:-0.913043 4:-0.111111 
1 1:-0.833333 2:-0.913043 4:-0.111111 
1 1:-0.811594 2:-0.73913 4:-0.111111 
1 1:-0.811594 2:-0.73913 3:1 4:0.111111 
1 1:-0.891304 2:-0.652174 3:-1 4:-0.555556 
1 1:-0.811594 2:-0.73913 3:1 4:0.111111 
1 1:-0.985507 2:-0.73913 3:1 4:0.111111 
1 1:-0.818841 2:-0.913043 4:-0.555556 
1 1:-0.818841 2:-0.913043 4:-0.777778 
1 1:-0.384058 2:-0.913043 3:1 4:-0.777778 
1 1:-0.847826 2:-0.652174 3:-1 4:-0.555556 
1 1:-0.978261 2:-0.391304 4:-0.555556 
1 1:-0.811594 2:-0.73913 3:1 4:0.111111 
1 1:-0.804348 2:-0.652174 3:-1 4:-0.555556 
1 1:-0.811594 2:-0.73913 4:-0.555556 
1 1:-0.811594 2:-0.913043 4:-0.555556 
1 1:-0.833333 2:-0.73913 3:1 4:0.111111 
1 1:-0.833333 2:-0.913043 4:-0.555556 
1 1:-0.702899 2:-0.565217 4:-0.333333 
1 1:-0.550725 2:-0.217391 4:-0.555556 
1 1:-0.833333 2:-0.913043 4:-0.555556 
1 1:-0.811594 2:-0.73913 3:1 4:0.111111 
1 1:-0.811594 2:-0.73913 4:-0.777778 
1 1:-0.253623 2:-0.73913 4:-0.555556 
1 1:-0.811594 2:-0.73913 3:1 4:0.111111 
1 1:-0.862319 2:-0.73913 4:-0.555556 
1 1:-0.956522 2:-0.391304 4:-0.555556 
1 1:-0.978261 2:-0.73913 3:1 4:0.111111 
1 1:-0.811594 2:-0.73913 4:-0.555556 
1 1:-0.144928 2:0.0434783 4:-0.555556 
1 1:-0.144928 2:-0.73913 4:-0.555556 
1 1:-0.144928 2:-0.73913 4:-0.555556 
1 1:-0.985507 2:-0.652174 3:1 4:0.333333 
1 1:-0.253623 2:-0.913043 4:-0.555556 
1 1:-0.768116 2:-0.304348 4:-0.111111 
1 1:-0.144928 2:-0.73913 4:-0.555556 
1 1:-0.144928 2:-0.913043 4:-0.555556 
1 1:-0.833333 2:-0.73913 3:1 4:0.111111 
1 1:-0.702899 2:-0.73913 4:-0.333333 
1 1:-0.833333 2:-0.73913 3:1 4:0.111111 
1 1:-0.811594 2:-0.73913 3:1 4:0.111111 
1 1:-0.833333 2:-0.913043 4:-0.777778 
1 1:-0.550725 2:-0.913043 4:-0.555556 
1 1:-0.891304 2:-0.652174 3:-1 4:-0.777778 
1 1:-0.971014 2:-0.73913 3:1 4:0.111111 
1 1:-0.818841 2:-0.913043 4:-0.555556 
1 1:-0.847826 2:-0.652174 3:-1 4:-0.555556 
1 1:-0.536232 2:-0.478261 3:1 4:0.111111 
1 1:-0.963768 2:-0.913043 4:-0.555556 
1 1:-0.847826 2:-0.652174 3:-1 4:-0.777778 
1 1:-0.826087 2:0.217391 3:1 4:0.333333 
1 1:-0.818841 2:-0.913043 4:-0.777778 
1 1:-0.695652 2:-0.304348 3:1 4:0.111111 
1 1:-0.391304 2:-0.913043 3:1 4:-0.777778 
1 1:-0.963768 2:-0.73913 3:1 4:0.111111 
1 1:-0.862319 2:-0.565217 3:1 4:0.111111 
1 1:-0.891304 2:-0.652174 3:-1 4:-0.777778 
1 1:-0.985507 2:-0.73913 3:1 4:0.111111 
1 1:-0.963768 2:-0.478261 4:-0.777778 
1 1:-0.73913 2:-0.73913 4:-0.777778 
1 1:-0.891304 2:-0.652174 3:-1 4:-0.777778 
1 1:-0.702899 2:-0.478261 4:-0.333333 
1 1:-0.702899 2:-0.652174 4:-0.111111 
1 1:-0.949275 2:-0.913043 3:1 4:-0.333333 
1 1:-0.804348 2:-0.652174 3:1 4:0.111111 
1 1:-0.869565 2:-0.565217 4:-1 
1 1:-0.391304 2:-0.913043 3:1 4:-0.777778 
1 1:-0.833333 2:-0.913043 4:-0.555556 
1 1:-0.833333 2:-0.913043 4:-0.555556 
1 1:-0.833333 2:-0.913043 4:-0.777778 
1 1:-0.963768 2:-0.73913 3:1 4:0.111111 
1 1:-0.891304 2:-0.652174 3:-1 4:-0.555556 
1 1:-0.978261 2:-0.73913 3:1 4:0.111111 
1 1:-0.811594 2:-0.73913 3:1 4:0.111111 
1 1:-0.949275 2:-0.478261 4:-0.111111 
1 1:-0.978261 2:-0.73913 3:1 4:0.111111 
1 1:-0.898551 2:-0.652174 3:1 4:0.111111 
1 1:-0.833333 2:-0.73913 3:1 4:0.111111 
1 1:-0.927536 2:-0.652174 4:-0.555556 
1 1:-0.384058 2:-0.73913 3:1 4:0.111111 
1 1:-0.891304 2:-0.652174 3:-1 4:-0.555556 
1 1:-0.927536 2:-0.652174 4:-0.555556 
1 1:-0.971014 2:-0.913043 4:-0.555556 
1 1:-0.847826 2:-0.652174 3:-1 4:-0.555556 
1 1:-0.855072 2:-0.73913 4:-0.555556 
1 1:-0.978261 2:-0.565217 3:1 4:0.111111 
1 1:-0.57971 2:-1 3:-1 4:-0.777778 
1 1:-0.811594 2:-0.73913 4:0.111111 
1 1:-0.934783 2:-0.565217 4:-0.111111 
1 1:-0.978261 2:-0.73913 3:1 4:0.111111 
1 1:-0.978261 2:-0.73913 3:1 4:0.111111 
1 1:-0.978261 2:-0.73913 3:1 4:0.111111 
1 1:-0.833333 2:-0.73913 3:1 4:-0.111111 
1 1:-0.847826 2:-0.391304 3:1 4:0.111111 
1 1:-0.833333 2:-0.913043 4:-0.555556 
1 1:-0.297101 2:-0.652174 3:-1 4:-0.555556 
1 1:-0.644928 2:-0.565217 3:1 4:0.111111 
1 1:-0.92029 2:-0.217391 4:-0.111111 
1 1:-0.811594 2:-0.73913 3:1 4:0.111111 
1 1:-0.811594 2:-0.73913 3:1 4:0.111111 
1 1:-0.833333 2:-0.913043 4:-0.777778 
1 1:-0.891304 2:-0.652174 3:-1 4:-0.555556 
1 1:-0.978261 2:-0.73913 3:1 4:0.111111 
1 1:-0.695652 2:-0.652174 4:-0.555556 
1 1:-0.891304 2:-0.73913 3:1 4:0.111111 
1 1:-0.985507 2:-0.826087 4:-0.555556 
1 1:-0.695652 2:-0.73913 3:1 4:0.111111 
1 1:0.818841 2:-0.913043 3:1 4:-0.777778 
1 1:-0.927536 2:-0.652174 3:-1 4:-0.555556 
1 1:-0.710145 2:-0.391304 4:-0.777778 
1 1:-0.963768 2:-0.73913 3:1 4:0.111111 
1 1:-0.978261 2:-0.217391 4:-0.777778 
1 1:-0.963768 2:-0.391304 4:-0.555556 
1 1:1 2:1 4:-0.555556 
1 1:-0.869565 2:-0.73913 4:-0.555556 
1 1:-0.949275 2:-0.565217 4:-0.111111 
1 1:-0.811594 2:-0.913043 4:-0.333333 
1 1:-0.144928 2:-0.73913 4:-0.111111 
1 1:-0.811594 2:-0.913043 4:-0.555556 
1 1:-0.144928 2:-0.73913 4:-0.111111 
1 1:-0.811594 2:-0.73913 4:-0.333333 
1 1:-0.775362 2:-0.73913 4:-0.555556 
1 1:-0.557971 2:-0.73913 3:-1 4:-0.111111 
1 1:-0.963768 2:-0.73913 3:1 4:0.111111 
1 1:-0.833333 2:-0.913043 4:-0.111111 
1 1:-0.913043 2:-0.913043 4:-1 
1 1:0.123188 2:-0.913043 3:1 4:-0.777778 
1 1:0.123188 2:-0.913043 3:1 4:-0.777778 
1 1:0.123188 2:-0.913043 3:1 4:-0.777778 
1 1:-0.804348 2:-0.652174 3:-1 4:-0.555556 
1 1:-0.978261 2:-0.73913 3:1 4:0.111111 
1 1:-0.934783 2:-0.565217 4:-0.111111 
1 1:-0.391304 2:-0.913043 3:1 4:-0.777778 
1 1:0.123188 2:-0.913043 3:1 4:-0.777778 
1 1:0.123188 2:-0.913043 3:1 4:-0.777778 
1 1:-0.855072 2:-0.73913 4:-0.555556 
1 1:-0.775362 2:-0.913043 4:-0.555556 
1 1:-0.963768 2:-0.478261 4:-0.111111 
1 1:-0.963768 2:-0.913043 4:-0.555556 
1 1:-0.811594 2:-0.73913 4:-0.555556 
1 1:-0.811594 2:-0.73913 4:-0.555556 
1 1:-0.304348 2:-0.217391 4:0.555556 
1 1:-0.963768 2:-0.913043 4:-0.777778 
1 1:-0.855072 2:-0.652174 3:1 4:0.333333 
1 1:-0.811594 2:-0.73913 3:1 4:0.111111 
1 1:-0.978261 2:-0.73913 3:1 4:0.111111 
1 1:-0.847826 2:-0.652174 3:-1 4:-0.555556 
1 1:-0.913043 2:-0.913043 3:1 4:-0.333333 
1 1:-0.891304 2:-0.652174 3:-1 4:-0.555556 
1 1:-0.949275 2:-0.478261 4:-0.111111 
1 1:-0.891304 2:-0.652174 3:-1 4:-0.555556 
1 1:-0.949275 2:-0.478261 4:-0.111111 
1 1:-0.992754 2:-0.73913 3:-0.5 4:-0.777778 
1 1:-0.978261 2:-0.73913 3:1 4:0.111111 
1 1:-0.811594 2:-0.73913 4:-0.555556 
1 1:-0.891304 2:-0.652174 3:-1 4:-0.555556 
1 1:-0.978261 2:-0.652174 3:-1 4:-0.555556 
1 1:-0.942029 2:-0.913043 4:0.555556 
1 1:-0.833333 2:-0.73913 3:1 4:0.111111 
1 1:-0.833333 2:-0.913043 4:-0.777778 
1 1:-0.804348 2:-0.652174 3:-1 4:-0.555556 
1 1:-0.811594 2:-0.73913 3:1 4:0.111111 
-1 1:-0.876812 2:-0.565217 4:-0.555556 
-1 1:-0.811594 2:-0.73913 4:-0.333333 
-1 1:-0.934783 2:-0.565217 4:-0.111111 
-1 1:-0.811594 2:-0.73913 4:0.111111 
-1 1:-0.811594 2:-0.73913 4:-0.333333 
-1 1:-0.949275 2:-0.73913 4:-0.555556 
-1 1:0.818841 2:-0.565217 4:-0.555556 
-1 1:-0.695652 2:-0.73913 4:-0.333333 
-1 1:-0.811594 2:-0.73913 4:-0.555556 
-1 1:-0.811594 2:-0.73913 4:-0.555556 
-1 1:-0.833333 2:-0.913043 4:-0.555556 
-1 1:-0.891304 2:-0.217391 4:-0.333333 
-1 1:-0.905797 2:-0.913043 4:-0.111111 
-1 1:-0.913043 2:-0.913043 4:-0.333333 
-1 1:-0.891304 2:-0.73913 4:-0.555556 
-1 1:-0.963768 2:-0.478261 4:-0.555556 
-1 1:-0.855072 2:-0.73913 4:-0.555556 
-1 1:-0.811594 2:-0.73913 4:-0.555556 
-1 1:-0.855072 2:-0.73913 4:-0.555556 
-1 1:-0.978261 2:-0.73913 4:-0.111111 
-1 1:-1 2:-0.73913 4:-0.555556 
-1 1:-0.811594 2:-0.130435 3:1 4:-0.111111 
-1 1:-0.913043 2:-0.913043 4:-0.333333 
-1 1:-0.811594 2:-0.73913 4:-0.555556 
-1 1:-0.811594 2:-0.73913 4:-0.555556 
-1 1:-0.811594 2:-0.73913 4:-0.555556 
-1 1:-0.811594 2:-0.73913 4:-0.555556 
-1 1:-0.623188 2:-0.913043 4:-0.777778 
-1 1:-0.927536 2:-0.913043 4:-1 
-1 1:-0.724638 2:-0.913043 4:-1 
-1 1:-0.898551 2:-0.913043 4:-1 
-1 1:-0.913043 2:-0.565217 3:-1 4:-0.111111 
-1 1:-0.963768 2:-0.73913 3:1 4:0.111111 
-1 1:-0.971014 2:-0.565217 4:0.111111 
-1 1:-0.927536 2:-0.913043 4:-1 
-1 1:-0.557971 2:-0.913043 3:-0.96875 4:-0.333333 
-1 1:-0.557971 2:-0.913043 3:-0.96875 4:-0.333333 
-1 1:-0.557971 2:-0.913043 3:-0.96875 4:-0.333333 
-1 1:0.818841 2:-0.913043 3:1 4:-0.777778 
-1 1:-0.956522 2:-0.565217 3:1 4:-0.777778 
-1 1:-0.963768 2:-0.73913 3:1 4:0.111111 
-1 1:-0.550725 2:-0.73913 4:-0.111111 
-1 1:-0.811594 2:-0.913043 4:-0.111111 
-1 1:-0.963768 2:-0.478261 4:-0.555556 
-1 1:-0.811594 2:-0.73913 3:1 4:0.111111 
-1 1:-0.963768 2:-0.478261 4:-0.555556 
-1 1:-0.550725 2:-0.217391 4:-0.555556 
-1 1:-0.811594 2:-0.913043 4:-0.111111 
-1 1:-0.811594 2:-0.73913 3:1 4:0.111111 
-1 1:-0.963768 2:-0.913043 4:-0.555556 
-1 1:-0.963768 2:-0.913043 4:-0.555556 
-1 1:-0.891304 2:-0.913043 4:0.111111 
-1 1:-0.963768 2:-0.913043 4:-0.555556 
-1 1:-0.963768 2:-0.913043 4:-0.555556 
-1 1:-0.971014 2:-0.913043 4:-0.555556 
-1 1:-0.862319 2:-0.73913 4:-0.333333 
-1 1:-0.710145 2:-0.73913 4:-0.333333 
-1 1:-0.775362 2:-0.478261 4:-0.111111 
-1 1:-0.963768 2:-0.913043 4:-0.555556 
-1 1:-0.855072 2:-0.73913 4:-0.555556 
-1 1:-0.775362 2:-0.73913 4:-0.555556 
-1 1:-0.963768 2:-0.913043 4:-0.555556 
-1 1:-0.818841 2:-0.913043 4:-0.555556 
-1 1:-0.833333 2:-0.913043 4:-0.555556 
-1 1:-0.608696 2:-0.913043 3:1 4:-0.777778 
-1 1:-0.876812 2:-0.565217 4:-0.555556 
-1 1:-0.833333 2:-0.913043 4:-0.555556 
-1 1:-0.811594 2:-0.73913 4:-0.555556 
-1 1:-0.833333 2:-0.913043 4:-0.555556 
-1 1:-0.384058 2:-0.913043 3:1 4:-0.555556 
-1 1:-0.818841 2:-0.913043 4:-0.555556 
-1 1:-0.818841 2:-0.913043 4:-0.555556 
-1 1:-0.847826 2:-0.73913 3:1 4:0.111111 
-1 1:-0.913043 2:-0.565217 3:-1 4:-0.555556 
-1 1:-0.963768 2:-0.913043 4:-0.555556 
-1 1:-0.855072 2:-0.73913 4:-0.777778 
-1 1:0.818841 2:-0.73913 4:-0.555556 
-1 1:0.818841 2:-0.565217 4:-0.555556 
-1 1:-0.833333 2:-0.913043 4:-0.555556 
-1 1:-0.384058 2:-0.73913 3:1 4:0.111111 
-1 1:-0.811594 2:-0.73913 3:1 4:0.111111 
-1 1:-0.811594 2:-0.73913 4:-0.555556 
-1 1:-0.963768 2:-0.913043 4:-0.555556 
-1 1:-0.73913 2:-0.73913 4:-0.555556 
-1 1:-0.862319 2:-0.652174 3:-1 4:-0.555556 
-1 1:-0.855072 2:-0.73913 4:-0.555556 
-1 1:-0.985507 2:-0.652174 3:1 4:1 
-1 1:-0.963768 2:-0.913043 4:-0.555556 
-1 1:-0.963768 2:-0.73913 3:1 4:0.111111 
-1 1:-0.833333 2:-0.913043 4:-0.555556 
-1 1:-0.855072 2:-0.73913 4:-0.555556 
-1 1:-0.971014 2:-0.73913 3:1 4:0.111111 
-1 1:-0.833333 2:-0.913043 4:-0.777778 
-1 1:-0.811594 2:-0.73913 4:-0.555556 
-1 1:-0.971014 2:-0.913043 4:-0.555556 
-1 1:-0.710145 2:-0.391304 4:-0.555556 
-1 1:-0.978261 2:-0.217391 4:-0.555556 
-1 1:-0.811594 2:-0.73913 4:-0.333333 
-1 1:-0.978261 2:-0.652174 4:-0.555556 
-1 1:1 2:1 4:-0.555556 
-1 1:-0.978261 2:-0.73913 3:1 4:0.111111 
-1 1:-0.963768 2:-0.391304 4:-0.555556 
-1 1:-0.818841 2:-0.913043 4:-0.555556 
-1 1:-0.978261 2:-0.73913 3:1 4:0.111111 
-1 1:-0.57971 2:-0.478261 3:1 4:0.111111 
-1 1:-0.898551 2:-0.565217 4:-0.555556 
-1 1:-0.833333 2:-0.913043 4:-0.555556 
-1 1:-0.963768 2:-0.391304 4:-0.333333 
-1 1:-0.811594 2:-0.73913 4:-0.555556 
-1 1:-0.978261 2:-0.391304 4:-0.555556 
-1 1:-0.869565 2:-0.73913 4:-0.555556 
-1 1:-0.557971 2:-0.913043 3:-0.96875 4:-0.555556 
-1 1:-0.905797 2:-0.565217 4:-0.111111 
-1 1:-0.811594 2:-0.913043 4:-0.333333 
-1 1:-0.949275 2:-0.73913 4:-0.555556 
-1 1:-0.557971 2:-0.913043 3:-0.96875 4:-0.555556 
-1 1:-0.956522 2:-0.391304 4:-0.555556 
-1 1:-0.144928 2:0.0434783 4:-0.555556 
-1 1:-0.144928 2:-0.73913 4:-0.111111 
-1 1:-0.811594 2:-0.913043 4:-0.555556 
-1 1:-0.963768 2:-0.73913 3:1 4:0.111111 
-1 1:-0.144928 2:-0.73913 4:-0.555556 
-1 1:-0.144928 2:-0.73913 4:-0.555556 
-1 1:-0.985507 2:-0.652174 3:1 4:1 
-1 1:-0.144928 2:-0.73913 4:-0.111111 
-1 1:-0.557971 2:-0.913043 3:-0.96875 4:-0.555556 
-1 1:-0.144928 2:-0.73913 4:-0.555556 
-1 1:-0.144928 2:-0.913043 4:-0.555556 
-1 1:-0.811594 2:-0.73913 4:-0.333333 
-1 1:-0.775362 2:-0.73913 4:-0.555556 
-1 1:-0.855072 2:-0.73913 4:-0.555556 
-1 1:0.818841 2:-0.913043 3:1 4:-0.777778 
-1 1:0.818841 2:-0.913043 4:-0.333333 
-1 1:-0.963768 2:-0.73913 3:1 4:0.333333 
-1 1:-0.797101 2:-0.73913 4:-0.555556 
-1 1:-0.956522 2:-0.652174 3:-1 4:-0.555556 
-1 1:-0.804348 2:-0.652174 3:-1 4:-0.555556 
-1 1:-0.811594 2:-0.73913 4:-0.555556 
-1 1:-0.811594 2:-0.73913 4:-0.555556 
-1 1:-0.811594 2:-0.73913 4:-0.555556 
-1 1:-0.804348 2:-0.652174 3:-1 4:-0.555556 
-1 1:-0.811594 2:-0.73913 4:-0.555556 
-1 1:-0.811594 2:-0.73913 4:-0.555556 
-1 1:-0.833333 2:-0.913043 4:-0.555556 
-1 1:-0.862319 2:-0.652174 3:-1 4:-0.555556 
-1 1:-0.811594 2:-0.73913 4:-0.555556 
-1 1:-0.833333 2:-0.913043 4:-0.555556 
-1 1:-0.949275 2:-0.478261 4:-0.111111 
-1 1:-0.811594 2:-0.73913 3:1 4:0.111111 
-1 1:-0.811594 2:-0.73913 3:1 4:0.333333 
-1 1:-0.847826 2:-0.652174 3:-1 4:-0.555556 
-1 1:-0.847826 2:-0.565217 4:-0.333333 
-1 1:-0.891304 2:-0.652174 3:-1 4:-0.555556 
-0.62168172364557828 1:-0.891304 2:-0.652174 3:-1 4:-0.555556 
-1 1:-0.811594 2:-0.73913 3:1 4:0.111111 
1 1:-0.833333 2:-0.913043 4:-0.555556 
1 1:-0.557971 2:-0.913043 3:-0.96875 4:0.111111 
1 1:-0.557971 2:-0.913043 3:-0.96875 4:0.111111 
1 1:-0.557971 2:-0.913043 3:-0.96875 4:0.111111 
1 1:-0.956522 2:-0.652174 4:-0.555556 
1 1:-0.963768 2:-0.565217 4:-0.555556 
1 1:-0.804348 2:-0.565217 4:-0.555556 
1 1:-0.550725 2:-0.217391 4:-0.555556 
1 1:-0.804348 2:-0.652174 3:1 4:0.111111 
1 1:-0.811594 2:-0.73913 4:-0.555556 
1 1:-0.833333 2:-0.913043 4:-0.555556 
1 1:-0.797101 2:-0.73913 3:1 4:0.111111 
1 1:-0.550725 2:-0.913043 4:-0.555556 
1 1:-0.869565 2:-0.565217 4:-0.555556 
1 1:-0.963768 2:-0.73913 3:1 4:0.111111 
1 1:-0.811594 2:-0.73913 3:1 4:0.111111 
1 1:-0.833333 2:-0.913043 4:-0.555556 
1 1:-0.978261 2:-0.73913 3:1 4:0.111111 
1 1:-0.811594 2:-0.73913 4:-0.555556 
1 1:-0.927536 2:-0.913043 4:-1 
1 1:-0.702899 2:-0.565217 4:-0.333333 
1 1:-0.811594 2:-0.73913 3:1 4:0.111111 
1 1:-0.702899 2:-0.73913 4:-0.333333 
1 1:-0.833333 2:-0.913043 4:-0.111111 
1 1:-0.833333 2:-0.913043 4:-0.111111 
1 1:-0.811594 2:-0.73913 4:-0.111111 
1 1:0.818841 2:-0.73913 4:-0.555556 
-1 1:-0.0217391 2:-0.73913 4:-1 
-1 1:0.688406 2:-0.652174 4:-1 
-1 1:-0.0144928 2:-0.73913 4:-1 
-1 1:-0.565217 2:-0.826087 3:-1 4:-1 
-1 1:-0.0144928 2:-0.565217 4:-1 
-1 1:-0.536232 2:-0.391304 4:-1 
-1 1:-0.0217391 2:-0.73913 4:-1 
-1 1:-0.0144928 2:-0.73913 4:-1 
-1 1:-0.0144928 2:-0.73913 4:-1 
-1 1:-0.0217391 2:-0.73913 4:-1 
-1 1:-0.565217 2:-0.652174 4:-1 
-1 1:-0.557971 2:-0.652174 4:-1 
-1 1:-0.449275 2:-0.652174 4:-1 
-1 1:-0.0217391 2:-0.73913 4:-1 
-1 1:-0.202899 2:-0.652174 4:-1 
-1 1:0.413043 2:-0.478261 3:-1 4:-0.777778 
-1 1:0.413043 2:-0.130435 3:1 4:-0.333333 
-1 1:0.413043 2:-0.565217 3:1 4:-0.777778 
-1 1:-0.601449 2:-0.73913 3:1 4:-0.111111 
-1 1:0.413043 2:-0.217391 3:1 4:0.111111 
-1 1:-0.202899 2:-0.913043 3:-1 4:-1 
-1 1:-0.601449 2:-0.565217 3:1 4:0.111111 
-1 1:-0.152174 2:-0.565217 3:1 4:-0.777778 
-1 1:-0.789855 2:-0.73913 3:1 4:-1 
-1 1:-0.130435 2:-0.73913 4:-1 
-1 1:-0.0217391 2:-0.73913 4:-1 
-1 1:0.688406 2:-0.652174 4:-1 
-1 1:-0.130435 2:-0.73913 4:-1 
1 1:-0.0217391 2:-0.652174 4:-1 
1 1:-0.0217391 2:-0.73913 4:-1 
1 1:0.688406 2:-0.565217 4:-1 
1 1:0.688406 2:-0.73913 4:-1 
1 1:-0.130435 2:-0.652174 4:-1 
1 1:-0.884058 2:-0.826087 4:-0.555556 
1 1:0.688406 2:-0.652174 4:-1 
1 1:-0.673913 2:-0.304348 4:-1 
1 1:-0.673913 2:-0.304348 4:-1 
1 1:-0.449275 2:-0.913043 4:-0.111111 
1 1:-0.413043 2:-0.652174 4:-1 
1 1:-0.413043 2:-0.652174 4:-1 
1 1:-0.376812 2:-0.652174 4:-1 
1 1:-0.427536 2:-0.652174 4:-1 
1 1:-0.202899 2:-0.652174 4:-1 
1 1:-0.601449 2:-0.652174 4:-1 
1 1:-0.268116 2:-0.826087 4:-1 
-1 1:-0.0217391 2:-0.73913 4:-1 
-1 1:0.688406 2:-0.652174 4:-1 
-1 1:-0.565217 2:-0.652174 4:-1 
-1 1:-0.565217 2:-0.826087 3:-1 4:-1 
-1 1:-0.557971 2:-0.652174 4:-1 
-1 1:0.688406 2:-0.652174 4:-1 
-1 1:-0.0144928 2:-0.73913 4:-1 
-1 1:-0.0217391 2:-0.73913 4:-1 
-1 1:-0.0144928 2:-0.73913 4:-1 
-1 1:-0.0144928 2:-0.565217 4:-1 
-1 1:-0.536232 2:-0.391304 4:-1 
-1 1:0.413043 2:-0.478261 3:-1 4:-0.333333 
-1 1:0.413043 2:-0.130435 3:1 4:0.111111 
-1 1:0.413043 2:-0.565217 3:1 4:-0.777778 
-1 1:-0.789855 2:-0.73913 3:1 4:-1 
-1 1:-0.152174 2:-0.565217 3:1 4:-0.777778 
1 1:-0.202899 2:-0.913043 3:-1 4:-1 
-1 1:0.413043 2:-0.217391 3:1 4:-0.333333 
-1 1:-0.601449 2:-0.73913 3:1 4:-0.111111 
1 1:-0.130435 2:-0.73913 4:-1 
1 1:-0.601449 2:-0.565217 3:1 4:0.111111 
1 1:-0.202899 2:-0.826087 3:-0.75 4:-1 
1 1:-0.884058 2:-0.826087 4:-0.555556 
1 1:-0.173913 2:-0.826087 4:-1 
1 1:-0.449275 2:-0.652174 4:-1 
1 1:-0.673913 2:-0.304348 4:-1 
1 1:-0.673913 2:-0.304348 4:-1 
1 1:-0.268116 2:-0.826087 4:-1 
1 1:-0.202899 2:-0.652174 4:-1 
1 1:-0.202899 2:-0.913043 3:-1 4:-1 
1 1:0.688406 2:-0.652174 4:-1 
1 1:-0.202899 2:-0.652174 4:-1 
1 1:-0.130435 2:-0.73913 4:-1 
1 1:-0.268116 2:-0.826087 4:-1 
1 1:-0.130435 2:-0.652174 4:-1 
1 1:-0.202899 2:-0.652174 4:-1 
1 1:-0.130435 2:-0.73913 4:-1 
1 1:-0.130435 2:-0.73913 4:-1 
1 1:0.115942 2:-0.652174 4:-1 
1 1:0.115942 2:-0.652174 4:-1 
1 1:0.115942 2:-0.652174 4:-1 
1 1:0.115942 2:-0.652174 4:-1 
1 1:-0.26087 2:-0.73913 4:-1 
1 1:-0.26087 2:-0.73913 4:-1 
1 1:-0.144928 2:-0.913043 4:-0.555556 
1 1:-0.144928 2:-0.826087 4:-0.333333 
1 1:-0.144928 2:-0.913043 4:-0.555556 
1 1:0.115942 2:-0.652174 4:-1 
